tree
version=v4
num_class=1
num_tree_per_iteration=1
label_index=0
max_feature_idx=125
objective=binary sigmoid:1
feature_names=log_return_1 log_return_3 log_return_6 range_1 atr_proxy volatility_lookback hour_of_day day_of_week session_asia session_london session_newyork volume_zscore relative_volume volume_percentile body_ratio upper_wick_ratio lower_wick_ratio atr_normalized_range stop_distance dist_ema_fast dist_ema_slow trend_strength trend_direction ema_slow_slope sweep_high_detected sweep_low_detected sweep_depth_atr sweep_rejection_ratio sweep_volume_zscore bullish_fvg_present bearish_fvg_present fvg_size_atr fvg_age_candles price_inside_fvg breakout_volume_confirmation rejection_volume_confirmation volume_block_strength atr_percentile range_compression high_volatility_flag market_regime funding_rate funding_rate_abs funding_rate_mean_4 funding_rate_std_4 mark_basis mark_premium mark_premium_mean_4 futures_pressure m1_bull_ratio m1_vol_tail_pct m1_max_body_ratio m1_trend m1_atr_ratio m1_volume_zscore m5_bull_ratio m5_vol_tail_pct m5_max_body_ratio m5_trend m5_atr_ratio m5_volume_zscore btc_1h_log_return_1 btc_1h_log_return_3 btc_1h_ema_fast btc_1h_ema_slow btc_1h_trend_strength btc_1h_trend_dir btc_1h_atr_pct btc_1h_volume_zscore btc_1h_regime btc_4h_log_return_1 btc_4h_log_return_3 btc_4h_ema_fast btc_4h_ema_slow btc_4h_trend_strength btc_4h_trend_dir btc_4h_atr_pct btc_4h_volume_zscore btc_4h_regime btc_1d_log_return_1 btc_1d_log_return_3 btc_1d_ema_fast btc_1d_ema_slow btc_1d_trend_strength btc_1d_trend_dir btc_1d_atr_pct btc_1d_volume_zscore btc_1d_regime eth_return_1 eth_return_3 eth_trend eth_volume_block sol_return_1 sol_return_3 sol_trend sol_volume_block gold_return_1d gold_return_5d gold_ema_fast gold_ema_slow gold_trend gold_trend_dir oil_return_1d oil_return_5d oil_ema_fast oil_ema_slow oil_trend oil_trend_dir dxy_return_1d dxy_return_5d dxy_ema_fast dxy_ema_slow dxy_trend dxy_trend_dir spx_return_1d spx_return_5d spx_ema_fast spx_ema_slow spx_trend spx_trend_dir vix_return_1d vix_return_5d vix_ema_fast vix_ema_slow vix_trend vix_trend_dir
feature_infos=[-0.04832452516267341:0.031568184591943091] [-0.076640046063691042:0.063346432335985012] [-0.082013179699768637:0.083134006785349254] [4.2965928932631628e-05:0.094333217719856199] [0:2773.1714285714284] [0:0.014907333497675108] [0:23] [0:6] [0:1] [0:1] [0:1] [-3.432962983644356:4.2446481705018666] [0.056858815350753836:68.780095000000003] [0:1] [0:1] [0:0.99782451051484489] [0:1] [0:8.1297468354430382] [0:0.024687081243085759] [-0.053703798949534615:0.039355959854991754] [-0.074730465963056131:0.061803287725581399] [-0.027387549847263003:0.024405539106781556] [-1:1] [-0.0069534146774270491:0.0065874551591378399] [0:1] [0:1] [0:3.5207856765792629] [0:0.99664590321036373] [-2.7501618770013607:8.4125066260255981] [0:1] [0:1] [0:3.5814752051373597] [0:999] [-1:1] [0:4.2446481705018666] [0:4.1395560762087023] [0:4.3608682025128944] [0:1] [0:0.48472678471276043] [0:1] [-1:1] none none none none none none none none [0:1] [0.0055708054021371542:0.92011331023371878] [0.51498810467893985:1] [-0.016241015305435969:0.0073873449822254205] [1.4642857142877932:890.30500000000086] [-3.0051737898451609:4.2399289121548724] [0:1] [0.0081087745669543958:0.97778317682407623] [0.021840873634857566:1] [-0.023186849413001372:0.017169689635166512] [6.8207142857146597:2861.392857142856] [-3.0052759695146545:4.2468144663128973] [-0.050249730589861971:0.049122385145040554] [-0.07720082461920072:0.10081217739257158] [0.94047017181529591:1.0647523869344504] [0.92477776877792583:1.0984151938602147] [-0.045497379749202538:0.027105156713865191] [-1:1] [0:0.037948690774300006] [-2.8968891821005323:4.1746914190491378] [-1:1] [-0.08331290325002616:0.069374425810368873] [-0.12489422414283149:0.090865568697354696] [0.9342437790799234:1.0969186590681408] [0.90565968059341195:1.1554064879455015] [-0.058487828877360738:0.042886989331110702] [-1:1] [0:0.048806362770199244] [-2.2112678392688254:4.0088687560681668] [-1:1] [-0.089546891702854653:0.11214073822726109] [-0.13382986715827361:0.18792371406601041] [0.87455984897297823:1.1334716701513154] [0.82439253544563396:1.1657085017224738] [-0.045469703303949845:0.072899592898023294] [-1:1] [0:0.077938535493101577] [-2.8210116024896861:4.017968082890051] [-1:1] [-0.099446723516727592:0.092430499214559078] [-0.13813637119276417:0.10939641052517758] [-0.059277062181200442:0.03604832788331977] [0:4.6393174925371055] [-0.09041019507896858:0.10768446076881111] [-0.17335116589108704:0.13438175691511467] [-0.049784264422340456:0.051430409392998533] [0:4.5483266953207009] [-0.03729596062718759:0.032973254571937123] [-0.060968475254185237:0.084680320243828572] [0:1.0318324864480544] [0:1.0387109496239975] [-0.013552050412290875:0.030825046746169066] [-1:1] [-0.089574597252929655:0.070089696022911305] [-0.17817279753831927:0.14127287057139246] [0:1.0969112310548137] [0:1.1255793479486649] [-0.040803565775165758:0.049074156231914079] [-1:1] [-0.019925071373086668:0.016018741767101052] [-0.035686415870970691:0.027696452929837568] [0:1.0242388360487171] [0:1.0351943449985415] [-0.015750939562693685:0.008761870926379851] [-1:1] [-0.061609061898230934:0.090894879833036457] [-0.12266859018076186:0.07978869774574511] [0:1.0842435716467713] [0:1.1082896208395034] [-0.038414436962718956:0.022760384685888101] [-1:1] [-0.44244875916441467:0.55410965103896503] [-0.62865397896855968:0.87703695910092472] [0:1.2922893212610334] [0:1.3733007100084338] [-0.17593381470394809:0.18846479647704209] [-1:1]
tree_sizes=3423 3468 3494 3498 3504 3505 3512 3514 3500 3521 3535 3528 3539 3529 3543 3527 3523 3541 3518 3519 3540 3524 3551 3542 3526 3542 3545 3537 3520 3531 3533 3532 3503 3530 3509 3538 3542 3514 3531 3535 3527 3531 3533 3558 3540 3518 3534 3534 3520 3542 3530 3537 3520 3518 3520 3539 3522 3538 3546 3555 3536 3508 3529 3532 3521 3525 3541 3516 3562 3526 3532 3537 3518 3549 3539 3535 3544 3510 3539 3532 3496 3525 3525 3484 3490 3523 3514 3557 3504 3506 3521 3525 3497 3535 3525 3528 3504 3500 3504 3512 3518 3540 3511 3493 3548 3507 3546 3489 3502 3512 3516 3478 3513 3527 3505 3507 3512 3553 3507 3515 3478 3522 3528 3474 3496 3484 3489 3511 3468 3516 3494 3498 3479 3476 3495 3484 3497 3531 3494 3512 3482 3505 3513 3514 3464 3507 3505 3495 3467 3494 3479 3517 3509 3506 3466 3494 3501 3543 3494 3482 3499 3485 3505 3496 3470 3511 3511 3510 3494 3504 3505 3528 3503 3504 3514 3506 3490 3480 3498 3503 3490 3482 3517 3492 3513 3473 3511 3493 3502 3484 3517 3485 3471 3499 3481 3496 3472 3465 3466 3480 3493 3485 3511 3509 3493 3486 3493 3491 3492 3492 3461 3501 3498 3508 3478 3484 3529 3487 3482

Tree=0
num_leaves=31
num_cat=0
split_feature=61 61 70 1 1 0 19 63 19 71 61 58 19 62 61 36 72 70 5 61 0 5 18 19 14 1 70 70 61 61
split_gain=4120.61 904.669 803.103 772.877 738.192 298.381 243.056 238.163 189.178 176.676 175.919 157.279 151.506 247.46 145.378 185.013 122.655 120.599 109.164 99.3787 120.334 89.0653 126.661 107.037 84.8927 82.9934 80.9635 80.384 76.4949 74.1255
threshold=0.0040238737779463201 0.0095073490791240615 0.0060073575010471808 0.001588240086811024 0.0055025890573378701 0.001857907040200301 0.0012852013847692949 0.99482014112381534 -0.0026156780244759232 -0.00010300444853164778 0.0062465322502395998 0.0027870744355279133 0.0033534537590047845 0.0076599680685378547 0.0002885069924573426 2.1949365857321479 0.99766616411054099 0.010035400213335093 0.0043879174198485672 0.0012145400750327865 -0.00094858483782658332 0.0021280104456266021 0.0017184364534790907 0.0016461772987010196 0.53787171905515752 -0.0085675931658123101 0.011935571045723651 0.015960040030451438 0.00082228165346867252 0.0026027410752572544
decision_type=2 2 2 2 2 2 2 2 2 2 2 2 2 2 2 2 2 2 2 2 2 2 2 2 2 2 2 2 2 2
left_child=2 3 8 5 7 10 17 11 14 -5 21 -3 13 -11 25 24 -6 29 -12 -10 -21 22 -2 -24 -16 -1 -8 -14 -19 -4
right_child=1 4 6 9 16 -7 26 -9 19 12 18 -13 27 -15 15 -17 -18 28 -20 20 -22 -23 23 -25 -26 -27 -28 -29 -30 -31
leaf_value=-2.4926947706177183 -2.5404772218874832 -2.0240451946381079 -2.4946366378955127 -2.5258405677192242 -2.3382414976482404 -2.4553127245938025 -2.5420360182029915 -2.3055082658326707 -2.5640529722069649 -2.4494472060586037 -2.1350775236146196 -2.3604714142390466 -2.5151255664035745 -2.2693388633125267 -2.5237985233048308 -2.1588569668454056 -2.4703553681528012 -2.4448679229628119 -2.4171559353975689 -2.4845099463833722 -2.5496129293887435 -2.387290206015952 -2.2075980452285497 -2.4578688532661568 -2.3885243653946779 -2.5462489829696433 -2.4855079640896394 -2.4201556423662423 -2.3565001322647516 -2.4024573712510682
leaf_weight=93.183630287647247 4.0544499903917304 30.717612639069557 153.3131852298975 116.20465989410877 60.610591381788254 37.24596431851387 177.77732415497303 14.156215220689772 1978.2967173457146 78.88997608423233 22.26511520147324 3.9170110076665869 82.600828617811203 25.151333838701248 33.535111784934998 5.0165228694677344 24.739016890525818 72.018026947975159 4.0544499903917304 80.676682859659195 590.43786978721619 34.703343138098717 28.793466880917549 5.0165228694677344 17.729628771543503 323.46264584362507 98.406311631202698 30.511454164981842 37.108525335788727 25.426211804151535
leaf_count=1356 59 447 2231 1691 882 542 2587 206 28788 1148 324 57 1202 366 488 73 360 1048 59 1174 8592 505 419 73 258 4707 1432 444 540 370
internal_value=-2.52346 -2.40237 -2.54329 -2.43509 -2.28785 -2.3347 -2.48839 -2.13272 -2.55321 -2.47608 -2.28927 -2.06209 -2.44945 -2.40591 -2.52408 -2.44866 -2.37654 -2.45624 -2.17853 -2.55841 -2.54179 -2.32943 -2.2764 -2.24473 -2.47701 -2.53427 -2.52189 -2.48951 -2.41482 -2.48152
internal_weight=4290.02 603.632 3686.39 469.492 134.14 136.133 564.05 48.7908 3122.34 333.358 98.8873 34.6346 217.154 104.041 472.928 56.2813 85.3496 287.866 26.3196 2649.41 671.115 72.5678 37.8644 33.81 51.2647 416.646 276.184 113.112 109.127 178.739
internal_count=62428 8784 53644 6832 1952 1981 8208 710 45436 4851 1439 504 3160 1514 6882 819 1242 4189 383 38554 9766 1056 551 492 746 6063 4019 1646 1588 2601
is_linear=0
shrinkage=1


Tree=1
num_leaves=31
num_cat=0
split_feature=61 70 61 1 1 19 19 62 0 70 61 36 2 71 19 71 59 61 52 62 71 11 1 70 18 61 61 14 61 18
split_gain=3367.06 732.898 568.486 472.819 398.853 199.746 180.317 162.647 155.379 142.354 122.867 114.499 114.188 108.129 111.001 101.173 98.3778 97.3251 114.073 90.2773 80.8035 77.4782 75.0843 71.7393 70.9161 66.1 63.4282 62.4601 59.7674 93.2784
threshold=0.0040238737779463201 0.0060073575010471808 0.0077973829191515113 0.001588240086811024 0.0043770877943997482 0.0012852013847692949 -0.0026156780244759232 0.0033607681719991724 0.0011224027365201374 0.01399208019889289 0.0002885069924573426 1.837059357436448 0.007760592004220866 0.004658725367822779 0.002489830638817918 0.020255699119285455 210.81035714285568 0.0012145400750327865 -0.000151615186097206 0.002616548837806995 -0.0020064797149390952 -1.2277002415946474 -0.0085675931658123101 0.011935571045723651 0.0018092404290282985 0.011694701804137658 0.00084928975600174616 0.53787171905515752 0.0052924128284353661 0.0030705729986950886
decision_type=2 2 2 2 2 2 2 2 2 2 2 2 2 2 2 2 2 2 2 2 2 2 2 2 2 2 2 2 2 2
left_child=1 6 3 8 7 15 10 -4 20 -6 22 27 -9 -5 19 -3 25 -8 -19 -15 -2 -17 -1 -7 -22 -11 -23 -12 -10 -30
right_child=2 5 4 13 9 23 17 12 28 16 11 -13 -14 14 -16 21 -18 18 -20 -21 24 26 -24 -25 -26 -27 -28 -29 29 -31
leaf_value=0.02845741285012772 0.11816138979028606 0.045041001115501571 0.12104335346545943 9.2148146567198834e-05 0.063729797091035198 -0.017931981431893649 -0.039955447799903517 0.3115516814619706 0.022931205931242451 0.15620288404341928 -0.0046651801362795359 0.23193853231206141 0.14182854848159809 0.041828657907262846 0.033089517709694385 0.29613856986335196 0.11769568917385616 0.055472951815078213 -0.023593124055647563 0.18270333773169312 0.025471780523719435 0.062536468539504897 -0.022081269516615556 0.03488544477099742 0.23469059805801309 0.30944230160224162 0.17121476291316443 0.10976446550311741 0.29484908821309735 0.076703305570452213
leaf_weight=95.651194006204605 30.305645786225796 239.12507008016109 19.876488924026489 137.53060379624367 71.900153122842312 174.98386811465025 1910.8756329417229 58.775499738752842 26.459943652153015 13.518498823046686 32.426375687122345 8.8739132061600667 11.919922366738318 19.241624779999256 108.14790946245193 5.4201204031705847 46.694304972887039 49.296292588114738 611.50190271437168 27.807550840079784 4.381041705608367 40.239447973668575 317.23609334975481 101.62875026464462 53.644463911652565 14.678035028278826 20.147953830659389 18.861873000860214 6.4326534643769291 20.5718684643507
leaf_count=1356 366 3299 243 1976 961 2587 28788 632 349 176 472 102 141 263 1493 73 597 709 9057 360 60 556 4707 1432 637 178 261 245 80 272
internal_value=-0.000144027 -0.019193 0.102666 0.0686738 0.164894 0.0322402 -0.0290168 0.247407 0.143613 0.113982 -0.000646231 0.0661095 0.282935 0.0323735 0.0609802 0.0601497 0.162227 -0.0342355 -0.0176947 0.12509 0.184334 0.11505 -0.0103733 0.00147338 0.218894 0.235973 0.0987964 0.0374177 0.0763376 0.128667
internal_weight=4298.15 3626.27 671.886 434.523 237.363 581.545 3044.72 90.5719 141.796 146.791 473.049 60.1622 70.6954 292.728 155.197 304.933 74.8908 2571.67 660.798 47.0492 88.3312 65.8075 412.887 276.613 58.0255 28.1965 60.3874 51.2882 53.4645 27.0045
internal_count=62428 53644 8784 5856 2928 8208 45436 1016 1764 1912 6882 819 773 4092 2116 4189 951 38554 9766 623 1063 890 6063 4019 697 354 817 717 701 352
is_linear=0
shrinkage=0.05


Tree=2
num_leaves=31
num_cat=0
split_feature=61 61 1 71 1 18 64 89 61 1 19 71 61 20 18 36 62 1 61 19 4 61 18 88 52 61 4 64 20 52
split_gain=2819.56 405.6 409.056 394.54 226.755 191.294 161.602 135.741 147.581 208.257 126.721 115.308 108.91 101.938 95.6868 89.7595 87.2688 84.6752 84.5525 138.165 82.0676 71.2576 61.8286 58.134 58.1042 57.8007 87.7355 57.2374 55.931 54.3419
threshold=0.0040238737779463201 0.010768544702350761 0.002619783961669763 0.015142408241738082 0.0086389214888392182 0.0017028031796519005 0.99881662862552478 -0.0091636510465060907 -3.3641162993285568e-05 -0.00026264038709658354 0.0022488815601791703 0.0015474378993425408 0.0012145400750327865 0.0060153795837278997 0.0017489494246598655 1.5978091557843015 0.00064357932894132852 -0.00091721340973814494 0.0062465322502395998 0.0039831944270020897 359.12892857142708 0.0052924128284353661 0.0093064964421506937 -0.0021843974493864966 -0.00048579292152074104 0.0014510906303800205 291.16285714285715 0.99895829694570992 0.001993434141144335 0.00019083811725782371
decision_type=2 2 2 2 2 2 2 2 2 2 2 2 2 2 2 2 2 2 2 2 2 2 2 2 2 2 2 2 2 2
left_child=3 2 6 5 22 -1 10 -7 -9 15 14 -4 27 24 -2 23 -16 -8 -13 20 -20 28 -3 25 -14 -10 -27 -5 -18 -11
right_child=1 4 11 12 -6 7 17 8 9 29 -12 18 13 -15 16 -17 21 -19 19 -21 -22 -23 -24 -25 -26 26 -28 -29 -30 -31
leaf_value=-0.049921127468867801 0.0068686446419411575 0.24009928201595154 -0.0044419439060350728 0.00071648438722661002 0.098251012894430834 0.024333562742113759 0.12240195556588521 -0.033070010017315014 0.021241672978308836 0.0030319770413763151 0.069271393142359222 0.025555540133525231 0.24065203287706477 -0.0066551722359917747 0.091343056493343358 0.13828797702296614 0.21438788972642833 0.02426719741960727 0.21383421859716356 0.045079171456979171 0.062453451477150347 0.2449661973824534 0.087254902637751222 0.010301834750249463 0.077243331249260083 0.22509751599733302 0.027847967054529899 0.072116301952367776 0.10124138369600988 -0.029037477413103641
leaf_weight=614.30951978266239 8.0495434179902059 67.362765438854694 119.67424771934748 275.92163542658091 66.705198220908642 170.14927764981985 37.927742347121239 1305.7215184792876 27.231830224394798 171.96544321626425 38.083867557346821 109.2312723249197 5.750700168311595 41.077445045113564 20.421313263475895 17.587238036096096 22.004563212394714 52.280530549585819 26.172530397772789 69.09197986125946 13.608032971620558 51.689202062785625 7.3372179344296447 213.96728678792715 100.68178623914719 11.625638626515867 10.944723881781099 31.247697852551937 21.686562947928905 569.77149497717619
leaf_count=9484 100 618 1698 4048 766 2438 429 19991 398 2544 445 1441 71 586 233 225 236 640 304 880 165 503 80 3166 1391 156 149 432 246 8565
internal_value=-0.000237529 0.0891993 0.0709688 -0.0185695 0.165254 -0.0249235 0.119159 -0.0187785 -0.0219283 -0.00770881 0.149035 0.0349962 0.0249378 0.0602504 0.173562 0.0289188 0.185149 0.0655276 0.056636 0.0878188 0.16205 0.205233 0.225087 0.0216264 0.0860725 0.0702808 0.129448 0.00797984 0.158226 -0.0216024
internal_weight=4299.28 731.327 589.921 3567.95 141.405 3113.27 252.143 2498.96 2328.82 1023.09 161.935 337.778 454.679 147.51 123.851 281.357 115.802 90.2083 218.104 108.873 39.7806 95.3803 74.7 263.769 106.432 49.8022 22.5704 307.169 43.6911 741.737
internal_count=62428 8784 7320 53644 1464 47116 2832 37632 35194 15203 1763 4488 6528 2048 1318 4094 1218 1069 2790 1349 469 985 698 3869 1462 703 305 4480 482 11109
is_linear=0
shrinkage=0.05


Tree=3
num_leaves=31
num_cat=0
split_feature=61 70 61 1 19 63 1 19 70 61 0 0 61 1 70 61 19 71 13 72 58 36 1 72 20 0 90 61 70 0
split_gain=2397.25 658.464 294.59 272.822 201.088 176.835 170.709 166.967 108.079 102.181 106.071 98.9174 90.8684 98.6805 83.7787 96.6691 67.2213 67.0105 66.7754 63.6711 62.8793 60.408 60.3285 58.8087 58.3649 57.6117 55.2452 67.2838 54.9768 54.9715
threshold=0.0040238737779463201 0.0057479689380382079 0.0077973829191515113 0.0024725211075331335 0.0041005354609705983 0.99979462506216688 0.001197806738755439 -0.0026156780244759232 0.014649582840597298 -0.0014560998498296188 -0.0020649050820330524 0.0019763600856224383 0.0012145400750327865 0.00030648886508393439 0.017529930928662132 0.001489235877395116 -0.0069221620867908349 0.0098100429182775423 0.55809949391581803 0.99889802810913142 0.00055051107139421818 3.06199784301675 -0.0016548620489081447 0.99868694771914768 0.011065231868362538 -0.0026947470991642995 0.0018432849373593012 0.0062465322502395998 -0.013694943217937674 -0.00092862530051816621
decision_type=2 2 2 2 2 2 2 2 2 2 2 2 2 2 2 2 2 2 2 2 2 2 2 2 2 2 2 2 2 2
left_child=1 7 3 11 5 -4 14 9 -6 16 18 19 -9 29 15 20 21 -5 -11 -2 -3 -1 -21 24 -10 -17 27 -19 -23 -14
right_child=2 6 4 17 8 -7 -8 12 23 10 -12 -13 13 -15 -16 25 -18 26 -20 22 -22 28 -24 -25 -26 -27 -28 -29 -30 -31
leaf_value=0.0052400001161759142 0.13726724175529265 0.045378277304532422 0.18812642989520897 -0.00037671202621046633 0.028086611236366212 0.054254137067475942 -0.0036978580518020527 -0.039085690815912254 0.18696143365255571 0.068378642531359279 0.00090378561754308269 0.032695764528326003 0.06626077971421683 -0.029230033351804897 0.11197526371424245 0.24894885140657191 -0.026392378650437892 0.048145758176522536 0.2156300033291581 0.14080432696044085 -0.0066631041221764057 0.045786444486567643 0.041073347825341305 -0.0032361179466103398 0.096172963356710509 0.075709760845661139 0.020030596717402011 0.17640389773882617 0.24695195305239645 -0.00039030495283982886
leaf_weight=79.946810640394688 106.2871541082859 144.85418220981956 115.48793264478445 157.63211686164141 64.063270851969719 31.367553345859051 246.80603744834661 1785.4911145605147 27.257740639150143 34.110490843653679 64.312715522944927 48.963463731110096 40.165600091218948 458.28647713363171 47.361306980252266 5.0941505432128897 266.34511353075504 29.144204713404179 9.9433783143758756 23.033293932676315 96.85128403827548 9.9907396733760816 44.381358154118061 9.5892196744680387 50.497581079602242 82.855185762047768 60.854175634682178 15.752122581005095 5.1455945670604697 134.62642981112003
leaf_count=1128 1028 1968 944 2186 745 350 3528 28567 264 449 908 590 536 7030 598 60 4064 369 114 224 1375 137 495 111 514 1087 778 186 71 2024
internal_value=-0.000306024 -0.0179552 0.078728 0.0547234 0.117846 0.159532 0.0286294 -0.0280165 0.077413 -0.000740238 0.0418454 0.0954649 -0.0333147 -0.0170388 0.0497918 0.040858 -0.0135086 0.0202803 0.101615 0.113158 0.0245253 0.022581 0.075148 0.113592 0.128 0.085744 0.0510716 0.0931458 0.114173 0.0149255
internal_weight=4296.5 3512.19 784.311 486.048 298.263 146.855 623.822 2888.36 151.408 469.795 108.367 222.665 2418.57 633.079 377.016 329.655 361.428 263.383 44.0539 173.702 241.705 95.0831 67.4147 87.3445 77.7553 87.9493 105.751 44.8963 15.1363 174.792
internal_count=62428 53644 8784 5856 2928 1294 8616 45028 1634 6871 1471 2337 38157 9590 5088 4490 5400 3519 563 1747 3343 1336 719 889 778 1147 1333 555 208 2560
is_linear=0
shrinkage=0.05


Tree=4
num_leaves=31
num_cat=0
split_feature=70 63 70 19 20 58 63 21 70 21 65 63 20 63 19 21 89 63 63 21 63 20 63 20 72 70 58 124 90 19
split_gain=1758.59 269.801 261.235 236.521 236.517 163.029 170.546 127.368 117.431 115.188 112.593 109.054 146.952 92.4115 92.1508 84.5193 82.7331 78.0657 77.868 97.4489 72.7363 108.258 63.9299 94.1512 62.6271 58.1241 55.8701 66.5445 55.1875 54.9804
threshold=0.0060073575010471808 0.99712202065671562 0.015960040030451438 -0.0025517366514776663 0.0019498782261162615 0.00090604211878286183 0.99381960489813714 0.0034474555649395798 -0.0025811007609513902 0.0042295745180317692 0.0048852606229910075 0.99249112199479594 0.006180220635628713 0.99269771534210249 -0.0053595142643100661 -0.00038985161738014162 -0.0048961052665660379 0.99459090427724017 0.99286342661353832 0.002394944947564061 0.99776735796680038 0.0024024134817587505 1.0092972048228239 -0.010139946686364519 0.97655699532237084 0.0026631099996134847 0.0020265668264038716 0.054105376375956526 0.0024104970170653385 -0.00020533073161438571
decision_type=2 2 2 2 2 2 2 2 2 2 2 2 2 2 2 2 2 2 2 2 2 2 2 2 2 2 2 2 2 2
left_child=1 4 5 8 10 6 7 -2 14 13 15 12 -7 -4 22 -1 -8 -17 19 -6 21 -18 23 -3 -11 -5 27 -15 -14 -27
right_child=2 3 9 25 18 11 16 -9 -10 24 -12 -13 28 26 -16 17 20 -19 -20 -21 -22 -23 -24 -25 -26 29 -28 -29 -30 -31
leaf_value=0.2205020191617961 0.16412225655521456 0.16837714230723791 0.15651374844261112 -0.037422301178601285 0.11936853041868573 0.1404090151056113 0.106066782352347 0.018463392021991123 0.049785450046054475 0.085253452795053516 0.016000045695757817 -0.008081540211428935 0.077510933537468907 0.086169492928707125 -0.028256996281992547 0.20728607561074988 0.10702295003769316 0.060628917170938559 -0.022417293506541532 0.005006533714349462 0.016811976851630404 0.012837330620191385 0.00083342623862491915 0.018551193989452992 0.0059259708260379585 0.013237069369264144 -0.0057000904920329236 0.22084335281900139 -0.0049795230349776653 -0.028232921875455497
leaf_weight=12.506066776812075 58.211824506521225 16.064757153391838 84.662938944995403 1706.0055406205356 21.841157708317041 33.35236282646656 48.594936028122902 20.221719890832901 112.13724717497826 58.721395008265972 71.950593806803226 214.61414567381144 28.569018296897411 84.88672810792923 233.25288528949022 10.491289269179104 69.849906541407108 67.163364138454199 301.02169772982597 126.59731293469667 193.06132893264294 54.169065803289413 113.34215127676725 30.192190490663052 43.172390021383762 114.04041443020105 14.168777436017988 10.283661320805548 69.844611443579197 267.16636857017875
leaf_count=102 504 185 718 27536 231 334 576 238 1563 639 993 2957 338 957 3506 88 773 929 4545 1772 2526 726 1582 425 503 1777 176 111 880 4238
internal_value=-0.000360121 -0.0190014 0.0546135 -0.0260492 0.0108711 0.0396127 0.059666 0.126569 0.0046561 0.0946884 0.0626456 0.0139014 0.0497062 0.117297 -0.00822581 0.09987 0.0453161 0.0804426 -0.00780299 0.0218337 0.0360056 0.0658845 0.0210496 0.0705848 0.0516424 -0.0334781 0.086931 0.100722 0.0189671 -0.0158269
internal_weight=4290.16 3203.77 1086.38 2592.2 611.571 790.489 444.109 78.4335 504.989 295.896 162.111 346.38 131.766 194.002 392.852 90.1607 365.675 77.6547 449.46 148.438 317.08 124.019 159.599 46.2569 101.894 2087.21 109.339 95.1704 98.4136 381.207
internal_count=62428 49472 12956 40812 8660 9852 5343 742 7261 3104 2112 4509 1552 1962 5698 1119 4601 1017 6548 2003 4025 1499 2192 610 1142 33551 1244 1068 1218 6015
is_linear=0
shrinkage=0.05


Tree=5
num_leaves=31
num_cat=0
split_feature=61 70 61 1 19 1 58 5 61 61 1 61 17 71 19 70 38 58 1 92 19 62 77 61 63 20 70 13 88 63
split_gain=1877.02 543.633 185.348 225.485 150.571 130.433 100.413 99.9708 102.675 89.601 90.3403 83.5378 86.7418 75.5416 75.0341 66.3084 72.315 63.7832 59.2155 57.605 51.7725 57.9446 51.478 49.978 49.594 61.3272 46.1699 45.1365 44.4133 44.4016
threshold=0.0040238737779463201 0.0057479689380382079 0.010768544702350761 0.0030150260244428437 -0.0025517366514776663 0.001197806738755439 0.0023872945785278639 0.0027223755620997664 0.0055791413459232997 0.0012145400750327865 0.00033104051610124199 -0.0014560998498296188 1.2727536196699776 -0.00041299024042230274 0.0017124376964335513 0.010035400213335093 0.1909550665731137 0.00042380558516973008 -0.0085675931658123101 -0.0085736086798927462 0.0033534537590047845 0.0076599680685378547 1.135322605486049 -0.001829403294812722 0.99888297365819012 -0.00077193967414113703 -0.0015232630591266584 0.65511957054851011 0.00094732873188471689 0.99381960489813714
decision_type=2 2 2 2 2 2 2 2 2 2 2 2 2 2 2 2 2 2 2 2 2 2 2 2 2 2 2 2 2 2
left_child=1 4 3 7 11 15 29 8 14 -6 24 18 -13 -5 28 17 -17 27 -1 -9 21 -15 -22 -18 25 -11 -20 -3 -2 -4
right_child=2 5 6 13 9 -7 -8 19 -10 10 -12 12 -14 20 -16 16 23 -19 26 -21 22 -23 -24 -25 -26 -27 -28 -29 -30 -31
leaf_value=0.019962794751367079 0.12757739493280315 0.040543557726615671 0.16333389175571394 -0.012916059564822939 -0.03808301201871972 -0.0045714169211630929 0.068031127359881205 0.18114561785493344 0.14238852407012412 0.13892550677352164 -0.027977427082834058 0.0049121784999333271 0.096047366098977557 0.045792022882832066 0.013727846284508927 0.025571252413254544 0.035903802035285357 -0.0073769976148053132 -0.034870755433183784 0.036360175398053272 0.0022616483625537069 0.13621642941272336 0.067400417733340157 0.1119450792273876 -0.012486512466518523 0.023150474229542712 0.019752934925859413 0.20227448353486099 0.055945378249677748 0.091291224944367089
leaf_weight=98.728408541530371 52.506563767790794 128.33654341474175 74.000842034816742 95.829687774181366 1669.8792631179094 250.61921223625541 80.059494867920876 7.3242500573396674 92.708938121795654 13.45413953438401 433.54738708585501 78.306721236556768 39.169352829456329 70.537997841835022 37.434414021670818 72.456825628876686 30.178511798381805 96.861433796584606 221.4250697568059 110.74496681988239 105.0670648291707 23.658918388187885 42.639984779059887 76.089390471577644 86.915039718151093 76.343495305627584 46.873670011758804 4.4640793725848189 36.808693796396255 30.081530228257179
leaf_count=1316 469 1604 466 1375 28372 3528 730 66 745 187 6973 1076 461 827 422 873 358 1337 3529 1095 1257 207 482 864 1306 1101 707 52 375 268
internal_value=-0.000401051 -0.0169848 0.0656644 0.0535387 -0.0267123 0.0238239 0.11013 0.0824405 0.1024 -0.0320912 -0.0156954 -0.00139876 0.0352988 0.0246545 0.0731506 0.0412496 0.0640883 0.0234764 -0.0131447 0.0453417 0.039538 0.0685034 0.0210659 0.0903505 0.0144373 0.0404967 -0.0253276 0.0459801 0.0980563 0.142512
internal_weight=4283.05 3423.65 859.403 675.261 2764.64 659.006 184.142 337.528 219.459 2280.14 610.26 484.503 117.476 337.734 126.75 408.387 178.725 229.662 367.027 118.069 241.904 94.1969 147.707 106.268 176.713 89.7976 268.299 132.801 89.3153 104.082
internal_count=62428 53644 8784 7320 45028 8616 1464 3172 2011 37939 9567 7089 1537 4148 1266 5088 2095 2993 5552 1161 2773 1034 1739 1222 2594 1288 4236 1656 844 734
is_linear=0
shrinkage=0.05


Tree=6
num_leaves=31
num_cat=0
split_feature=61 70 61 19 19 1 0 61 70 61 18 61 1 19 1 93 5 18 70 19 106 63 38 63 21 70 70 68 58 63
split_gain=1636.39 505.472 159.933 152.299 135.513 132.078 131.555 79.9364 79.5831 75.8103 74.8691 74.638 84.621 64.445 63.2412 62.1873 60.8002 56.8807 51.2439 61.246 50.0417 46.7116 57.0741 46.5369 52.7559 45.742 44.8457 44.5314 44.1357 43.735
threshold=0.0040238737779463201 0.0044815773513741117 0.0062465322502395998 -0.0025517366514776663 0.00024828745185531041 0.0043770877943997482 0.0013682052137862298 0.0017193078587174626 0.0091870043686558666 0.014694314485649096 0.0016527058055506598 0.00038005927064877295 0.00033104051610124199 0.0019489295700995648 0.014573135801850006 0.0016325423740858847 0.0027223755620997664 0.0018507893130370798 -0.0012418581613251342 -0.0074842127558118624 -0.015102227788174608 1.0006972626476063 0.19822427072846369 0.9988394540379818 0.00046449797029275686 0.011763548911636721 0.0061112123937197118 1.7876005076793346 0.0026246435510449643 1.0019475022340874
decision_type=2 2 2 2 2 2 2 2 2 2 2 2 2 2 2 2 2 2 2 2 2 2 2 2 2 2 2 2 2 2
left_child=1 3 6 7 17 16 15 18 -6 26 -5 -12 23 -10 -11 -2 -4 -3 19 -1 -20 22 -19 24 -13 -18 -7 -23 -28 -9
right_child=2 4 5 10 8 9 -8 29 13 14 11 12 -14 -15 -16 -17 25 21 20 -21 -22 27 -24 -25 -26 -27 28 -29 -30 -31
leaf_value=0.021536575724858207 0.087944768097701909 -0.028687214247151423 0.12836307496040339 -0.051018153740550465 -0.013937947805560078 0.0016293001085618789 0.0020025263875533723 0.14126512935860391 0.053726560479220177 0.14489769834173769 -0.036794676244759142 0.090773803710416212 -0.028277612645086811 0.0013954225170149945 0.047281860893989024 0.035890398660507743 0.051874874748511934 0.025478516661361368 0.13279671654389472 -0.02632546029831245 0.013878027791755438 0.019859367958210247 0.09432030241670368 -0.011960982999931168 0.012166824851879915 0.11678389781768735 0.078098076465195107 0.12878836657162543 0.019895593514030363 0.02748011477546617
leaf_weight=87.36984670907259 108.01472211629152 23.251513086259365 128.81194968521595 458.99970288947225 299.89475402981043 59.603160336613655 166.90929269790649 13.388673678040503 106.37167394906282 35.693754337728024 982.16646842285991 29.307216718792915 413.19230858981609 131.63561937212944 31.004129238426685 122.38396313786507 67.224778786301613 44.052918061614037 10.421754144132136 284.45058801025152 58.527867294847965 105.51647148653865 95.108502615243196 117.48031467944384 78.561407685279846 45.521651402115822 77.91780898720026 10.298234194517134 55.96915303170681 22.871057093143463
leaf_count=1161 954 319 870 8139 4505 718 2050 142 1265 285 17206 419 6869 1782 278 1388 593 546 146 4467 810 1316 1131 1865 1166 327 772 116 549 274
internal_value=-0.000434229 -0.0164112 0.0595046 -0.0273472 0.0178484 0.0782705 0.0358059 -0.0018669 0.00319529 0.0535527 -0.0331916 -0.028143 -0.0148355 0.0247836 0.0995215 0.0602943 0.104895 0.0461774 -0.00773741 -0.0150789 0.0318526 0.0530044 0.0725278 0.00981141 0.0335238 0.0780821 0.0377067 0.0295453 0.0537675 0.0694945
internal_weight=4271.92 3372.87 899.054 2556.74 816.13 501.746 397.308 477.03 537.902 260.188 2079.71 1620.71 638.541 238.007 66.6979 230.399 241.558 278.228 440.77 371.82 68.9496 254.976 139.161 225.349 107.869 112.746 193.49 115.815 133.887 36.2597
internal_count=62428 53644 8784 42664 10980 4392 4392 7000 7552 2602 35664 27525 10319 3047 563 2342 1790 3428 6584 5628 956 3109 1677 3450 1585 920 2039 1432 1321 416
is_linear=0
shrinkage=0.05


Tree=7
num_leaves=31
num_cat=0
split_feature=61 70 61 0 2 1 19 63 63 19 18 70 68 71 11 18 20 19 61 70 20 70 19 17 19 70 61 70 12 6
split_gain=1445.3 373.51 228.978 225.013 138.303 114.749 113.318 114.422 79.5981 75.0638 69.2385 70.8958 62.3536 61.2484 54.5511 54.0948 52.7111 50.8478 48.8325 47.8308 46.5872 43.1335 48.0807 42.5056 41.7392 41.4142 39.5974 44.3998 46.2002 39.4267
threshold=0.0029092931719561263 0.0044815773513741117 0.0062465322502395998 0.00013622657296331417 -0.0064117274321507448 -8.0221458628869423e-05 0.0041005354609705983 0.99875636672928381 0.99249112199479594 0.00034391062160925924 0.0016700146942943389 -0.0014140169680228506 1.5059310718230539 0.0098100429182775423 2.9716886138308247 0.0041625512109740963 0.007266355703347922 -0.00070180551583725671 0.016999421575034968 0.0040310623801674984 -0.010786394132448062 0.011935571045723651 0.0031895622597769009 1.0077194694974405 0.0030391306817171911 0.0016195087064916076 -0.00023569491532108504 0.019858154369157312 0.56214975701090197 11.500000000000002
decision_type=2 2 2 2 2 2 2 2 2 2 2 2 2 2 2 2 2 2 2 2 2 2 2 2 2 2 2 2 2 2
left_child=1 4 3 9 14 12 7 29 16 15 -6 -12 26 -5 -1 -2 -8 -13 -18 -11 -9 -7 -23 -17 25 -15 27 -3 -29 -4
right_child=2 5 6 13 10 21 8 20 -10 19 11 17 -14 24 -16 23 18 -19 -20 -21 -22 22 -24 -25 -26 -27 -28 28 -30 -31
leaf_value=-0.0033284716470818724 0.12641701911620812 0.0043715898851849257 0.13738866836523927 -0.0071166489306770421 -0.050461642054776136 -0.015305511204181261 0.13556279545661462 0.11086636359793983 -0.014753664132476474 -0.0019865255321235118 -0.037894356403820197 0.0034022512526893896 0.10302855484477538 -0.016847102376711234 0.070713761753957882 0.016453885055953844 0.03314555747030512 -0.025334311697512647 0.098271989759509237 0.063864777917525983 0.015849530543916239 0.050546153643633643 -0.023098975002621949 0.12880338128001731 -0.0017692982023045983 0.066583079212591545 0.050242865248844526 0.21602093771307773 0.039430246458034335 0.093355346123098565
leaf_weight=268.79494883492589 65.32076907530427 161.53229242563248 75.796669863164425 294.5546536706388 445.63090396299958 288.0164117179811 19.85027938336134 16.545404642820358 46.477822050452232 42.518804550170898 863.52757113799453 219.24592950940132 30.226785719394684 18.220372665673494 27.413265228271484 26.634221941232681 117.83162423968315 516.77418817579746 38.08628772944212 78.459325052797794 58.558842174708843 60.328541316092014 35.032497152686119 12.309524811804293 59.264495849609375 81.001578684896231 117.76165052503347 4.9548570066690472 14.669191062450407 154.36620973795652
leaf_count=3989 638 2105 497 4013 8260 4285 156 143 535 578 15057 3622 341 230 349 282 1097 8967 299 849 617 695 465 110 747 849 1400 50 155 1048
internal_value=-0.000460382 -0.0187611 0.0458897 0.0266747 -0.0284073 0.0129368 0.0705966 0.0903699 0.0434368 0.0675171 -0.033032 -0.0281761 0.0345921 0.00636868 0.00352394 0.0986088 0.0588239 -0.0167743 0.0490541 0.0407208 0.0367817 -0.0056552 0.0234914 0.0519658 0.0314318 0.0512626 0.0276718 0.0129994 0.0840175 0.107856
internal_weight=4259.71 3053.91 1205.8 678.284 2341.39 712.522 527.513 305.267 222.246 225.243 2045.18 1599.55 329.145 453.041 296.208 104.265 175.768 736.02 155.918 120.978 75.1042 383.377 95.361 38.9437 158.486 99.222 298.918 181.156 19.624 230.163
internal_count=62428 49740 12688 8296 40244 9496 4392 2305 2087 2457 35906 27646 4051 5839 4338 1030 1552 12589 1396 1427 760 5445 1160 392 1826 1079 3710 2310 205 1545
is_linear=0
shrinkage=0.05


Tree=8
num_leaves=31
num_cat=0
split_feature=61 18 61 0 71 32 89 89 61 1 4 71 61 2 77 20 61 111 68 4 62 81 18 19 72 18 61 0 0 61
split_gain=1283.23 214.188 199.153 200.692 142.537 100.788 95.4023 65.0264 63.9252 86.0017 59.6517 55.4148 55.01 54.4234 53.0136 78.0817 47.8361 45.9075 45.7143 43.6553 42.5073 41.1144 38.9719 37.6445 37.639 37.6317 37.1939 36.7098 36.2863 46.2521
threshold=0.0028030254876632165 0.0017948052695511065 0.0062465322502395998 0.00013622657296331417 0.0072114222038886433 2.5000000000000004 -0.0091636510465060907 -0.00089452609686665725 -3.3641162993285568e-05 0.00038015597809856679 342.76285714285723 0.0098100429182775423 0.016999421575034968 0.0070381682519166785 0.086189388774700212 0.0023533655223247174 0.0012882696753364921 1.0162291918312294 0.7643934296069882 318.32999999999976 0.015276209174725523 0.96023829435729835 0.0044018948359035468 0.0031895622597769009 1.0028572828983964 0.0021345292034258326 0.00099751028234886505 0.0028572289754922294 -0.0016415567971578761 0.00072755797277362715
decision_type=2 2 2 2 2 2 2 2 2 2 2 2 2 2 2 2 2 2 2 2 2 2 2 2 2 2 2 2 2 2
left_child=1 -1 3 7 6 13 -3 -2 -8 18 25 -5 27 -4 28 16 17 -16 -10 21 -15 -18 -9 -13 26 -7 -20 -12 29 -6
right_child=2 4 5 11 14 10 8 22 9 -11 12 23 -14 20 15 -17 19 -19 24 -21 -22 -23 -24 -25 -26 -27 -28 -29 -30 -31
leaf_value=-0.046225663728085897 0.095760893587410426 0.016319418054698116 0.067353273178701101 -0.0074252601192533229 0.0052207564616569453 0.0278968910732681 -0.032464702831213561 0.057143944624483411 0.0015494996400955206 -0.028780783281284906 0.078545803284945231 0.045276230901896086 0.15258486859887721 0.00099307047471240716 0.027275638562544176 -0.00049024088679260123 0.038072299731148396 0.1621258444531386 0.0094130822779183495 0.015553796761525809 0.051049095298525804 0.20557378592757702 0.0026154501124934677 -0.0049892580705326109 0.010871505681294929 0.12824615307208362 0.15770638835516551 0.0149861488711446 -0.013741185007110558 0.10056967692498542
leaf_weight=563.76602278649807 85.941868379712105 160.17762165889144 168.93902431428432 307.62168965488672 67.54933350160718 10.378188006579874 914.56997833028436 118.39091849327087 215.63413548469543 308.62455611675978 51.489519789814949 110.69444606825709 15.403401978313921 80.741026356816292 120.55992438644171 201.39092084020376 5.2685068100690904 6.6599694602191439 6.2413857579231289 8.3899897933006269 89.34272163361311 12.025682829320429 45.307646106928587 56.137972190976143 19.050467226654291 93.623579479753971 13.109681531786917 40.65437026321888 332.76666530966759 15.668860055506228
leaf_count=10567 747 2204 1335 4257 1040 57 16087 1363 3249 5249 393 1179 99 802 1639 2887 54 81 91 98 730 133 525 713 264 602 157 374 5268 184
internal_value=-0.000481158 -0.018484 0.0414863 0.0242527 -0.0119882 0.0641513 -0.0203323 0.0605419 -0.0243065 -0.0110457 0.091233 0.00515871 0.0651236 0.0472524 0.00574918 0.0199625 0.046901 0.0343351 0.0105004 0.109143 0.0272868 0.154546 0.0420518 0.0283622 0.0607616 0.118232 0.109877 0.0505029 -0.00635633 0.0231737
internal_weight=4246.12 2971.45 1274.67 724.095 2407.69 550.572 1637.41 249.64 1477.23 562.66 211.549 474.454 107.547 339.023 770.28 354.295 152.904 127.22 254.036 25.6842 170.084 17.2942 163.699 166.832 38.4015 104.002 19.3511 92.1439 415.985 83.2182
internal_count=62428 49252 13176 8784 38685 4392 27301 2635 25097 9010 1525 6149 866 2867 11384 4892 2005 1720 3761 285 1532 187 1888 1892 512 659 248 767 6492 1224
is_linear=0
shrinkage=0.05


Tree=9
num_leaves=31
num_cat=0
split_feature=61 70 63 20 63 1 2 21 18 1 18 70 0 71 70 58 17 61 61 70 58 20 77 21 70 38 61 62 20 63
split_gain=1142.15 338.438 177.097 165.035 155.635 130.624 127.246 119.163 103.601 94.4316 66.1072 67.5107 65.0499 62.6563 52.7158 48.9861 46.1551 55.0409 44.1275 43.1967 48.4574 42.2743 40.9913 45.1274 40.7178 35.9673 36.5088 34.3543 32.0393 53.2955
threshold=0.0028030254876632165 0.0044815773513741117 0.99776735796680038 0.0024024134817587505 0.99322520609357723 -0.00078082694948496817 -0.0064117274321507448 0.0026530089343055801 0.0016859448029183717 0.00030648886508393439 0.0016527058055506598 -0.0014140169680228506 -0.0015795372812617203 0.025243642913406771 0.0015113886992323775 -0.00053005883143297393 1.9990871473561069 -0.004358990263289622 0.0023079259167272229 0.0096625967589550141 0.00039185078673334227 0.00063810841052298623 1.0782767425601139 0.0056474467660875471 0.016462106145296636 0.19336772814759143 -0.001829403294812722 0.0027647380842437865 0.0078283969459337598 0.98775694221522292
decision_type=2 2 2 2 2 2 2 2 2 2 2 2 2 2 2 2 2 2 2 2 2 2 2 2 2 2 2 2 2 2
left_child=1 6 3 8 7 12 16 27 -2 19 -8 -12 -4 -9 21 18 -1 -18 -13 20 -3 -10 -15 -24 -6 -21 -27 -5 -29 -30
right_child=2 9 5 4 24 -7 10 13 14 -11 11 15 -14 22 -16 -17 17 -19 -20 25 -22 -23 23 -25 -26 26 -28 28 29 -31
leaf_value=-0.0059261483052223613 -0.034293644714222353 0.031781191734729451 0.12082172649089536 -0.0085376089190155914 -0.0048600630830747046 -0.0058672072233896342 -0.050355454193040418 0.0071962889063011378 0.088743560014941672 -0.0075109480334820782 -0.037221322534518923 0.0049583819927830506 0.033398130884543173 0.030640916539510555 0.10668748651016052 -0.022583043924140827 0.021142336827010652 0.15305034548354365 0.15201768699959006 0.021439041754642594 -0.017631734808650677 0.0066864940404633005 0.1318235950970513 0.048733304329985391 0.075122350351686989 0.025654677403090548 0.092293228873076616 0.10312602705805114 0.13564696962947684 0.0021970400774492826
leaf_weight=243.11212975159287 17.208191275596619 145.75571776926517 30.564022146165371 8.9925000816583616 193.17636232078075 300.42937998101115 395.37172219157219 124.26601611822844 36.899491664022207 323.15998357906938 818.04620419815183 132.29413887858391 70.033660277724266 75.95302576571703 177.94955591857433 574.90493766590953 41.507255967706442 9.7697027362883073 5.3056842237710944 67.440206557512283 75.221163332462311 27.314592912793159 28.603560507297516 38.117094617336988 17.340768493711948 31.189730376005173 60.271394222974777 129.08369288593531 11.396158523857592 21.780547082424164
leaf_count=3669 193 1857 221 79 2427 3935 7996 1216 298 4698 15042 2191 668 695 1243 10313 542 112 71 760 1083 304 207 326 165 333 585 917 77 205
internal_value=-0.00049507 -0.0178764 0.0383189 0.05054 0.0370618 0.0106454 -0.0274495 0.0540368 0.0842501 0.012357 -0.0321293 -0.0274211 0.0599595 0.0331525 0.0926738 -0.0161691 0.00316621 0.0462745 0.0106288 0.0292585 0.0149609 0.0538391 0.0557599 0.0843546 0.00172827 0.0491415 0.0695684 0.0865902 0.0918622 0.0480369
internal_weight=4232.46 2923.35 1309.11 908.082 648.71 401.027 2220.31 438.193 259.372 703.038 1925.92 1530.55 100.598 266.94 242.164 712.505 294.389 51.277 137.6 379.878 220.977 64.2141 142.674 66.7207 210.517 158.901 91.4611 171.253 162.26 33.1767
internal_count=62428 49252 13176 8352 6314 4824 39936 3722 2038 9316 35613 27617 889 2444 1845 12575 4323 654 2262 4618 2940 602 1228 533 2592 1678 918 1278 1199 282
is_linear=0
shrinkage=0.05


Tree=10
num_leaves=31
num_cat=0
split_feature=61 70 61 0 19 5 70 1 2 32 1 18 70 70 18 5 76 93 19 17 58 71 1 70 70 61 19 62 19 61
split_gain=1025.23 292.616 182.741 186.537 121.223 95.4834 85.5793 81.586 64.5109 58.2004 51.466 48.6877 51.9585 48.173 46.1185 61.5624 45.3821 45.3799 44.6115 40.0375 39.5963 38.8435 37.6937 36.7971 36.4009 36.1163 35.9458 34.0227 47.4683 32.9924
threshold=0.0023079259167272229 0.0044815773513741117 0.0054434308788326403 0.00013622657296331417 -0.0025517366514776663 0.0026667687472855155 0.023556624680440546 -5.3159079615513486e-05 0.0025417756446864895 2.5000000000000004 0.0015524467976504341 0.0016700146942943389 -0.0014140169680228506 -0.0062528610837914158 0.0016212834351467546 0.0023450470697731641 0.025617100075432695 -0.0037050463977109983 -0.0064354053870485173 0.7854396890752543 0.0021037782280160823 0.0085701901785170519 0.0017342031846451719 0.011935571045723651 0.0080091192354258597 0.00096278527276640806 -0.0035695443725578236 0.015276209174725523 0.0033534537590047845 0.0095073490791240615
decision_type=2 2 2 2 2 2 2 2 2 2 2 2 2 2 2 2 2 2 2 2 2 2 2 2 2 2 2 2 2 2
left_child=1 4 3 8 13 9 26 19 14 16 21 -6 -13 18 -2 22 27 -17 -1 -3 -8 -5 -16 -9 -10 -21 -7 28 -4 -28
right_child=2 7 5 10 11 6 20 23 24 -11 -12 12 -14 -15 15 17 -18 -19 -20 25 -22 -23 -24 -25 -26 -27 29 -29 -30 -31
leaf_value=0.0079084593759778041 -0.043889927195459075 0.0069961461380052773 0.061653267388044088 0.0010295757960066994 -0.050192809747855963 0.077495150721388156 0.13632837300101822 -0.017837612685947274 -0.0095334954676907033 0.095969776177118729 -0.01529136458457335 -0.039503871705640833 -0.019172615280447388 0.016087048519934026 0.10917816145400064 0.083212856057672688 0.16425981714136226 0.0033703458226835036 -0.034017665117009613 0.032160527156736257 0.057728145102286313 0.048301874196780809 0.038381954610016041 0.020883762926215306 0.050886838952355164 0.087681045663244001 0.00042217442173375159 0.093860418031378762 0.0054574091082408172 0.035329109188273332
leaf_weight=103.06238729506731 9.3441558890044671 135.53346901759505 90.232040055096149 122.01991738006473 371.86759557202458 26.378287523984909 22.666744634509087 233.07912978157401 60.209218244999647 134.89384704083204 306.04814452305436 645.05901345983148 612.74912562593818 170.55424881726503 86.073629427701235 29.389471381902695 8.8084389492869359 45.116198506206274 165.06824984773993 159.2719276510179 54.667848400771618 67.491659812629223 24.055996656417847 83.276891730725765 42.540717888623476 35.891918856650591 148.1561006680131 33.454454824328423 64.396903671324253 124.63575116544962
leaf_count=1368 136 1650 676 1641 7888 197 131 3594 788 861 4453 12492 11214 2523 808 242 69 505 2827 1901 409 686 317 996 428 359 1483 217 651 918
internal_value=-0.000508759 -0.0188379 0.0326593 0.0161616 -0.0280183 0.0511135 0.0338801 0.0105078 0.0475145 0.0706697 -0.00261178 -0.0342985 -0.0295994 -0.00468778 0.0644821 0.0699667 0.0533362 0.034865 -0.0179024 0.027873 0.0807658 0.0178649 0.0937139 -0.00764468 0.0154818 0.0423711 0.0217602 0.0481414 0.0382499 0.0163708
internal_weight=4215.99 2715.41 1500.58 792.289 2068.36 708.29 376.505 647.053 296.729 331.786 495.56 1629.68 1257.81 438.685 193.979 184.635 196.892 74.5057 268.131 330.697 77.3346 189.512 110.13 316.356 102.75 195.164 299.17 188.083 154.629 272.792
internal_count=62428 46812 15616 10004 38312 5612 3138 8500 3224 2474 6780 31594 23706 6718 2008 1872 1613 747 4195 3910 540 2327 1125 4590 1216 2260 2598 1544 1327 2401
is_linear=0
shrinkage=0.05


Tree=11
num_leaves=31
num_cat=0
split_feature=61 70 61 0 19 1 32 1 1 70 70 19 2 58 5 61 5 70 63 70 70 68 70 1 1 79 32 98 71 38
split_gain=919.411 272.861 159.185 168.874 116.28 72.1162 69.348 56.5293 54.57 47.5408 43.1709 40.7299 40.6083 40.4449 40.2923 45.0564 39.3828 50.3259 39.0789 36.4412 35.2745 34.4184 33.6159 32.7321 31.2808 32.2539 31.4484 50.1404 30.7155 31.8895
threshold=0.0023079259167272229 0.0044815773513741117 0.0062465322502395998 0.00013622657296331417 -0.0026156780244759232 5.0185232922077711e-05 2.5000000000000004 -0.0027536254050266715 0.0015120034820029422 0.0019877267530728302 -0.0062528610837914158 -0.0069221620867908349 0.0070381682519166785 0.0012694320881547589 0.004577256447841402 0.011694701804137658 0.0011309505248679609 -0.0017103448981497038 0.99810629815110041 0.00071571889605012218 0.022387242767084897 1.5059310718230539 0.011935571045723651 0.0022289924956891737 2.4388520869628744e-05 0.014485232261540271 7.5000000000000009 0.99011778048266863 0.015846420036708841 0.27738847518212989
decision_type=2 2 2 2 2 2 2 2 2 2 2 2 2 2 2 2 2 2 2 2 2 2 2 2 2 2 2 2 2 2
left_child=1 4 3 7 10 21 12 -2 18 -9 11 -1 19 -11 -8 -16 -6 -18 -5 -4 -14 -3 -7 -24 25 -19 -27 -28 -10 -30
right_child=2 5 6 8 16 22 14 9 28 13 -12 -13 20 -15 15 -17 17 24 -20 -21 -22 -23 23 -25 -26 26 27 -29 29 -31
leaf_value=0.0097597740291780651 0.092307682219094536 0.020266182506790589 0.013553619853490668 0.039913785533471927 -0.046712850379277526 -0.018167575559436471 0.082233484426352213 0.008931813837160716 -0.018621602960626291 0.066561955682845508 0.015918030530664328 -0.031523112344738577 0.0056320895119412202 0.016328018504752666 -0.014453058613859203 0.080843480745086904 -0.039328671089072599 -0.016651918236900473 -0.0031499657778675349 0.06564599000577824 0.053452244564077434 0.073733108983489323 0.048305821837550618 -0.014984171755078239 -0.030988395374861512 0.0047468305258932175 0.025355914222392528 0.22622818386730922 0.0036578448533048265 0.094046538746723765
leaf_weight=92.954482309520245 53.51961262524128 316.37772561982274 44.012525111436844 119.83116782456636 417.34926913678646 220.35060008615255 185.9149244427681 102.24274629354477 283.85670096054673 131.46724493056536 165.01823972165585 167.2410144098103 127.57341414690018 57.635368075221777 25.698742650449276 23.974865034222603 579.08984799310565 247.06534148007631 94.01237466558814 141.53439377993345 55.271555386483669 33.264287874102592 44.55348264425993 37.728070385754108 275.36117054894567 58.686198115348816 10.184603933244942 4.4701563864946356 71.799137856811285 11.292745366692541
leaf_count=1206 384 3741 374 1258 8994 3460 1155 1252 4240 1271 2393 2916 1146 618 223 147 11631 4599 1224 961 386 328 485 486 5251 1060 184 78 856 121
internal_value=-0.000517383 -0.0182266 0.0303906 0.0173616 -0.0273158 0.00988554 0.0503589 0.0450764 0.000904948 0.0364001 -0.0040873 -0.0167749 0.0368102 0.0512515 0.0715452 0.0315416 -0.0335192 -0.0288323 0.0209816 0.0532895 0.0200875 0.0253529 -0.0079845 0.0192858 -0.0186298 -0.00800865 0.0211081 0.0866282 -0.010795 0.0159423
internal_weight=4199.33 2669.69 1529.64 925.657 2017.42 652.274 603.98 344.865 580.792 291.345 425.214 260.195 368.392 189.103 235.589 49.6736 1592.21 1174.86 213.844 185.547 182.845 349.642 302.632 82.2816 595.767 320.406 73.341 14.6548 366.949 83.0919
internal_count=62428 46812 15616 11224 38312 8500 4392 3525 7699 3141 6515 4122 2867 1889 1525 370 31797 22803 2482 1335 1532 4069 4431 971 11172 5921 1322 262 5217 977
is_linear=0
shrinkage=0.05


Tree=12
num_leaves=31
num_cat=0
split_feature=61 70 70 1 19 19 61 0 18 5 18 70 70 18 58 62 19 62 70 61 70 2 58 11 0 61 5 0 1 4
split_gain=826.385 247.309 147.706 140.145 111.807 65.0579 64.8174 63.3813 53.0537 54.8895 50.5965 52.4434 48.2507 47.6747 55.1359 49.6578 43.7593 62.8642 43.5325 42.8181 41.5623 40.6268 37.9536 36.6024 41.7373 36.1404 37.7536 33.4787 33.46 32.5485
threshold=0.0022095566824037135 0.0047794899821130337 0.0080091192354258597 0.0011010384278183668 -0.0025517366514776663 0.00022866625263022713 0.0040238737779463201 0.00083218172386529397 0.0016381144351000887 0.0015714288545784895 0.0016700146942943389 -0.0014140169680228506 0.0096625967589550141 0.0017321862744926195 0.0012411059476852748 0.0039293177411086544 0.0022488815601791703 0.00064357932894132852 0.018835652173157563 -0.001829403294812722 -0.0062528610837914158 -0.008092367667470993 0.0027870744355279133 -1.4463496689762787 -0.0026947470991642995 0.0052924128284353661 0.0022742682039668645 -0.0017801643752103728 0.0022289924956891737 275.2625000000013
decision_type=2 2 2 2 2 2 2 2 2 2 2 2 2 2 2 2 2 2 2 2 2 2 2 2 2 2 2 2 2 2
left_child=1 4 3 7 20 23 -5 8 -2 -10 -6 -12 -7 -4 15 -15 17 -8 -16 -14 21 -1 -20 -3 -25 -9 -27 -11 -21 -17
right_child=2 5 13 6 10 12 16 25 9 27 11 -13 19 14 18 29 -18 -19 22 28 -22 -23 -24 24 -26 26 -28 -29 -30 -31
leaf_value=0.00070282127237305918 -0.050371169953798769 0.12538556202488185 -0.038926547280581127 -0.021752487847484136 -0.049754444154444279 -0.020429241793707961 -0.0044678826418305733 -0.0083017966369018197 0.10427986502198115 0.078102976387444845 -0.038546471934729015 -0.017670597756526785 -0.029001578781132933 0.0351729995615917 0.019018992210227403 0.097444722795618915 -0.0035111793042844966 0.059366990908907902 0.090686479398756278 0.046063125528764466 0.014642971348602075 -0.039142638342050923 0.036241968300858234 0.065127455774392481 0.014624655191019029 0.099787098871767232 0.013820933488286278 0.030331122993189314 -0.010077298507519155 0.057220933470677263
leaf_weight=145.36071376129985 11.330623857676981 9.5990785136818868 16.070808745920658 220.23838827386498 342.45804857090116 196.24123480543494 66.899512358009815 83.90874083712697 54.121519263833761 55.010826524347067 593.9415852651 609.64059635996819 40.387947954237461 101.28400928154588 194.96366989612579 104.52493681758642 184.69893015176058 91.071107968688011 49.647047743201256 92.490830983966589 175.95868863165379 114.25685444846749 90.105055339634418 52.530034702271223 184.94714593142271 19.472519382834435 37.11317166686058 110.0275874696672 37.221837647259235 96.932054594159126
leaf_count=2093 169 103 149 3683 7903 3072 777 1087 495 394 12354 11514 505 882 1839 712 2039 806 327 1007 2536 2096 683 540 2088 110 280 1028 513 644
internal_value=-0.000522544 -0.0179053 0.027894 0.0151353 -0.0264933 0.00983745 -0.000588951 0.0389942 0.0551294 0.0605839 -0.0327973 -0.0279724 -0.00353509 0.0461262 0.0482704 0.0637324 0.0130131 0.0323333 0.0342855 0.0159553 -0.00411775 -0.016833 0.0555834 0.029665 0.0257959 0.0125233 0.043404 0.0462545 0.0299533 0.0780908
internal_weight=4182.46 2595.03 1587.42 933.893 1981.62 613.418 562.908 370.985 230.491 219.16 1546.04 1203.58 366.342 653.528 637.457 302.741 342.67 157.971 334.716 170.101 435.576 259.618 139.752 247.076 237.477 140.494 56.5857 165.038 129.713 201.457
internal_count=62428 46324 16104 10868 38496 7828 7305 3563 2086 1917 31771 23868 5097 5236 5087 2238 3622 1583 2849 2025 6725 4189 1010 2731 2628 1477 390 1422 1520 1356
is_linear=0
shrinkage=0.05


Tree=13
num_leaves=31
num_cat=0
split_feature=70 18 18 70 58 19 63 20 63 63 20 58 63 62 20 63 20 5 20 63 38 20 62 20 63 63 6 17 20 74
split_gain=712.78 149.214 141.937 122.634 100.879 100.457 111.309 151.408 76.6612 71.7589 67.3618 64.6487 61.3897 54.7255 50.4806 49.976 62.2586 49.0553 45.2973 116.507 44.2887 43.2816 42.9076 53.826 52.4493 37.1522 36.8811 36.7252 35.4953 33.6597
threshold=0.0033708379796671922 0.0016700146942943389 0.0015847804193550631 0.010035400213335093 0.00039185078673334227 -0.0050839697548332946 0.99810629815110041 1.0000000180025095e-35 0.99417253285695051 1.0089985546493623 0.0058439989009228333 0.0013834317261960005 0.99888297365819012 0.0036383926762089368 -6.6389884672253291e-05 0.99097391454921113 0.0081489064895057962 0.0017813109184104906 -0.0015694299975853993 1.001789710417295 0.16428646401378594 -0.00303861921120752 0.00023988942621993624 0.0029463647118735756 0.99687218150500401 0.99249112199479594 22.500000000000004 1.5412070288978879 -0.010139946686364519 -0.0053303800205887217
decision_type=2 2 2 2 2 2 2 2 2 2 2 2 2 2 2 2 2 2 2 2 2 2 2 2 2 2 2 2 2 2
left_child=1 -1 -2 4 12 9 7 17 10 28 -6 13 14 -5 29 16 -13 -7 19 21 -15 -8 -9 24 -24 -25 -26 -14 -3 -4
right_child=2 5 3 11 8 6 18 22 -10 -11 -12 15 27 20 -16 -17 -18 -19 -20 -21 -22 -23 23 25 26 -27 -28 -29 -30 -31
leaf_value=-0.049163972437754729 -0.048179966274669965 0.10725405025106372 0.17282258228307812 0.03304661654670487 0.056821553630553946 0.12137749352464003 0.0628911096749145 -0.040510221358572795 -0.014880703101523136 -0.002402141439264956 -0.0045720526453350285 0.09205594889444782 0.0059575334584280708 0.010790654175051208 0.036465742199024785 -0.0013322954065239814 0.026178716569040958 0.037124669994020497 -0.035105303675762083 -0.027090855929269665 0.077623882003519482 0.0041226302001579722 0.044426406696520759 0.0076548736969017164 -0.020372669523335614 -0.034336480371796027 0.13741496993693861 0.068632457494673255 0.034239686581008531 0.073046025825784386
leaf_weight=340.63710538670421 67.009985413402319 24.980992741882801 10.408349029719828 175.69911361113191 87.804939795285463 27.179840862751007 48.149120189249516 87.106492221355438 339.11976888775826 135.35679037496448 90.968674726784229 44.078753478825092 198.67675260826945 28.080728508532047 161.19110001623631 118.44779358059168 192.46304772794247 47.415979117155075 612.9487652182579 516.28806088119745 211.42140652611852 89.686460696160793 94.033340614289045 86.616480123251677 69.515831492841244 134.42326556891203 3.9117698743939391 26.489425722509623 49.884686850011349 44.985369689762592
leaf_count=8038 1061 202 73 1570 795 240 548 1513 5057 1835 1103 304 2660 262 1738 1292 1617 508 12137 9486 1515 1549 1254 1137 1265 2337 63 280 640 349
internal_value=-0.000526463 -0.0185439 0.0232195 0.0259853 0.0140587 -0.0133995 -0.0171849 0.0015938 -0.000913395 0.0193234 0.0255815 0.0408457 0.0316115 0.0542403 0.0506164 0.0251792 0.0384547 0.0678232 -0.0253392 -0.0161877 0.0697879 0.0246518 -0.00879383 -0.00168264 0.0196994 -0.0178818 -0.0119667 0.0133309 0.0586029 0.0917938
internal_weight=4164.98 2368.13 1796.85 1729.84 959.644 2027.5 1817.28 550.203 517.893 210.222 178.774 770.191 441.751 415.201 216.585 354.99 236.542 74.5958 1267.07 654.124 239.502 137.836 475.607 388.501 167.461 221.04 73.4276 225.166 74.8657 55.3937
internal_count=62428 42752 19676 18615 12055 34714 32037 8317 6955 2677 1898 6560 5100 3347 2160 3213 1921 748 23720 11583 1777 2097 7569 6056 2582 3474 1328 2940 842 422
is_linear=0
shrinkage=0.05


Tree=14
num_leaves=31
num_cat=0
split_feature=61 70 61 0 19 32 19 18 70 70 2 18 61 52 70 61 70 19 18 70 17 71 19 18 62 90 71 71 13 58
split_gain=692.65 211.061 121.507 123.967 102.866 59.1726 53.4287 50.0613 51.2212 45.6977 45.5013 44.6989 48.8855 42.4431 39.5911 37.7112 37.643 43.1683 37.3232 35.1929 32.793 30.9268 35.1841 30.7272 31.9391 29.6801 37.58 28.7676 28.1721 27.5998
threshold=0.0022095566824037135 0.0047794899821130337 0.0054434308788326403 -0.00028247003469487691 -0.0025517366514776663 2.5000000000000004 0.00022866625263022713 0.0016700146942943389 -0.0017103448981497038 0.0009461816183112293 0.0029957997413930302 0.0052234774882952591 0.016999421575034968 0.00017029730932937299 0.0096625967589550141 6.0536501204796373e-05 -0.0025811007609513902 -0.0053595142643100661 0.0038923351161185113 -0.011807771136643731 1.0488712809556644 -0.0074398370310272957 -0.0044514066113366044 0.0018507893130370798 -0.0040196089933265296 0.0024104970170653385 0.025243642913406771 0.004658725367822779 0.40390039258805038 -0.0014963674633129793
decision_type=2 2 2 2 2 2 2 2 2 2 2 2 2 2 2 2 2 2 2 2 2 2 2 2 2 2 2 2 2 2
left_child=1 4 3 10 16 21 23 -6 -9 -5 18 -7 -13 -11 -8 -16 17 19 -2 -1 -20 22 -4 -3 28 26 -23 -15 -25 -26
right_child=2 6 5 9 7 11 14 8 -10 13 -12 12 -14 27 15 -17 -18 -19 20 -21 -22 25 -24 24 29 -27 -28 -29 -30 -31
leaf_value=-0.0072168795552249327 0.070869940949740237 -0.032904765626979714 0.069573334953583227 -0.021816733622937373 -0.049284700984060771 0.071184985320563277 -0.019658251465834914 -0.038089559253901922 -0.016945549858934952 0.049514331143924839 0.008149763284088089 0.017937577908481491 0.10986631390444124 -0.015810100313330838 -0.008883136867257382 0.037435539355211316 0.022394459747852282 -0.028525610230900153 0.0030028105818238043 0.047216139856423804 0.076398421407854689 0.036663678253765486 -0.019277069704665608 -0.015345339116318281 0.15719736706572485 0.01709027643281227 0.093351696263578809 0.013424177266485199 0.063508621011569955 0.038797610334629917
leaf_weight=106.87006107345223 117.26356022059917 20.571299824863672 13.806524962186812 180.03009140864015 313.04454400390387 191.80616006627679 192.22453527525067 533.43154285475612 618.57097471132874 54.451276827603579 78.323814664036036 96.965566728264093 16.996554754674435 137.33885369077325 92.3611532561481 83.827735420316458 104.11044726893306 180.43300039321184 50.383957263082266 41.119132779538631 21.805285587906837 195.62193106114864 57.736729312688112 52.709509916603565 5.0734587237238875 159.93884615600109 34.372717186808586 217.29019323736429 14.427250422537325 164.9149244427681
leaf_count=1479 1086 273 88 2795 7903 1150 3072 11766 12102 549 860 741 92 2046 1098 927 1373 3325 484 548 151 1493 611 573 42 1219 218 2521 130 1713
internal_value=-0.000531884 -0.016923 0.0249378 0.0119969 -0.0252288 0.0393907 0.00824973 -0.0315543 -0.0267362 -0.000824886 0.040205 0.0564493 0.031648 0.00841331 -0.00396598 0.0131545 -0.00380375 -0.0121086 0.0534573 0.00790746 0.0251725 0.028088 -0.00213058 0.0257138 0.0307991 0.0336323 0.0451357 0.00210248 0.00159986 0.0423314
internal_weight=4147.82 2523.69 1624.13 856.887 1897.58 767.245 626.11 1465.05 1152 589.11 267.777 305.768 113.962 409.08 368.413 176.189 432.533 328.422 189.453 147.989 72.1892 461.477 71.5433 257.696 237.125 389.933 229.995 354.629 67.1368 169.988
internal_count=62428 46324 16104 10492 38496 5612 7828 31771 23868 7911 2581 1983 833 5116 5097 2025 6725 5352 1721 2027 635 3629 699 2731 2458 2930 1711 4567 703 1755
is_linear=0
shrinkage=0.05


Tree=15
num_leaves=31
num_cat=0
split_feature=61 5 61 1 71 89 71 5 0 61 1 20 77 90 63 61 37 1 68 32 60 61 61 62 59 90 67 1 61 5
split_gain=624.446 154.69 109.845 123.675 96.2472 69.5912 67.1279 48.9249 47.6641 44.1619 55.6655 37.7756 42.1606 34.8442 37.7259 34.1157 32.016 31.2505 41.5752 30.8769 29.4958 29.0599 27.4545 25.9004 32.9314 25.3192 25.3152 24.2034 24.0788 27.4499
threshold=0.0022095566824037135 0.0011768512243179668 0.0081593390184897894 0.0011010384278183668 0.0072114222038886433 -0.0091636510465060907 0.0098100429182775423 0.0036211065528170927 0.00083218172386529397 -0.00023569491532108504 -0.00049179907650205058 0.0023533655223247174 0.46836879478523069 0.0019115523791849967 0.99305570096189344 -0.0014560998498296188 0.65180752122360219 -0.00039297102558629528 1.2082863354602968 2.5000000000000004 1.1173826400491522 0.011694701804137658 0.0016754139565017189 -0.00024756700572861606 79.82500000000023 -0.00035431939612977348 0.0085977947550435734 0.01104869869930253 0.0050319529369645165 0.0022246970719245807
decision_type=2 2 2 2 2 2 2 2 2 2 2 2 2 2 2 2 2 2 2 2 2 2 2 2 2 2 2 2 2 2
left_child=1 -1 3 8 5 -3 -5 19 16 -7 20 12 22 14 -8 -13 -2 18 -17 -4 -11 -9 -6 25 -25 -14 -22 -23 -10 -30
right_child=2 4 7 6 11 9 13 21 28 10 -12 15 23 -15 -16 17 -18 -19 -20 -21 26 27 -24 24 -26 -27 -28 -29 29 -31
leaf_value=-0.042448240472908474 0.055756887006961443 0.012941957915789623 0.045321679760314537 -0.0097005414737011218 0.00033618341578639651 -0.029825826751951681 0.075992885761948403 -0.0035985512537713947 -0.0013578594992299151 0.0069944378410558908 -0.022519767092073453 -0.029360559398650139 0.056547407749831705 0.004267943291966776 0.021269159826505284 0.021137985895742097 0.019763409537419667 -0.0077016173729499392 0.16000903717695117 0.080760854363378876 0.10870690564427735 0.062376786917399119 0.060424552397036327 0.18252098836222982 0.055006291334656822 -0.0089768173919023003 -0.032270592308738869 0.01401400094919039 0.081396282664045805 0.011509629409528667
leaf_weight=462.26909942179918 238.77855578809977 157.93431362509727 164.40355613082647 437.0581515841186 238.68771069124341 741.41167401522398 46.033820863813162 60.928454376757145 103.20582661032677 128.92759282514453 288.15662808716297 115.74381341040134 27.382897790521383 150.75605206936598 99.711674019694328 53.484454307705164 83.346807602792978 149.90644997730851 5.9934901259839526 98.158370897173882 13.607845317572357 55.631862461566925 20.654538050293922 5.8322972021996966 38.398937813937664 31.939169988036156 4.1571768447756758 48.356343321502209 22.973982691764832 36.173803858458996
leaf_count=10906 1933 2155 1074 6181 3855 15009 366 478 1259 2050 5619 1879 315 1582 1024 697 658 2383 65 479 169 313 280 62 415 413 52 340 133 284
internal_value=-0.000531227 -0.0163537 0.0233584 0.0157053 -0.0103886 -0.0182219 0.00275744 0.0451647 0.03531 -0.0224062 -0.00975587 0.00480135 0.0158908 0.0211211 0.0385537 -0.00757627 0.0464439 0.00446568 0.0351318 0.0585706 0.015317 0.0238214 0.00512174 0.0428612 0.0718203 0.021269 0.0757169 0.0398872 0.0132193 0.0386548
internal_weight=4130.01 2484.49 1645.52 1218.04 2022.22 1334.2 733.56 427.479 484.479 1176.26 434.849 688.024 362.896 296.502 145.745 325.128 322.125 209.384 59.4779 262.562 146.693 164.917 259.342 103.553 44.2312 59.3221 17.765 103.988 162.354 59.1478
internal_count=62428 46324 16104 13420 35418 25054 9153 2684 4267 22899 7890 10364 5340 2972 1390 5024 2591 3145 762 1553 2271 1131 4135 1205 477 728 221 653 1676 417
is_linear=0
shrinkage=0.05


Tree=16
num_leaves=31
num_cat=0
split_feature=61 70 19 70 1 19 18 19 63 20 63 18 70 63 68 0 70 62 18 61 58 70 17 70 70 68 63 83 19 105
split_gain=563.982 202.554 100.25 98.0578 86.6927 79.6907 61.7479 55.9332 77.1867 56.0907 48.7423 45.0379 42.5185 41.976 39.7101 37.1776 37.0819 36.9892 36.3463 38.2005 51.8764 35.0108 34.9837 32.191 31.8124 34.4186 31.3124 33.49 30.641 31.4559
threshold=0.0023079259167272229 0.0026631099996134847 -0.0046357415685439173 0.0033708379796671922 -5.3159079615513486e-05 0.00043695781249865399 0.0015178666629264165 0.0016798417082011295 0.99492716585403074 0.0058439989009228333 0.99755964905954164 0.0016527058055506598 0.022387242767084897 0.99903449169854464 0.52382764826301165 0.00054295771146025253 -0.0014140169680228506 0.0052755841381890668 0.0016381144351000887 -0.00023569491532108504 -0.00065802804271973602 0.011935571045723651 1.5089972088337251 -0.011435982923969417 0.019858154369157312 0.30516711051558437 0.99337389030443157 -0.022891455088132135 -0.0018464353891536271 1.0646000430503049
decision_type=2 2 2 2 2 2 2 2 2 2 2 2 2 2 2 2 2 2 2 2 2 2 2 2 2 2 2 2 2 2
left_child=1 2 23 5 18 13 -5 10 9 26 -8 -4 -11 -2 -15 -12 -13 -7 -3 20 -20 -6 -21 -1 -22 -26 -9 -28 -18 -30
right_child=3 4 11 6 21 17 7 8 -10 12 15 16 -14 14 -16 -17 28 -19 19 22 24 -23 -24 -25 25 -27 27 -29 29 -31
leaf_value=-0.0092014470173253666 0.050168961808868998 -0.042529995848123947 -0.0500146368543707 -0.05713053407381749 -0.020568536283671904 -0.024740050480878129 0.062388387187763197 0.073675860063957183 -0.0053967942618489331 0.010255134347676581 0.049015255803628782 -0.033864697165681766 0.050146585569093842 -0.011273860279802131 0.039824414851288729 0.00010915952646437327 0.013772040467412218 0.010614736782395077 0.046603154482837333 0.03339566915428329 -0.0088453072749528818 0.014686557967295228 0.11439182675081715 0.03188876446045439 0.10795696449934832 -0.025335668547473655 0.14413307560730992 0.011958226239914405 -0.024163966687597939 0.055178802750155354
leaf_weight=121.90287334471941 106.82960435375571 23.330039851367474 254.00596274808049 19.346886478364468 327.81740308925509 194.42424307391047 234.20880020782351 108.06350438296795 166.02182729169726 224.6867648884654 83.778575643897057 700.29955552890897 95.056619621813297 93.240184217691422 64.201575078070164 72.476400252431631 75.031649883836508 119.42248662561178 72.85701746866107 150.77550307661295 188.1473349519074 89.686559714376926 14.62453095987439 78.268040865659714 12.614376462996008 7.8612827286124221 5.3615501634776583 45.150443486869335 349.72447326406837 12.954580470919607
leaf_count=1767 874 473 6967 243 5915 2889 1439 619 1987 1953 690 15549 615 1080 635 756 1166 1346 813 1733 2624 996 124 1049 108 74 51 439 7195 259
internal_value=-0.000527855 -0.0155505 -0.0262204 0.022296 0.00358696 0.00574747 0.0313715 0.0330261 0.023977 0.0341724 0.047959 -0.0309781 0.0221145 0.0259776 0.00956299 0.0263309 -0.0267291 -0.0112871 0.0183104 0.0214867 0.0102806 -0.0129952 0.0405573 0.00686507 -0.00240425 0.0567815 0.0584855 0.0259878 -0.0153128 -0.0213299
internal_weight=4112.17 2479.9 1592.19 1632.27 887.714 578.118 1054.15 1034.8 644.341 478.319 390.464 1392.02 319.743 264.271 157.442 156.255 1138.01 313.847 470.21 446.88 281.48 417.504 165.4 200.171 208.623 20.4757 158.575 50.512 437.711 362.679
internal_count=62428 46812 33952 15616 12860 6824 8792 8549 5664 3677 2885 31136 2568 2589 1715 1446 24169 4235 5949 5476 3619 6911 1857 2816 2806 182 1109 490 8620 7454
is_linear=0
shrinkage=0.05


Tree=17
num_leaves=31
num_cat=0
split_feature=61 70 19 19 18 18 71 19 61 71 61 1 61 62 19 1 61 62 37 71 104 18 62 21 70 20 20 62 0 63
split_gain=511.439 244.551 102.18 79.1623 68.0416 57.9792 55.2097 65.1681 58.082 52.081 50.1072 50.0831 47.217 47.1189 39.1518 38.1929 33.0673 32.6595 32.9251 34.8588 44.7412 32.2205 33.5861 41.7288 32.0147 31.6082 31.1554 30.1617 29.6026 29.563
threshold=0.0040238737779463201 0.003579995226680904 -0.0025517366514776663 0.0012079218335613146 0.0015847804193550631 0.0016527058055506598 -0.00305787448953249 0.0022898351046990234 0.0100910864037312 0.015391290709505229 -3.3641162993285568e-05 0.00056453598130313414 -0.0014560998498296188 -0.010783054942276337 -0.002150844387914175 -0.0068412562202614796 0.0013793635074599994 0.00033296387467356278 0.31953968303087427 0.0044540753848277652 1.027270586649226 0.0016527058055506598 0.00064357932894132852 -0.0016887760440858601 0.015960040030451438 0.011065231868362538 0.011863058241194404 -0.0012557356448224305 -0.0020649050820330524 1.0006972626476063
decision_type=2 2 2 2 2 2 2 2 2 2 2 2 2 2 2 2 2 2 2 2 2 2 2 2 2 2 2 2 2 2
left_child=1 2 12 4 -3 -4 14 21 24 -5 -7 17 15 -14 -2 -1 -6 -12 19 -19 -21 -8 23 -23 -9 -10 -26 -16 -15 -18
right_child=6 3 5 9 16 10 7 8 25 -11 11 -13 13 28 27 -17 29 18 -20 20 -22 22 -24 -25 26 -27 -28 -29 -30 -31
leaf_value=0.0087666483409461274 0.043853910401987106 -0.050685337385660424 -0.04887101547339557 -0.023789307446401616 0.015055513365517276 -0.033072944667586389 -0.031720663635703437 -0.0011055203918193251 0.064612896095035594 0.012822925681597354 -0.014866248607139485 -0.026100596100498898 -0.025893879113065933 0.074413055732713215 -0.039122697885618445 -0.025585925189000172 0.05194368202016169 0.019237349532595718 -0.0071888430589426844 0.064157796873466982 0.25687688284588817 0.072619627239077875 0.060184221462770374 -0.0039814574416502848 0.055471614258530089 0.023299161886038575 -0.0076666021980072267 0.0076037241301129613 0.015960772226040809 0.0079399178103573033
leaf_weight=142.71093418449163 58.292810820043087 32.683630034327507 276.50269510224462 239.49044965207577 391.65597644075751 642.3425356708467 11.773467876017092 223.50592899695039 94.203170381486416 163.40863339975476 123.09555306658149 313.69524824619293 31.868433773517609 43.357019755989313 44.285030104219913 186.83915916457772 143.45069045946002 50.379087343811989 58.562442373484373 20.619760598987344 3.5266997739672652 27.528576981276274 288.08858281001449 50.199870351701975 58.794132873415947 91.038144759833813 29.263042099773884 156.8788491524756 43.284696534276009 52.006617564707994
leaf_count=1937 400 593 7785 3884 4848 14987 101 2172 510 2036 2242 6325 428 437 524 3497 1337 849 945 314 50 218 1595 419 415 576 238 1616 584 566
internal_value=-0.000526237 -0.0114658 -0.0219101 0.00831366 0.0195294 -0.0282105 0.0280272 0.0340372 0.0221371 -0.00894004 -0.023498 -0.0127055 -0.000976137 0.0260905 0.00777271 -0.0107096 0.0234382 0.00369673 0.020866 0.0429115 0.0923053 0.0496945 0.0523148 0.0231478 0.00895474 0.044309 0.0344896 -0.00268282 0.0452113 0.0402353
internal_weight=4093.33 2959.48 1936.78 1022.7 619.797 1488.72 1133.85 874.395 496.804 402.899 1212.22 569.879 448.06 118.51 259.457 329.55 587.113 256.184 133.088 74.5255 24.1465 377.59 365.817 77.7284 311.563 185.241 88.0572 201.164 86.6417 195.457
internal_count=62428 53644 40380 13264 7344 33497 8784 6244 3911 5920 25712 10725 6883 1449 2540 5434 6751 4400 2158 1213 364 2333 2232 637 2825 1086 653 2140 1021 1903
is_linear=0
shrinkage=0.05


Tree=18
num_leaves=31
num_cat=0
split_feature=61 18 63 19 20 63 71 20 3 18 77 95 20 77 61 1 62 61 72 85 61 111 77 11 53 121 61 110 21 79
split_gain=465.141 145.596 81.9899 86.9524 80.6907 83.4313 79.3615 67.9853 57.6313 50.879 49.155 35.437 34.5013 36.0294 33.321 44.9902 30.4768 30.2343 29.7366 33.3131 29.0677 29.3933 28.866 28.2732 27.5477 27.4058 49.2583 26.8069 25.4324 25.4012
threshold=0.0022095566824037135 0.0018507893130370798 0.99755964905954164 -7.6344690026178895e-05 0.0024024134817587505 0.99322520609357723 0.0072114222038886433 0.0058439989009228333 0.0061312402087227253 0.0017184364534790907 1.4795177527721777 0.71145109197186596 0.0023533655223247174 0.074303756851005001 -0.00053017908485110323 -0.00049179907650205058 0.0030840150616980571 -0.001829403294812722 0.97747255762366048 0.061602814112240188 0.0012882696753364921 1.0162291918312294 -0.23592871886863181 -1.1615308341245674 34.132142857142505 0.12666306886226888 0.00075752741292393238 0.99086920966354741 0.0029349829368160896 0.087923371128377267
decision_type=2 2 2 2 2 2 2 2 2 2 2 2 2 2 2 2 2 2 2 2 2 2 2 2 2 2 2 2 2 2
left_child=1 -1 4 11 9 7 8 16 14 -2 -9 24 13 25 -3 -16 -6 -14 -19 -20 21 23 -21 -15 -4 -8 -27 -7 -12 -30
right_child=2 6 3 -5 5 27 12 10 -10 -11 28 -13 17 20 15 -17 -18 18 19 22 -22 -23 -24 -25 -26 26 -28 -29 29 -31
leaf_value=-0.041804245169746797 -0.030259871450272716 -0.028576617530725476 0.033015034584840987 -0.014158040581310245 -0.005682205282819857 0.017554424781096752 -0.0058874601448726483 0.0045378159345378782 0.0080131138331226929 0.053115609643799466 0.085098110802380444 0.057372873018464748 -0.030609775221673265 0.10284600626617471 0.0094803554760542127 -0.022883725450216285 0.061955856898250755 0.036207430103250553 -0.012535878046294699 0.17254718601434976 0.089909899861688958 0.1163171768021663 0.0050620616653122494 0.012835065927251791 -0.004386864694560161 0.011113063808588989 0.17392544151459299 -0.016498392978340048 0.021102081274483802 0.10320244305117042
leaf_weight=411.91814690083265 19.450292237102985 621.9953948110342 100.1412755921483 304.81459020450711 18.572412926703691 88.083094194531441 175.73864827305079 244.08993803337216 202.78315768763423 308.84217981994152 28.33108039572835 64.31909716501832 96.892783403396606 9.3934672027826291 171.19734388589859 288.07250725477934 161.26191075518727 51.387573383748531 164.6674957498908 4.6394098438322544 19.662213675677776 8.2892017401754838 5.7748085483908635 122.44099763035774 96.837573908269405 19.873932089656595 6.0628538504242888 168.06781009957194 79.706871367990971 10.68395148962736
leaf_count=10948 233 13288 998 4351 170 1025 2942 2059 3065 2012 186 488 1653 124 2749 5932 924 608 2668 80 178 80 79 1527 911 331 72 2094 586 67
internal_value=-0.000523877 -0.0147716 0.0195097 0.00398498 0.0273074 0.0187308 -0.00911598 0.0298329 -0.016447 0.0481759 0.017373 0.0251495 0.00462974 0.0152445 -0.0210343 -0.0108197 0.0549705 -0.00723572 0.00276466 -0.00705101 0.0329793 0.0249907 0.0796747 0.0192485 0.0146277 0.00119345 0.0491713 -0.00478859 0.043762 0.0308061
internal_weight=4073.99 2380.79 1693.2 566.113 1127.09 798.797 1968.87 542.646 1284.05 328.292 362.812 261.298 684.823 361.461 1081.27 459.27 179.834 323.362 226.469 175.082 159.786 140.124 10.4142 131.834 196.979 201.675 25.9368 256.151 118.722 90.3908
internal_count=62428 46324 16104 6748 9356 7111 35376 3992 25034 2245 2898 2397 10342 5254 21969 8681 1094 5088 3435 2827 1909 1731 159 1651 1909 3345 403 3119 839 653
is_linear=0
shrinkage=0.05


Tree=19
num_leaves=31
num_cat=0
split_feature=70 61 61 2 18 19 1 18 71 70 19 62 61 11 4 70 64 74 20 63 6 37 71 81 105 19 61 70 21 62
split_gain=436.892 131.373 100.797 87.5473 68.2483 78.4516 65.8761 46.5881 46.0025 44.3334 37.3995 39.5313 36.0961 33.8389 32.7103 30.3654 29.2146 43.8738 27.6858 28.3398 28.812 27.4476 26.7362 29.0344 25.3371 25.6724 24.9937 24.9839 30.7537 31.141
threshold=0.0033708379796671922 0.0022683925657085552 0.0054434308788326403 -0.0064117274321507448 0.0015847804193550631 0.001258630959469813 0.001846865060370334 0.0016700146942943389 0.015846420036708841 -0.0014140169680228506 0.0033534537590047845 0.00068844641991973809 0.0013793635074599994 2.9716886138308247 371.39107142857193 0.024779199618600048 1.0039446423297531 -0.0059664764323764238 0.0084966606566646927 0.99097391454921113 20.500000000000004 0.35065593238606035 0.050271017544193143 0.94571035071282683 1.0646000430503049 -0.0010869649263360976 -0.0069170733336260852 0.0096625967589550141 0.0035611631074479711 0.0036990756839980171
decision_type=2 2 2 2 2 2 2 2 2 2 2 2 2 2 2 2 2 2 2 2 2 2 2 2 2 2 2 2 2 2
left_child=1 3 4 13 -2 12 -3 -5 -7 -9 11 -4 27 -1 16 -12 17 -14 19 21 -21 -10 -20 -24 25 -11 -15 -6 29 -29
right_child=2 6 10 7 5 8 -8 9 18 24 15 -13 14 26 -16 -17 -18 -19 22 20 -22 -23 23 -25 -26 -27 -28 28 -30 -31
leaf_value=-0.0037243255749010691 -0.046769627950441844 0.019523853503417409 0.00097025872905398341 -0.048439620314085136 0.0044183272945758773 -0.015876876746235325 -0.013937746224355358 -0.033233998776166875 0.12821336632921207 0.0049389123877765697 0.013266204256283718 0.053825078723249237 0.1166753895985029 0.024751147663371807 -0.00035781469061315686 0.049835109010081251 0.0038230647711453417 0.043009314894656647 -0.028372362518202195 0.0067961615201787744 0.098490960613436332 0.033667525551147291 0.13076720752826418 -0.0054100619593992622 0.047556436748327997 -0.022072559375489423 0.12763956310842783 0.025327269507258041 -0.02966806163113089 0.085491658189246408
leaf_weight=242.9754803404212 52.460549805313349 322.8406788893044 41.058214910328388 243.16277001053095 280.83534746617079 302.50236505270004 270.18329816311598 595.80502391606569 11.980991307646034 119.62384499981999 242.94283418357372 255.63177749887109 22.842411860823631 21.726318132132295 51.05675595998764 74.075621038675308 38.356352049857378 175.52268270403147 53.493764024227858 97.59179575741291 9.3912977539002878 21.366093374788761 6.1171672120690372 10.868926618248222 16.830142643302679 332.3799453265965 8.1042430587112886 87.148887999355793 18.246607333421707 28.554796304553747
leaf_count=3819 1024 3189 303 7566 4024 4581 3787 14345 110 2158 1863 1336 187 247 417 438 404 1521 654 1111 114 216 61 125 312 7234 95 755 175 257
internal_value=-0.000519123 -0.0157894 0.017117 -0.0233187 0.00906798 0.0114772 0.00427866 -0.0286932 -0.00338145 -0.0241831 0.0337517 0.0465106 0.0223333 0.00244589 0.0359396 0.021811 0.0437683 0.0514922 0.0145489 0.0273902 0.0148454 0.0676361 -0.0110191 0.0436312 -0.012681 -0.0149239 0.0527034 0.0128932 0.0306614 0.0401754
internal_weight=4055.68 2173.63 1882.05 1580.61 1268.34 1215.88 593.024 1307.8 513.312 1064.64 613.708 296.69 702.564 272.806 287.778 317.018 236.721 198.365 210.81 140.33 106.983 33.3471 70.4799 16.9861 468.834 452.004 29.8306 414.786 133.95 115.704
internal_count=62428 42752 19676 35776 15736 14712 6976 31615 6972 24049 3940 1639 7740 4161 2529 2301 2112 1708 2391 1551 1225 326 840 186 9704 9392 342 5211 1187 1012
is_linear=0
shrinkage=0.05


Tree=20
num_leaves=31
num_cat=0
split_feature=70 18 61 18 19 61 19 2 63 68 71 70 2 68 61 71 77 19 63 17 61 114 74 62 21 89 85 62 68 37
split_gain=395.653 123.125 100.611 90.1481 76.5322 76.0616 70.7607 65.1608 56.4884 52.6174 47.6368 43.1779 37.3448 36.8221 35.2982 33.5053 31.6484 31.3624 30.5787 28.7517 27.8871 27.1782 25.8707 25.0309 24.7272 32.8096 24.6314 24.3931 28.6389 24.8469
threshold=0.0033708379796671922 0.0016527058055506598 0.0011057548432440406 0.0015847804193550631 0.00047616781362698344 0.0054434308788326403 0.0017734183246686601 -0.008092367667470993 0.99871793933950859 0.52382764826301165 0.0072114222038886433 -0.0014140169680228506 0.0070381682519166785 -0.82266613200380456 0.00134971749220676 0.015846420036708841 1.4795177527721777 -0.0010572253041442321 0.99879696025364184 1.9990871473561069 -0.004358990263289622 6.9597700792517201e-05 -0.0043293617069472476 0.00068844641991973809 0.0036787055483621101 -0.011146160163267357 0.032462421256438723 -1.0000000180025095e-35 0.16007171553184699 0.77621334634104788
decision_type=2 2 2 2 2 2 2 2 2 2 2 2 2 2 2 2 2 2 2 2 2 2 2 2 2 2 2 2 2 2
left_child=1 -1 7 -2 8 6 10 19 27 -10 -5 -9 13 -7 24 -8 26 21 -6 -3 -21 -13 -16 -15 25 -12 -14 28 -4 -29
right_child=3 2 4 5 18 12 15 11 9 -11 14 17 16 23 22 -17 -18 -19 -20 20 -22 -23 -24 -25 -26 -27 -28 29 -30 -31
leaf_value=-0.048235600954201922 -0.046514919550897003 -0.0043672373433222547 -0.010476930911127294 0.0060943423810235001 -0.0036837025801668755 -0.022187014487291851 -0.019584378699516739 -0.034539198931891689 -0.012315338690554742 0.035687077581914729 0.12448396525005512 -0.010433884002182854 -0.038811803375802721 0.0077014356232028743 0.083891962781562898 0.0097340403498747154 0.041661740150720779 -0.022821371984474599 -0.035094135260514407 0.024396189947347071 0.1327213918736681 0.037308456979980587 0.037375825714949684 0.051258512122065038 -0.020798492398365356 0.02050775965627602 0.013247546664023172 0.068405155752354715 0.078057336016568835 -0.024656701928559212
leaf_weight=249.8053341973573 55.766138771548867 144.95636395365 31.813585858792067 381.01462853327394 266.54965384677052 20.661579437553883 220.28026729822159 560.3098586127162 159.6528286151588 88.862797480076551 7.8669864051043978 79.066008944064379 27.219277031719685 36.982899758964777 37.020430389791727 174.75726299732924 88.908726327121258 256.56037709489465 109.23862222209573 37.533224243670702 7.0586878024041644 47.849503722041845 155.21210715174675 305.01458299532533 35.406798914074898 213.21525570750237 137.49236711859703 81.459683392196894 12.813133448362349 7.8649613223969927
leaf_count=7826 1061 2241 368 4942 3681 148 3408 13878 2266 942 61 1441 224 270 287 2000 548 5860 2038 440 65 873 1191 1688 395 2428 1025 659 111 63
internal_value=-0.000513897 -0.0152437 -0.0108868 0.0161152 0.00321098 0.0180123 0.0108032 -0.0203188 0.0189566 0.00484909 0.0190957 -0.0256917 0.0323394 0.0426323 0.0301353 -0.00661445 0.0176212 -0.0127644 -0.0128145 0.00643344 0.0415436 0.00756586 0.046334 0.0465483 0.0179948 0.0242076 0.00464452 0.0451297 0.0149428 0.0602111
internal_weight=4038.21 2141.39 1891.59 1896.82 758.255 1841.05 1224.77 1133.33 382.467 248.516 829.736 943.786 616.279 362.659 448.722 395.038 253.62 383.476 375.788 189.548 44.5919 126.916 192.233 341.997 256.489 221.082 164.712 133.951 44.6267 89.3246
internal_count=62428 42752 34926 19676 10128 18615 14712 24798 4409 3208 9304 22052 3903 2106 4362 5408 1797 8174 5719 2746 505 2314 1478 1958 2884 2489 1249 1201 479 722
is_linear=0
shrinkage=0.05


Tree=21
num_leaves=31
num_cat=0
split_feature=70 18 18 19 70 70 58 63 63 20 63 63 20 58 20 63 94 54 62 38 63 89 20 62 20 74 4 76 4 7
split_gain=358.745 119.183 83.5396 64.949 88.3994 64.1066 60.5629 43.6346 43.3484 43.0697 78.3583 74.4899 61.6212 42.6943 39.7178 29.4834 37.5694 29.3343 29.24 34.6612 28.4107 28.8502 26.9849 26.548 24.7008 36.9927 24.4387 24.0837 26.4835 24.341
threshold=0.0033708379796671922 0.0016527058055506598 0.0015178666629264165 -0.0048484864945247978 -0.0033102048435015865 0.010035400213335093 0.00039185078673334227 1.0092972048228239 0.99417253285695051 -0.0015694299975853993 1.001789710417295 0.99810629815110041 0.00069899392608370144 0.0020265668264038716 0.0058439989009228333 0.99097391454921113 0.0038082550173772658 0.05915374660256343 0.0036383926762089368 0.1666945542355201 1.0006972626476063 -0.0051497638279162468 -0.010139946686364519 0.0031486500186360946 0.00011963507440948318 -0.0054665365438505498 281.23750000000092 0.023438648796538498 326.01571428571498 1.0000000180025095e-35
decision_type=2 2 2 2 2 2 2 2 2 2 2 2 2 2 2 2 2 2 2 2 2 2 2 2 2 2 2 2 2 2
left_child=1 -1 -2 7 23 6 20 22 14 10 -6 12 -11 18 -8 16 -15 -14 -7 -20 24 -22 -3 -5 25 26 -4 28 -21 -30
right_child=2 3 5 4 9 13 8 -9 -10 11 -12 -13 17 15 -16 -17 -18 -19 19 27 21 -23 -24 -25 -26 -27 -28 -29 29 -31
leaf_value=-0.047985119191489532 -0.053100468887427713 0.077276119740312482 0.14735398439672959 -0.032839139182826431 0.046649064205496339 0.019517320796175013 0.037074556786350465 -0.0040547300116731922 -0.014333340990385341 0.048960763997099296 -0.008935676789091419 -0.027220807269630016 0.01298110150603282 0.050409274293030763 -0.0079014719795412035 -0.021328226409408499 0.0052680610290999309 -0.018405099533368781 0.005744579776072861 0.053918620306608947 0.040622068796579369 -0.0083680084124543395 0.021269640353253887 -0.0052021411268148351 0.01866091378258844 0.033186760193549027 0.049772889608365276 0.077627397951189114 0.058383314851148164 0.0014816811489078111
leaf_weight=238.83154147677124 43.761919356882572 32.146605059504509 13.360888972878458 541.51573048532009 103.2570951897651 206.39987038448453 101.20945417508483 136.24739903584123 334.07361079752445 65.127893541008234 164.27314521186054 357.08774352818727 132.47753558307886 66.357882641255856 95.314060661941767 57.071609899401665 150.92390684038401 169.94625178724527 53.476902738213539 171.67030727118254 40.064950302243233 120.2469284106046 64.983265314251184 103.50236566364765 198.62951548397541 99.196564968675375 12.34461412578821 60.5414261482656 27.792734704911709 58.049324251711369
leaf_count=7826 874 232 109 12139 1283 1675 801 1873 5144 707 3090 8041 2113 428 1105 629 1166 2903 473 1165 375 1621 793 1752 2101 884 83 416 182 445
internal_value=-0.000508821 -0.0147239 0.0151863 -0.0104771 -0.0139948 0.0167871 0.00829413 0.0141997 -0.00337208 -0.00462695 0.012518 -0.0109567 0.00484432 0.026896 0.0152611 0.0106538 0.0190542 -0.00465629 0.0346064 0.042989 0.0210877 0.00387553 0.0398058 -0.0284044 0.0296164 0.0470386 0.100492 0.0492512 0.04258 0.0199045
internal_weight=4019.88 2109.4 1910.49 1870.57 1637.19 1866.72 1014.44 233.377 530.597 992.17 267.53 724.639 367.552 852.284 196.524 274.353 217.282 302.424 577.931 371.531 483.843 160.312 97.1299 645.018 323.532 124.902 25.7055 318.054 257.512 85.8421
internal_count=62428 42752 19676 34926 32028 18802 12223 2898 7050 18137 4373 13764 5723 6579 1906 2223 1594 5016 4356 2681 5173 1996 1025 13891 3177 1076 192 2208 1792 627
is_linear=0
shrinkage=0.05


Tree=22
num_leaves=31
num_cat=0
split_feature=18 71 68 62 90 20 58 62 79 62 2 21 62 102 62 58 19 35 72 21 79 37 68 67 77 20 37 51 90 62
split_gain=250.362 181.122 77.1062 70.7741 78.0051 60.8585 36.4519 42.7707 34.1767 31.8951 50.9935 43.0306 31.3136 29.2622 27.9241 56.4741 30.803 27.709 27.5978 26.8088 37.6563 26.3969 26.1488 27.0184 26.1097 28.4119 25.7542 24.024 23.7754 23.6671
threshold=0.0015847804193550631 0.0044540753848277652 0.27339861498087131 0.0036990756839980171 0.0027778746935468519 0.00015105796592607674 0.00085528520006627562 0.0082031725357824305 0.060522920399750664 -0.0019278868048860393 -0.0078154092913878762 0.00067536276770564427 -0.015100365019116093 -0.020680182404182703 -0.00045048766050444797 -0.00043596774127517085 -0.0017617128349061264 0.92646625435942653 0.97888830778924107 -0.0014246198994326508 0.0084482729063697533 0.56130381285931874 -0.15020562374423937 0.0076829307826601885 0.53573887380761553 0.0044023278513910915 0.066343696564750157 0.75214599028456175 0.011243690385274618 -0.0036869579322266473
decision_type=2 2 2 2 2 2 2 2 2 2 2 2 2 2 2 2 2 2 2 2 2 2 2 2 2 2 2 2 2 2
left_child=-1 2 14 5 6 22 27 8 24 10 12 13 -4 -11 16 17 29 -16 28 20 -14 -15 26 -24 -8 -26 -3 -5 -6 -2
right_child=1 3 9 4 18 -7 7 -9 -10 11 -12 -13 19 21 15 -17 -18 -19 -20 -21 -22 -23 23 -25 25 -27 -28 -29 -30 -31
leaf_value=-0.04827551034684955 -0.019391142481016404 0.039192609023447698 -0.0040901776151269862 0.029041031235835787 0.029037904719704907 -0.0094674634684111213 -0.020186624503014769 0.037092787664234232 0.11464023041727565 -0.02046955482115996 -0.01958215774971141 -0.011912086975675839 0.03671354570889987 0.057908392101826058 0.023147223323284113 -0.014861220631851121 -0.034796122455372863 0.15674277491438782 -0.0027590224281135098 -0.020340807582510813 0.14971034491939397 0.018020452185895701 0.049613030264271052 0.0076355696438749248 0.086244721446946629 -0.0073494976540043793 -0.0037234280232660713 0.060294310560646894 -0.02284762925280974 0.020962864025333247
leaf_weight=256.67302752099931 148.31466869264841 45.113494824618101 99.806937951594591 100.03394613415003 161.32960117608309 458.82845943979919 86.348578575998545 210.6594114266336 6.2078407593071452 23.883037075400352 230.90761810168624 82.781242802739143 66.653147492557764 86.219942709431052 75.92757336050272 573.93397877551615 311.00555198267102 4.0903919488191596 286.56332092359662 16.995864670723677 8.2900370359420759 79.927402531728148 97.007933665066957 63.375023972243071 13.973588608205317 19.318779405206442 155.29775417968631 159.57560968399048 25.579438496381044 48.123060047626495
leaf_count=8122 2692 732 1297 880 1305 7016 1153 1613 56 305 4699 1295 793 1185 979 10051 7040 41 3175 239 81 1075 1048 671 139 211 2241 1261 224 809
internal_value=-0.000503489 0.00276975 -0.00831991 0.0136695 0.0221411 0.00261425 0.0341749 0.023315 0.000252262 0.0048468 -0.00375586 0.0181745 0.0153027 0.0312808 -0.0162044 -0.00937486 -0.0250057 0.0299764 0.00699008 0.0363553 0.049213 0.0387198 0.0179788 0.0330257 -0.00568302 0.0319342 0.00593717 0.0482517 0.0219371 -0.00950527
internal_weight=4002.75 3746.07 1856.86 1889.21 1069.59 819.623 596.118 336.508 125.849 695.465 422.654 272.812 191.746 190.03 1161.4 653.952 507.443 80.018 473.472 91.939 74.9432 166.147 360.794 160.383 119.641 33.2924 200.411 259.61 186.909 196.438
internal_count=62428 54306 32581 21725 10017 11708 5313 3172 1559 10969 7109 3860 2410 2565 21612 11071 10541 1020 4704 1113 874 2260 4692 1719 1503 350 2973 2141 1529 3501
is_linear=0
shrinkage=0.05


Tree=23
num_leaves=31
num_cat=0
split_feature=61 70 18 19 70 1 19 19 61 71 19 18 0 61 70 62 68 104 83 70 70 95 19 70 11 19 77 95 17 90
split_gain=313.745 103.784 93.5483 77.3836 70.2095 67.3769 51.0128 45.8738 66.8759 36.4368 36.3567 30.3966 29.5378 25.9757 25.7588 25.0519 23.887 23.5054 31.1208 23.4928 22.7784 26.4067 22.7771 21.9912 31.0861 21.9257 21.6951 21.1061 20.5415 20.326
threshold=0.0013793635074599994 0.0022121463201206656 0.0015178666629264165 -0.0046357415685439173 0.0013944514531874345 -0.001122371411188065 0.00049547537713420114 0.0016798417082011295 0.0074981621265316073 -0.0036459550022628815 0.0041005354609705983 0.0015847804193550631 -0.0014022286513818061 0.010768544702350761 -0.0017103448981497038 -0.000934810791358397 1.3767040694118826 1.0274457290486365 -0.023716951629062514 0.01399208019889289 -0.017439326088219319 2.4342128200429314 -0.0018464353891536271 0.010035400213335093 -1.0907983166661526 -0.0036978377583884183 1.0782767425601139 0.80040654467874273 0.73662051189097699 0.007044425563617133
decision_type=2 2 2 2 2 2 2 2 2 2 2 2 2 2 2 2 2 2 2 2 2 2 2 2 2 2 2 2 2 2
left_child=1 3 -2 20 6 28 12 9 19 27 -10 -5 -4 15 -13 -14 -8 22 -19 -9 -1 -22 -16 -7 -25 -11 -12 -6 -3 -21
right_child=2 5 4 11 7 23 16 8 10 25 26 14 13 -15 17 -17 -18 18 -20 29 21 -23 -24 24 -26 -27 -28 -29 -30 -31
leaf_value=-0.017043058099549892 -0.05344860739099673 -0.0015920751133204172 0.040003847302410619 -0.050392503895965585 -0.0019447730729508725 -0.0199997994216672 -0.02373512892350204 -0.0066425546020871112 0.053357969851347567 0.089654419158082463 0.0038309767658253968 -0.032818069512334139 -0.014005674008047867 0.081139637154763466 0.0072708578410803394 0.021380303922405471 0.022194785733513273 0.18514854105020265 0.0095185986970772671 0.028721780541632033 0.0060663784330924481 0.062886662894597128 -0.026684242946223305 0.072566890038559415 -0.004329483819491056 0.034444797413931943 0.034253256740815231 0.052610940331420344 0.02623283384151999 -0.029622040514692274
leaf_weight=73.770340904593468 51.262405229732394 95.967476984485984 77.36037871427834 147.73063955828547 109.46782173961401 309.57776291109622 208.90591273084283 337.64524459652603 107.53090278059244 18.648710370063782 123.57214806973934 523.30190572142601 124.59660874679685 10.408020943403242 62.0690947342664 83.561139736324549 32.745261415839195 2.721670225262641 34.429682780057192 95.929689101874828 96.20963217690587 25.966657970100641 241.75210876762867 14.919797144830225 110.36096970364451 503.82244777306914 111.46330268681049 21.154236638918519 214.77011566236615 17.679175719618797
leaf_count=1078 1228 1235 638 5577 1200 6101 3383 4311 537 96 866 13960 1764 56 1027 920 393 48 727 822 1369 297 5841 145 1235 4053 662 164 2532 163
internal_value=-0.000496167 -0.0148102 0.0132398 -0.0238644 0.0149625 -0.000141329 -0.000466753 0.020695 0.0126197 0.0305103 0.0292761 -0.029433 0.0134517 0.00405373 -0.0258504 0.000199383 -0.0175113 -0.0151568 0.0223851 -2.49278e-05 0.00489587 0.0181426 -0.0197474 -0.012847 0.00482817 0.0364154 0.0182585 0.00689052 0.0176395 0.0196426
internal_weight=3989.3 1953.55 2035.75 1207.95 1984.49 745.596 537.577 1446.91 793.82 653.093 342.566 1012.01 295.926 218.566 864.274 208.158 241.651 340.973 37.1514 451.254 195.947 122.176 303.821 434.859 125.281 522.471 235.035 130.622 310.738 113.609
internal_count=62428 41172 21256 29924 20028 11248 7154 12874 7361 5513 2065 27180 3378 2740 21603 2684 3776 7643 775 5296 2744 1666 6868 7481 1380 4149 1528 1364 3767 985
is_linear=0
shrinkage=0.05


Tree=24
num_leaves=31
num_cat=0
split_feature=61 70 19 1 63 19 0 61 18 18 18 68 10 70 98 61 58 37 68 70 19 70 12 108 70 5 70 68 122 35
split_gain=287.009 135.157 78.0121 60.8615 48.9505 56.4831 48.8798 46.2578 38.8633 36.151 29.3852 29.2519 33.6361 27.9741 27.5561 27.1648 33.6477 28.0663 29.4563 27.0856 30.4988 25.0486 27.0666 24.8659 23.3833 22.9633 22.4025 22.3977 32.2905 22.0933
threshold=0.0028030254876632165 0.0026631099996134847 -0.0024863667810985381 0.00035661900623444473 0.99781849812769929 0.002489830638817918 -0.0011260752954545001 0.0077973829191515113 0.0015178666629264165 0.0015847804193550631 0.0015013021316121523 -0.74819339450159361 1.0000000180025095e-35 -0.0017103448981497038 0.9999994197915999 -0.00026069115702406824 -0.00065802804271973602 0.26571626419721989 1.2082863354602968 -0.0071234591916755005 -0.0074842127558118624 0.019858154369157312 0.56214975701090197 0.0032943871958043521 0.0051979993232412576 0.0024554685202668332 0.022387242767084897 0.0098995314751314963 1.1199196512864609 0.4677248054331854
decision_type=2 2 2 2 2 2 2 2 2 2 2 2 2 2 2 2 2 2 2 2 2 2 2 2 2 2 2 2 2 2
left_child=1 2 19 10 5 8 -6 -7 -2 -4 -3 -10 14 -11 -13 16 -12 23 -19 20 -1 27 -23 -17 -25 -9 -27 -18 -29 -8
right_child=4 3 9 -5 6 7 29 25 11 13 15 12 -14 -15 -16 17 21 18 -20 -21 -22 22 -24 24 -26 26 -28 28 -30 -31
leaf_value=0.0097671232552464238 -0.055627266721386785 -0.052296396205074869 -0.049824485659047534 -0.011904948998499918 0.036000590236403583 -0.0037780399072856359 -0.011229783861703169 0.045379168574290141 0.0065324450680021243 -0.032780482108226934 0.03282474263553465 0.062937509140693224 0.026912867287513537 -0.014878539290701601 0.017624088849156283 0.037357634671178495 -0.022797188505124934 0.0034780106531217153 0.066427952229465098 0.011840841943362953 -0.028234979332047133 0.1288716823287796 0.010432048313123443 0.19928755080209526 0.062070892565484564 0.0025731240639836422 0.035678466071222228 0.00063725460577816544 0.10915827623906878 0.025912860350425483
leaf_weight=84.335647232830524 11.85241214558482 16.58009978570044 162.86142818629742 402.75650919787586 85.424739316105843 271.75250818952918 298.50756151229143 92.45116414129734 72.571636654436588 453.5193036608398 82.496163597330451 180.60406247898936 219.54315809905529 420.60216117091477 41.20563231408596 96.867992054671049 128.53691299073398 124.08626167662442 21.85681483708322 183.65948280505836 141.17923527956009 6.7796012386679676 16.719962604343891 4.7265682388097039 9.0486531220376474 130.2056351006031 84.115198031067848 72.955170040950179 7.5655088126659384 46.23796183988452
leaf_count=1049 187 467 6367 6808 621 2914 3714 534 617 12552 842 1193 1316 9534 315 1078 1905 1337 183 2808 2930 46 146 71 82 884 444 955 92 437
internal_value=-0.000489062 -0.0111544 -0.0209015 0.00306975 0.0164502 0.0220239 0.00214176 0.0112438 0.0338856 -0.0281962 0.013323 0.03595 0.0407871 -0.0241666 0.0545196 0.0152262 0.00538984 0.027304 0.0129056 -0.00241411 -0.0140234 -0.00434228 0.0446018 0.0462962 0.109153 0.0245508 0.0155661 -0.00984394 0.0108336 -0.00624814
internal_weight=3971.61 2437.13 1446.16 990.976 1534.47 1104.3 430.17 578.525 525.777 1036.98 588.22 513.924 441.353 874.121 221.81 571.64 315.053 256.586 145.943 409.174 225.515 232.557 23.4996 110.643 13.7752 306.772 214.321 209.058 80.5207 344.746
internal_count=62428 49252 35240 14012 13176 8404 4772 4776 3628 28453 7204 3441 2824 22086 1508 6737 3986 2751 1520 6787 3979 3144 192 1231 153 1862 1328 2952 1047 4151
is_linear=0
shrinkage=0.05


Tree=25
num_leaves=31
num_cat=0
split_feature=61 70 18 19 68 0 1 63 58 63 21 37 63 20 18 19 79 88 72 70 104 83 89 13 70 11 70 37 2 79
split_gain=262.826 90.7576 82.3711 70.7402 60.7625 77.0288 57.3183 42.7741 37.9288 45.3597 38.3658 36.207 31.5805 30.0755 26.8848 26.4719 26.3217 25.3592 24.3431 22.5737 26.3709 23.9584 21.9143 20.3907 20.2078 26.5808 19.9972 19.5753 31.6824 19.5454
threshold=0.0013793635074599994 0.0022121463201206656 0.0015178666629264165 -0.0033321134857502151 0.1853661078467935 0.00049357208694209313 -0.001122371411188065 0.99879696025364184 0.00099602956241057997 0.9912475096891592 0.0027254321834540673 0.63363843719066582 0.99810629815110041 -0.00064242740901027128 0.0015847804193550631 0.0012852013847692949 0.045967432863609131 -0.0032632029783181754 1.0021344034983113 -0.0014140169680228506 1.0274457290486365 -0.023716951629062514 -0.0014717129658762432 0.049326176113550869 0.010035400213335093 -1.0907983166661526 0.018835652173157563 0.055786993220458402 -0.0026133505633559964 0.0023937382188133623
decision_type=2 2 2 2 2 2 2 2 2 2 2 2 2 2 2 2 2 2 2 2 2 2 2 2 2 2 2 2 2 2
left_child=1 3 -2 29 5 11 -3 13 18 10 -10 12 15 -7 -5 -4 -12 -14 -6 -16 -21 -22 -20 -15 -8 -26 -9 28 -19 -1
right_child=2 6 4 14 8 7 24 26 9 -11 16 -13 17 23 19 -17 -18 27 22 20 21 -23 -24 -25 25 -27 -28 -29 -30 -31
leaf_value=-0.0081822327180083084 -0.053205829633434135 0.015860742287635822 0.049953175769095838 -0.050155404207681067 0.04001250933228287 0.059807089599408739 -0.019177280669953473 -0.030711270352966349 0.054552997105137647 -0.0095186158271859962 0.0016329370885532623 -0.010767500538766461 0.060373006022339283 0.022735200028038506 -0.032807994522346409 0.016571340184718546 0.0424553013164643 0.15560565139823565 0.037039497739555137 -0.020453882910229346 0.16064899273940669 0.013252830538889829 0.00014205541233959919 -0.0064803060360170157 0.065599841504785553 -0.0040078319755761649 0.065349847145616577 -0.0085751595051808717 0.01121694128461426 0.022600978394904957
leaf_weight=208.38721721991897 47.399696426466107 317.24726687930524 155.25619120337069 134.03114240802824 333.62837801687419 21.318820763379335 302.59713898599148 167.20809844136238 75.60618157312274 156.14609367400408 145.28918699920177 78.602364704012871 20.198635274544358 73.07426811940968 454.98740433715284 96.179553616791964 54.224628422409296 4.873737238347533 72.101193828508258 258.86851250566542 3.0257249623537055 31.034062575548887 91.070557421073318 326.88991682231426 15.675601735711096 109.65313269197941 5.5991152599453917 108.40465816110373 17.231712367385626 68.520532805472612
leaf_count=3364 1228 3767 1225 5564 2498 143 6101 2681 395 1688 1080 763 175 796 13146 1014 364 46 555 6104 47 668 1156 3669 145 1235 49 1457 274 1031
internal_value=-0.000481522 -0.0138579 0.0119406 -0.0226116 0.0134823 0.00538994 -0.000244732 -0.00665092 0.0228545 0.0120056 0.0242218 0.0202696 0.026336 0.00194175 -0.0295336 0.0371839 0.0127278 0.00823796 0.0322722 -0.0258381 -0.0150122 0.0263469 0.016446 -0.00114257 -0.0121847 0.00469841 -0.0275988 0.000169189 0.0430513 -0.000564959
internal_weight=3954.33 1904.03 2050.3 1158.85 2002.9 1074.84 745.173 594.09 928.066 431.266 275.12 480.747 402.144 421.283 881.947 251.436 199.514 150.709 496.8 747.916 292.928 34.0598 163.172 399.964 427.926 125.329 172.807 130.51 22.1054 276.908
internal_count=62428 41172 21256 29924 20028 12292 11248 7338 7736 3527 1839 4954 4191 4608 25529 2239 1444 1952 4209 19965 6819 715 1711 4465 7481 1380 2730 1777 320 4395
is_linear=0
shrinkage=0.05


Tree=26
num_leaves=31
num_cat=0
split_feature=70 18 19 61 61 1 19 70 70 19 70 58 61 61 63 77 61 77 4 4 5 0 61 59 103 70 4 58 6 77
split_gain=244.098 101.181 76.9495 70.9882 64.803 63.3728 41.0284 37.8162 36.5908 35.042 33.0723 45.0949 32.9094 31.2921 29.2141 30.2894 29.1141 28.677 28.2011 28.1931 26.4282 24.7511 32.0004 23.7358 21.8968 21.7983 21.0334 20.9115 20.6973 20.6324
threshold=0.0015113886992323775 0.0015013021316121523 -0.0050839697548332946 0.00069618298731646095 0.0043541845781583412 0.0026690513376598766 -0.00074543285598196226 -0.016411672790086911 -0.0077048431860023258 0.002489830638817918 0.010035400213335093 0.00039185078673334227 0.0040238737779463201 -3.3641162993285568e-05 1.0000340878619023 0.68782957221305463 -0.0051847000503073577 1.1027458645266146 413.91178571428446 380.8217857142858 0.0022868976968373127 -0.0021153462823053646 -0.0022093426253683886 85.651428571428241 -0.0090538381063996094 -0.0014140169680228506 157.1217857142864 -0.00035829777458003964 1.0000000180025095e-35 0.086189388774700212
decision_type=2 2 2 2 2 2 2 2 2 2 2 2 2 2 2 2 2 2 2 2 2 2 2 2 2 2 2 2 2 2
left_child=2 -2 7 23 5 10 8 -1 -5 14 11 18 -8 28 -6 -16 -9 -11 21 -12 -14 22 -3 -4 -21 -25 -15 -10 -13 -23
right_child=1 4 3 6 9 -7 12 16 27 17 19 13 20 26 15 -17 -18 -19 -20 24 -22 29 -24 25 -26 -27 -28 -29 -30 -31
