tree
version=v4
num_class=1
num_tree_per_iteration=1
label_index=0
max_feature_idx=125
objective=binary sigmoid:1
feature_names=log_return_1 log_return_3 log_return_6 range_1 atr_proxy volatility_lookback hour_of_day day_of_week session_asia session_london session_newyork volume_zscore relative_volume volume_percentile body_ratio upper_wick_ratio lower_wick_ratio atr_normalized_range stop_distance dist_ema_fast dist_ema_slow trend_strength trend_direction ema_slow_slope sweep_high_detected sweep_low_detected sweep_depth_atr sweep_rejection_ratio sweep_volume_zscore bullish_fvg_present bearish_fvg_present fvg_size_atr fvg_age_candles price_inside_fvg breakout_volume_confirmation rejection_volume_confirmation volume_block_strength atr_percentile range_compression high_volatility_flag market_regime funding_rate funding_rate_abs funding_rate_mean_4 funding_rate_std_4 mark_basis mark_premium mark_premium_mean_4 futures_pressure m1_bull_ratio m1_vol_tail_pct m1_max_body_ratio m1_trend m1_atr_ratio m1_volume_zscore m5_bull_ratio m5_vol_tail_pct m5_max_body_ratio m5_trend m5_atr_ratio m5_volume_zscore btc_1h_log_return_1 btc_1h_log_return_3 btc_1h_ema_fast btc_1h_ema_slow btc_1h_trend_strength btc_1h_trend_dir btc_1h_atr_pct btc_1h_volume_zscore btc_1h_regime btc_4h_log_return_1 btc_4h_log_return_3 btc_4h_ema_fast btc_4h_ema_slow btc_4h_trend_strength btc_4h_trend_dir btc_4h_atr_pct btc_4h_volume_zscore btc_4h_regime btc_1d_log_return_1 btc_1d_log_return_3 btc_1d_ema_fast btc_1d_ema_slow btc_1d_trend_strength btc_1d_trend_dir btc_1d_atr_pct btc_1d_volume_zscore btc_1d_regime eth_return_1 eth_return_3 eth_trend eth_volume_block sol_return_1 sol_return_3 sol_trend sol_volume_block gold_return_1d gold_return_5d gold_ema_fast gold_ema_slow gold_trend gold_trend_dir oil_return_1d oil_return_5d oil_ema_fast oil_ema_slow oil_trend oil_trend_dir dxy_return_1d dxy_return_5d dxy_ema_fast dxy_ema_slow dxy_trend dxy_trend_dir spx_return_1d spx_return_5d spx_ema_fast spx_ema_slow spx_trend spx_trend_dir vix_return_1d vix_return_5d vix_ema_fast vix_ema_slow vix_trend vix_trend_dir
feature_infos=[-0.09041019507896858:0.10768446076881111] [-0.17335116589108704:0.13438175691511467] [-0.16279109876008571:0.2178206803430961] [0.00081499592502040576:0.22936071126164267] [0:10.792857142857144] [0:0.035541384023889427] [0:23] [0:6] [0:1] [0:1] [0:1] [-2.4473305663500002:4.2426460585913208] [0.071255503963312955:19293.708999999999] [0:1] [0:1] [0:1] [0:1] [0:8.2527430949678351] [0:0.053190303988006594] [-0.12222439158656559:0.092725717336637536] [-0.16574125906593534:0.13233865165711137] [-0.049784264422340456:0.051430409392998533] [-1:1] [-0.014217671183632688:0.015252339165488999] [0:1] [0:1] [0:3.0314161430642823] [0:0.98437500000001388] [-1.8482439289403616:8.3672639974187106] [0:1] [0:1] [0:4.6955177743431165] [0:999] [-1:1] [0:4.2426460585913208] [0:4.1679580496019604] [0:4.5483266953207009] [0:1] [0:0.52368220015278633] [0:1] [-1:1] none none none none none none none none [0.066666666666666666:1] [0.0070880728312247296:0.8687093052167022] [0.50000000000004441:1] [-0.030721462762508964:0.014026980739461826] [0.032857142857145458:4.4728571428571415] [-2.35209017929908:4.2461711406386815] [0:1] [0.025363689419660922:0.97016383295208641] [0.031249999999970857:1] [-0.054991180531195574:0.04656095175106726] [0.11142857142857565:11.329285714285717] [-2.322918081966141:4.2397157247518793] [-0.095569537666229068:0.11270169977947467] [-0.13385917307799683:0.19714413098056266] [0.87627101013350306:1.1283426692738123] [0.85163765271353431:1.1822852450250381] [-0.062482396644598995:0.055862926468242736] [-1:1] [0:0.066189624329159188] [-2.4292022570932024:4.2426858929505542] [-1:1] [-0.15544462005523771:0.11839629746172868] [-0.17674183687429698:0.21955599084370828] [0.87552629102258539:1.1387342420752036] [0.82459263664145233:1.2361463279767879] [-0.097412085901584386:0.074411362922553959] [-1:1] [0:0.089912178936866274] [-2.0407853433984546:4.1317643905614352] [-1:1] [-0.22956902832394238:0.21878989406911528] [-0.25438812438101255:0.26124054635214561] [0.81684610974570737:1.1989236099479941] [0.74540521905694479:1.3037517794582629] [-0.1344646398568238:0.11029555779867606] [-1:1] [0:0.16086588871977001] [-2.015347018085178:4.1812009983606746] [-1:1] [-0.04832452516267341:0.031568184591943091] [-0.076640046063691042:0.063346432335985012] [-0.027387549847263003:0.024405539106781556] [0:4.3608682025128944] [-0.099446723516727592:0.092430499214559078] [-0.13813637119276417:0.10939641052517758] [-0.059277062181200442:0.03604832788331977] [0:4.6393174925371055] [-0.03729596062718759:0.032973254571937123] [-0.060968475254185237:0.084680320243828572] [0:1.0318324864480544] [0:1.0387109496239975] [-0.013552050412290875:0.030825046746169066] [-1:1] [-0.089574597252929655:0.070089696022911305] [-0.17817279753831927:0.14127287057139246] [0:1.0969112310548137] [0:1.1255793479486649] [-0.040803565775165758:0.049074156231914079] [-1:1] [-0.019925071373086668:0.016018741767101052] [-0.035686415870970691:0.027696452929837568] [0:1.0242388360487171] [0:1.0351943449985415] [-0.015750939562693685:0.008761870926379851] [-1:1] [-0.061609061898230934:0.090894879833036457] [-0.12266859018076186:0.07978869774574511] [0:1.0842435716467713] [0:1.1082896208395034] [-0.038414436962718956:0.022760384685888101] [-1:1] [-0.44244875916441467:0.55410965103896503] [-0.62865397896855968:0.87703695910092472] [0:1.2922893212610334] [0:1.3733007100084338] [-0.17593381470394809:0.18846479647704209] [-1:1]
tree_sizes=3437 3516 3491 3524 3517 3549 3539 3526 3533 3538 3547 3535 3540 3533 3550 3528 3550 3550 3527 3548 3541 3543 3557 3552 3539 3547 3553 3534 3538 3527 3537 3558 3529 3553 3557 3552 3531 3548 3534 3565 3550 3520 3537 3558 3534 3556 3554 3558 3540 3539 3544 3533 3552 3518 3519 3534 3553 3538 3555 3548 3552 3535 3545 3526 3555 3523 3541 3554 3542 3549 3545 3521 3549 3545 3546 3529 3550 3527 3528 3534 3547 3546 3534 3551 3558 3541 3515 3505 3551 3515 3544 3545 3520 3571 3520 3522 3535 3525 3563 3542 3533 3520 3551 3516 3550 3524 3543 3533 3565 3544 3523 3537 3518 3553 3538 3503 3532 3544 3535 3508 3544 3532 3505 3514 3537 3517 3496 3501 3543 3489 3516 3499 3514 3533 3505 3502 3484 3516 3527 3486 3521 3507 3541 3505 3503 3503 3527 3496 3513 3541 3533 3470 3515 3494 3516 3520 3509 3530 3522 3493 3481 3525 3514 3501 3496 3502 3538 3493 3524 3489 3518 3500 3519 3509 3503 3539

Tree=0
num_leaves=31
num_cat=0
split_feature=61 70 1 70 61 19 61 61 19 63 19 61 5 0 20 61 1 1 19 62 17 63 58 61 0 70 70 61 72 0
split_gain=4832.57 1048.5 875.205 735.39 480.114 415.38 279.984 276.523 257.884 254.879 243.668 213.79 211.414 203.001 194.038 148.234 221.76 132.711 125.341 122.562 122.145 104.479 103.648 101.552 99.7966 96.1286 95.772 93.7207 88.235 87.9652
threshold=-0.0055542951677546798 -0.0093448976074539999 -0.0033304289298059027 -0.014192743762394993 -0.010174843579689489 -0.0026874654162281028 -0.018482028057516885 -0.0019851310256560231 -0.0060446666202350263 0.99914862170390706 -0.0012705626026805817 -0.00082175369605495395 0.0058490749706353621 -0.00039423713099736793 -0.01925875157213882 -0.015266093120910823 -0.012629229164147838 0.000694457047792665 0.0058773880620805142 0.0026781488501682357 1.3568865240510617 1.0131019413373457 -3.9686988327409861e-05 -0.016845924006043018 0.0030444642772301388 0.012071772374411529 -0.002239407322699402 -0.013726892258542513 0.99180522147975048 -0.0022169425037224908
decision_type=2 2 2 2 2 2 2 2 2 2 2 2 2 2 2 2 2 2 2 2 2 2 2 2 2 2 2 2 2 2
left_child=2 5 3 6 12 -2 14 13 -8 24 -11 -7 -4 -3 -1 16 -5 -15 26 29 -19 -16 -13 -14 -6 -20 -9 -10 -17 -12
right_child=1 7 4 15 9 11 8 18 27 10 19 22 23 17 21 28 -18 20 25 -21 -22 -23 -24 -25 -26 -27 -28 -29 -30 -31
leaf_value=-1.6549675436921183 -1.765951702415985 -1.7769324681972953 -1.5130951707387752 -1.7494798875412569 -1.7412308794446698 -1.6649154702761051 -1.7105650560280208 -1.7748096800471376 -1.529630406285716 -1.6792389985627834 -1.6518273700563966 -1.7475262047044151 -1.5439516410989731 -1.7509801824772273 -1.6475129019799342 -1.7751020017375023 -1.5939114490359791 -1.7078596609053009 -1.7423563425174222 -1.6945005410955221 -1.5643504733248981 -1.4987741347092665 -1.6980436655838167 -1.6845328907365096 -1.5922807048779286 -1.7810809629863043 -1.7953059507250757 -1.6422749624163036 -1.7326226682672883 -1.5457620563819494
leaf_weight=64.763258099555969 426.50511413812637 540.40780931711197 109.74474281072617 50.273424088954926 89.962969422340393 239.2712590098381 232.971331179142 721.59373372793198 21.923748850822449 134.06246423721313 24.317721426486969 222.76544809341431 20.285767614841461 259.43102806806564 15.371823906898497 185.46987533569336 42.083517909049988 121.71460568904877 241.91722869873047 22.049747407436371 16.883806586265564 50.903416872024536 201.59769058227539 35.027598738670349 12.851852774620054 474.76256132125854 2711.8669340014458 117.05265909433365 358.59189212322235 99.664858281612396
leaf_count=514 3385 4289 871 399 714 1899 1849 5727 174 1064 193 1768 161 2059 122 1472 334 966 1920 175 134 404 1600 278 102 3768 21523 929 2846 791
internal_value=-1.75147 -1.77195 -1.67648 -1.70145 -1.62455 -1.72745 -1.65627 -1.78149 -1.67841 -1.65528 -1.63057 -1.70271 -1.55327 -1.75697 -1.59342 -1.73716 -1.67859 -1.72988 -1.78703 -1.58588 -1.69038 -1.53327 -1.72402 -1.63298 -1.72261 -1.76801 -1.791 -1.62451 -1.7471 -1.56657
internal_weight=7866.09 6178.72 1687.37 1139.4 547.968 1090.14 502.986 5088.58 371.948 382.91 280.095 663.634 165.058 938.437 131.038 636.419 92.3569 398.029 4150.14 146.032 138.598 66.2752 424.363 55.3134 102.815 716.68 3433.46 138.976 544.062 123.983
internal_count=62430 49038 13392 9043 4349 8652 3992 40386 2952 3039 2223 5267 1310 7448 1040 5051 733 3159 32938 1159 1100 526 3368 439 816 5688 27250 1103 4318 984
is_linear=0
shrinkage=1


Tree=1
num_leaves=31
num_cat=0
split_feature=61 70 1 70 61 19 61 61 18 61 19 19 0 62 70 0 61 1 19 71 58 61 18 18 70 58 72 90 72 18
split_gain=4181.18 983.196 656.775 570.833 368.881 347.524 259.736 207.222 199.983 168.956 168.711 163.13 162.663 153.129 141.323 138.565 127.189 162.744 121.08 111.475 87.1173 83.8829 82.9295 81.7052 75.9968 75.0668 75.0027 105.349 73.5651 72.5405
threshold=-0.0055542951677546798 -0.0048776159077176971 -0.0036216614719885433 -0.014192743762394993 -0.010174843579689489 -0.0026874654162281028 -0.0016483624871555069 -0.015266093120910823 0.004877025909395794 -0.0019851310256560231 -0.0060446666202350263 -0.0084313113444948861 0.00013607148556976832 -0.0042685443262948332 -0.013643795195462114 0.00069930962398853235 -0.0095213547998208459 -0.0084117742604582924 0.0058773880620805142 -0.015842568400549772 -0.0038714364625238155 -0.015266093120910823 0.0056468263968597722 0.0087402460792106607 -0.0042274979617741822 -0.00055187028050444778 1.0206236221816558 -0.0014246198994326508 0.99323358177918319 0.0094395864742669432
decision_type=2 2 2 2 2 2 2 2 2 2 2 2 2 2 2 2 2 2 2 2 2 2 2 2 2 2 2 2 2 2
left_child=2 5 3 7 13 -2 19 11 24 15 -9 26 -10 20 25 -3 17 -5 -11 -7 -4 -19 -23 -13 -6 -8 -1 -28 -12 -14
right_child=1 9 4 16 8 6 14 10 12 18 28 23 29 -15 -16 -17 -18 21 -20 -21 -22 22 -24 -25 -26 -27 27 -29 -30 -31
leaf_value=0.037369319479527929 -0.020130932070385216 -0.024458861128407602 0.08427737996064516 0.0069876606657160072 0.17115457886083218 0.10011082344789411 0.0076726389270193734 0.027283739310725898 0.031349949049573306 -0.041384724879647866 -0.0012575058021354671 0.23870623093116108 0.12605042404477129 0.092347782273752038 -0.0033868114850383064 0.023445933882772819 -0.0084245579694916355 0.17344736930826474 -0.017969070480621008 0.041972100882205064 0.20599202642483033 0.12493604093006956 0.026462170954595455 0.11589593303254175 0.091687565403681018 0.060080921504376585 0.085719358690670364 0.19420759180366917 0.11513488937147452 0.033162612526520044
leaf_weight=41.686691895127296 570.23366357386112 525.47021874040365 16.61798307299614 177.54761096835136 69.258231982588768 129.28161614388227 110.60797549784184 187.09036391973495 184.21357994526625 2925.6246479377151 15.394264683127401 36.434702768921852 95.755109563469887 52.696948856115341 530.93036043643951 211.79200525581837 334.06687024235725 21.189720004796982 680.48881071805954 227.60269939899445 127.47002156823874 34.02149286866188 57.538852758705616 21.555618122220039 53.192713245749474 178.74026361107826 80.145822301506996 31.045258700847626 114.91990841925144 26.929728336632252
leaf_count=306 4578 4224 119 1386 505 984 871 1443 1396 23918 113 256 700 371 4220 1648 2644 151 5468 1753 878 268 456 152 394 1374 593 221 841 199
internal_value=-6.95951e-05 -0.0197652 0.0673709 0.0449783 0.108593 0.0119066 0.027426 0.0832315 0.0826113 -0.0325071 0.057707 0.121652 0.0610564 0.165281 0.0119342 -0.0106973 0.0126123 0.036821 -0.0369661 0.0630329 0.191954 0.0837996 0.0630526 0.193056 0.136634 0.040047 0.0945662 0.11601 0.101385 0.105661
internal_weight=7869.54 6090.77 1778.77 1152.64 626.134 1747.4 1177.16 528.273 429.349 4343.38 317.405 210.868 306.898 196.785 820.279 737.262 624.365 290.298 3606.11 356.884 144.088 112.75 91.5603 57.9903 122.451 289.348 152.878 111.191 130.314 122.685
internal_count=62430 49038 13392 8830 4562 13780 9202 3925 3194 35258 2397 1528 2295 1368 6465 5872 4905 2261 29386 2737 997 875 724 408 899 2245 1120 814 954 899
is_linear=0
shrinkage=0.05


Tree=2
num_leaves=31
num_cat=0
split_feature=61 61 1 1 61 61 18 5 1 72 1 71 61 1 65 34 55 62 19 1 72 72 72 18 72 52 59 12 72 19
split_gain=3663.66 634.496 524.59 505.98 304.697 253.785 238.68 204.091 191.215 170.069 163.48 152.721 129.934 117.556 114.493 102.414 100.847 99.562 96.7746 96.0746 86.5214 84.6643 80.1969 74.5811 73.0649 71.7379 70.3784 69.4642 64.8784 63.328
threshold=-0.0042135764818367607 -0.0095213547998208459 -0.0019255920045990556 -0.0072252978689941504 -0.0016483624871555069 -0.018482028057516885 0.0052965070495597892 0.0056421611685816683 -0.0013907836096681502 1.0170945972222178 -0.015036746824470234 -0.0012675766537250631 -0.012795339793157409 0.0010105186742807967 -0.0083347407577539449 0.0036234289602100037 0.50000000000000011 -0.0037826241443690341 -0.0018897206239200169 -0.0059761781096901506 1.0110087157742376 1.001137477469588 1.0162170979745546 0.0096194887298050574 0.98984376834911736 0.0005936814693353181 0.8378571428571473 1.2684656020797962 1.0081310395391672 -0.0036040887242688008
decision_type=2 2 2 2 2 2 2 2 2 2 2 2 2 2 2 2 2 2 2 2 2 2 2 2 2 2 2 2 2 2
left_child=1 3 11 5 8 10 16 12 20 13 -1 19 -5 -6 -11 21 -4 -9 -16 -3 -2 -10 -7 -24 -14 28 -12 -15 -8 -26
right_child=4 2 6 7 9 22 25 17 15 14 26 -13 24 27 18 -17 -18 -19 -20 -21 -22 -23 23 -25 29 -27 -28 -29 -30 -31
leaf_value=0.064636824307273008 -0.029841015165551474 0.0020283467248583902 0.084730978034122911 0.18595382052048837 -0.042595262605840262 0.005360066590912569 0.012397555037526629 0.10674993767073285 -0.0068672272123301119 -0.017042585622040449 0.2066212483880685 -0.016682986497301457 0.046714536246604904 -0.029867351315350017 -0.016114234863879581 0.07806034757714661 0.15959407861801528 0.0139920476676 0.057967485048042722 0.047111602381065473 0.013694404438879891 0.038103086968712729 0.075632230645291593 0.0003769187447641893 0.09161855621474696 0.10309571255133668 0.1033681318187453 -0.010738482319447499 0.065125440046546926 0.16165006481800287
leaf_weight=122.26485706865788 406.06188105046749 220.76845375448465 100.77593803405762 129.34990924596786 1476.6516427248716 190.8566664904356 141.76880061626434 76.750010877847672 213.07011400908232 478.71278291940689 37.96441288292408 370.01090298593044 28.845402359962463 1742.8515515476465 72.04475349932909 76.721830509603024 81.257124245166779 46.429144307971001 113.58746534585953 254.28846426308155 158.73772409558296 205.70684946328402 111.83994510769844 46.657212346792221 52.914953172206879 44.651356905698776 29.194372445344925 652.19174426794052 99.133108295500278 82.784374639391899
leaf_count=862 3269 1700 728 813 12280 1447 1061 515 1690 3896 246 2910 202 14440 583 577 567 330 873 1917 1258 1586 821 346 373 316 199 5362 721 542
internal_value=-0.000121378 0.0534786 0.0309136 0.0844666 -0.0218484 0.0524597 0.0734068 0.125813 0.00228268 -0.027489 0.0990628 0.00740159 0.148457 -0.0314995 -0.00411694 0.0249522 0.118149 0.0717873 0.029216 0.0261605 -0.0176053 0.0152226 0.027191 0.0534791 0.11898 0.0448849 0.161736 -0.0246584 0.0340955 0.134342
internal_weight=7864.84 2268.51 1312.65 955.851 5596.34 538.777 467.586 417.074 1060.3 4536.04 189.424 845.068 293.895 3871.69 664.345 495.499 182.033 123.179 185.632 475.057 564.8 418.777 349.354 158.497 164.545 285.553 67.1588 2395.04 240.902 135.699
internal_count=62430 16616 9920 6696 45814 3921 3393 2775 8380 37434 1307 6527 1930 32082 5352 3853 1295 845 1456 3617 4527 3276 2614 1167 1117 2098 445 19802 1782 915
is_linear=0
shrinkage=0.05


Tree=3
num_leaves=31
num_cat=0
split_feature=61 70 70 19 1 63 19 70 0 70 19 61 18 19 20 61 1 61 58 70 61 61 19 61 63 19 18 19 61 62
split_gain=3236.19 768.652 564.808 384.98 308.737 297.696 276.887 269.815 151.117 147.638 135.969 121.356 112.845 110.911 108.456 105.011 115.77 96.055 88.633 72.8261 72.027 70.5953 71.6547 70.1241 67.868 76.3209 67.6459 66.8803 65.6147 72.3117
threshold=-0.0042935303663718264 -0.0093448976074539999 -0.0071775690071176962 -0.0040032496298133954 -0.0015102776419012953 1.005641239534294 -0.0026874654162281028 -0.022323369810175669 -0.00039423713099736793 0.0011567818883851991 0.0020466990709998409 0.0025250773519334461 0.0095334519388462786 0.0055229346925725568 -0.0045437787317119038 -0.0099833801294833182 -0.0084117742604582924 -0.023254694518821877 7.9673021255636094e-05 -0.02646335614061239 -0.0015114349016909856 -0.019605334160482008 -0.0081518072042486567 -0.0093136600046530345 0.99773214628313323 -0.0021291039667354138 0.006136849758440947 -0.00074973688850647204 0.0017033100783793098 0.012368809762687992
decision_type=2 2 2 2 2 2 2 2 2 2 2 2 2 2 2 2 2 2 2 2 2 2 2 2 2 2 2 2 2 2
left_child=2 6 3 7 15 24 -2 12 -6 10 20 19 21 -11 23 16 -4 -14 -13 -8 -3 -1 -23 -7 -5 -26 -10 -21 29 -15
right_child=1 9 4 5 8 14 11 -9 26 13 -12 18 17 28 -16 -17 -18 -19 -20 27 -22 22 -24 -25 25 -27 -28 -29 -30 -31
leaf_value=0.15384357804275328 -0.016959909348696227 -0.007188093633991254 -0.0033783644500490432 0.025044563563220164 0.028693004950400093 0.15098996155946268 0.12029281483824079 0.020724157028061612 0.13175346461179965 -0.041370973704472638 0.008869991045823037 -0.018894083064310094 0.097776278563137392 0.077034623385131104 0.16195945548471949 -0.011379552316319395 0.071963087857871283 0.014665247898896961 0.039981245609539334 0.024799013016291775 -0.033959888682712755 0.051462904869636207 0.11995960323082458 0.069394896626972138 0.036734887715866853 0.10531257191287942 0.065908696869307434 0.068837404583302217 -0.024452022513707011 -0.01552168617150116
leaf_weight=53.074909135699272 347.45867831259966 366.81385274976492 109.95265379548073 78.566284760832787 174.35037810355425 41.638418048620224 39.649342440068722 412.36192112416029 72.496373750269413 2299.4532168209553 381.51313564926386 122.89940171688795 56.649193778634071 35.336896844208241 178.24758222699165 466.0233817845583 95.07849845290184 89.992545776069164 133.21479141712189 158.39579223841429 797.34813202172518 73.769052259624004 79.143213160336018 71.629630327224731 63.013606816530228 113.9155450835824 84.439051665365696 189.18584700673819 617.18409322202206 52.387784525752068
leaf_count=319 2857 2946 835 565 1224 248 286 2990 471 19667 3155 970 366 280 1082 3653 637 640 996 1189 6763 524 536 506 458 746 568 1406 5122 425
internal_value=-0.000160235 -0.0209015 0.049497 0.0710867 0.0212374 0.103116 0.0190066 0.0481838 0.0607317 -0.0295917 -0.017035 0.0384314 0.0802949 -0.0360519 0.137648 0.00173987 0.0315595 0.0467719 0.0117292 0.0560922 -0.0255244 0.10416 0.0869149 0.09939 0.0637162 0.0808885 0.0963257 0.0487687 -0.0187008 0.0217615
internal_weight=7855.18 5540.84 2314.34 1312 1002.34 547.011 990.804 764.991 331.286 4550.04 1545.68 643.345 352.629 3004.36 291.516 671.055 205.031 146.642 256.114 387.231 1164.16 205.987 152.912 113.268 255.495 176.929 156.935 347.582 704.909 87.7247
internal_count=62430 46062 16368 8980 7388 3605 7704 5375 2263 38358 12864 4847 2385 25494 1836 5125 1472 1006 1966 2881 9709 1379 1060 754 1769 1204 1039 2595 5827 705
is_linear=0
shrinkage=0.05


Tree=4
num_leaves=31
num_cat=0
split_feature=70 70 58 70 63 21 21 63 58 63 21 19 63 68 19 63 20 21 21 63 20 62 58 2 62 62 63 20 63 20
split_gain=2509.04 312.869 295.136 291.11 233.134 278.969 218.446 178.127 139.268 114.892 174.701 126.838 113.076 109.879 86.7794 85.3524 216.564 84.5539 84.3869 83.4632 74.9989 73.6996 153.094 83.639 71.2624 66.7964 66.0885 65.9933 106.793 63.7697
threshold=-0.0071775690071176962 -0.019322591466511257 -0.0013161510186927691 0.0013710658712453865 1.0053934046215502 -0.0028057193444893805 -0.0073341948698713664 1.0181466352862849 -0.0026202589830291181 1.0047288395177962 -0.0021085337222495732 0.0055229346925725568 1.0003027305635082 -0.21944999309722421 -0.00049822591211196976 1.0100271096413567 -0.01023580855877927 -0.003791437477041078 -0.003424635786344598 1.0226488833137555 -0.0037764865044060242 -0.0054445994142171073 -0.0013426606850715022 0.0032473499870789733 0.012634976849963694 0.0061864137857987498 1.0076477491469793 -0.0017088749292251636 1.0042919860848927 0.0010275044699176055
decision_type=2 2 2 2 2 2 2 2 2 2 2 2 2 2 2 2 2 2 2 2 2 2 2 2 2 2 2 2 2 2
left_child=1 6 15 13 14 -6 19 8 -8 11 -11 -5 -10 27 -4 -3 -17 -14 -18 -1 -7 22 -15 -23 -13 -16 -19 -2 -29 -12
right_child=3 2 4 9 5 20 7 -9 12 10 29 24 17 21 25 16 18 26 -20 -21 -22 23 -24 -25 -26 -27 -28 28 -30 -31
leaf_value=-0.017881970684587346 -0.02908148842552143 -0.012271521583069678 0.0051570685327714484 -0.038141922016032545 0.030627140494051838 0.07291243126393733 0.027797780372247984 0.12997462688495373 0.043325770380168639 -0.02348631660630977 0.029761377594274104 0.011314906552269783 0.046959332557341311 0.0025613259572378195 0.056609703942036654 -0.0091569202941963208 0.043745485236366871 0.087862488857873233 0.13671374230869845 0.042650559025563417 0.15144371727092532 -0.018097651429630324 0.084840716584915071 0.026697348646128601 -0.023751149738587028 0.012785594315356606 0.1430265993693918 -0.0094517717132866809 0.066871353561726271 0.12357693456591992
leaf_weight=85.731707885861397 422.58937580883503 422.62672450393438 250.90651946514845 2260.1663387864828 136.74720024317503 42.322735399007797 179.04297455400229 126.65984495729208 137.1807036921382 328.59292044490576 91.250029049813747 199.45364411920309 61.524300813674927 145.98208279162645 273.0769679248333 183.66169100254774 59.21230898052454 117.6644646152854 41.527346022427082 169.5938183516264 107.94389726966619 260.54396060854197 92.267007477581501 173.66165913641453 529.58244904875755 127.56795157492161 100.81195646524429 640.54642101377249 49.364433631300926 22.599748186767101
leaf_count=660 3472 3289 1888 19559 991 286 1287 747 965 2736 699 1613 445 1150 1991 1366 433 790 275 1169 631 2149 666 1391 4426 946 593 5312 356 149
internal_value=-0.000194235 0.0396883 0.0263764 -0.020254 0.0447547 0.0823008 0.0620823 0.0761246 0.0646848 -0.0287726 -0.00499252 -0.0322924 0.0805158 -0.00387673 0.0282154 0.00197953 0.0231569 0.0987363 0.0820693 0.0223253 0.129325 0.0120796 0.0344258 -0.000181775 -0.0141576 0.0426558 0.113317 -0.0135216 -0.00399071 0.0483842
internal_weight=7840.4 2623.8 1645.59 5216.6 938.565 287.014 978.21 722.884 596.224 3431.65 442.443 2989.2 417.181 1784.95 651.551 707.028 284.401 280.001 100.74 255.326 150.267 672.455 238.249 434.206 729.036 400.645 218.476 1112.5 689.911 113.85
internal_count=62430 18752 12096 43678 6733 1908 6656 4827 4080 29182 3584 25598 2793 14496 4825 5363 2074 1828 708 1829 917 5356 1816 3540 6039 2937 1383 9140 5668 848
is_linear=0
shrinkage=0.05


Tree=5
num_leaves=31
num_cat=0
split_feature=61 70 61 1 1 19 70 18 70 19 19 70 19 18 61 61 61 92 58 63 61 71 19 61 17 61 52 18 20 21
split_gain=2689.75 644.76 400.779 397.349 275.262 228.7 175.555 173.249 122.619 118.806 111.831 109.734 103.059 100.492 97.6158 96.8961 80.3612 77.5012 75.2049 66.8108 62.163 59.8196 58.7674 58.4821 68.4115 52.9981 52.478 49.7602 48.5588 48.0411
threshold=-0.0042135764818367607 -0.0093448976074539999 -0.012795339793157409 -0.0020473896740817788 -0.0095417273046422991 -0.0026874654162281028 -0.0037423457459494669 0.0058131009125756911 0.0011567818883851991 0.0020466990709998409 -0.0055192524259695423 -0.017149204389079225 0.0055229346925725568 0.0095334519388462786 -0.0071005399997162164 0.0025250773519334461 -0.0077188281348248532 -0.00024678741586830929 3.9138576710216526e-05 0.99364015244898207 -0.0015114349016909856 -0.027461139326950688 -0.0013174303745191603 0.0017033100783793098 1.2275500459786404 -0.019605334160482008 0.00076571484219927985 0.0065406132386433532 -0.0033489647965216523 -0.0085572682709721039
decision_type=2 2 2 2 2 2 2 2 2 2 2 2 2 2 2 2 2 2 2 2 2 2 2 2 2 2 2 2 2 2
left_child=2 5 4 6 11 -2 10 16 9 20 -4 29 -10 -6 27 21 -5 -18 -17 -9 22 -7 -3 24 -14 -15 -21 -12 -23 -1
right_child=1 8 3 7 13 15 -8 19 12 -11 14 -13 23 25 -16 18 17 -19 -20 26 -22 28 -24 -25 -26 -27 -28 -29 -30 -31
leaf_value=0.029248299112459793 -0.017435226427330284 -0.027333075408644193 0.0044153916836669055 0.13075351640554206 0.13049411100589747 0.080949835592573377 -0.012726611643643549 -0.0077365958207656522 -0.039808218335541809 0.0071694420962346286 0.083837616954194102 0.0084592827673549524 -0.0081821255126750501 0.11771993030349104 0.019819397857265025 -0.020032401171015828 0.042274232164520267 0.10193332113420049 0.033584982252590663 0.03981819063869823 -0.032947390595678944 -0.0013866517714973008 0.013499164629938484 -0.023156795234624473 0.088477040298137383 0.040020407497049465 0.10240725435097542 0.034522804715091261 0.047328902218640022 0.081435539146723995
leaf_weight=60.603498935699463 340.87042380869389 182.59937961399555 299.46133907884359 86.143330261111259 211.4783416390419 103.44496398419142 411.79468175023794 64.80951964110136 2163.9761390611529 384.37380496412516 148.75115153193474 123.55690953880548 61.506529733538628 34.633717969059944 214.40721503645182 119.88280775398016 103.25772298872471 115.13707922399044 143.90259423851967 236.2849155664444 774.34804875403643 64.997575834393501 170.30527883023024 599.72580105811357 26.062194980680943 59.909197174012661 39.021194063127041 77.962270878255367 240.15660802274942 161.92304493486881
leaf_count=385 2817 1504 2176 483 1147 700 3283 467 19591 3138 986 907 496 194 1556 943 688 707 1023 1548 6763 477 1355 5122 201 369 232 522 1684 966
internal_value=-0.000217627 -0.0200031 0.0432139 0.0310297 0.0767904 0.0159272 0.0134447 0.0624647 -0.0283477 -0.0168355 0.027997 0.0462433 -0.034451 0.111337 0.0440057 0.0328406 0.0898573 0.0737263 0.00921744 0.0379374 -0.0250208 0.0480913 -0.00762819 -0.0175835 0.0205856 0.0684839 0.0486894 0.0668792 0.0369525 0.0672227
internal_weight=7825.29 5376.15 2449.14 1797.03 652.105 1013.25 1152.38 644.654 4362.9 1511.63 740.582 346.083 2851.27 306.021 441.121 672.385 304.538 218.395 263.785 340.116 1127.25 408.599 352.905 687.295 87.5687 94.5429 275.306 226.713 305.154 222.527
internal_count=62430 45814 16616 12648 3968 7644 8523 4125 38170 12760 5240 2258 25410 1710 3064 4827 1878 1395 1966 2247 9622 2861 2859 5819 697 563 1780 1508 2161 1351
is_linear=0
shrinkage=0.05


Tree=6
num_leaves=31
num_cat=0
split_feature=61 70 61 1 1 58 0 61 18 5 61 19 1 70 1 70 70 70 70 70 17 19 70 61 19 61 0 19 65 70
split_gain=2421.54 489.17 463.647 331.007 281.996 211.175 195.036 165.244 142.105 130.717 113.273 111.145 102.382 98.8187 85.6824 79.801 75.0909 71.74 68.6588 63.9352 63.565 63.0065 59.7178 58.091 66.4515 57.5095 71.7346 56.2017 50.8441 49.1645
threshold=-0.0031775634846286211 -0.0048776159077176971 -0.008679182114848116 -0.0037792390585669835 -0.0072252978689941504 -0.00055187028050444778 -0.00028866971841318438 -0.018482028057516885 0.005839843713177491 0.0046928494018914245 -0.016845924006043018 0.0058773880620805142 -0.015036746824470234 -0.0064089775524824987 0.00041367423749654944 -0.013846010318579382 0.012071772374411529 -0.013846010318579382 -0.014985423157194358 -0.025903886808067596 0.82682123464247015 -0.0055192524259695423 -0.0033456243113660876 0.0024403991891262995 -0.0022386220974008816 -0.013726892258542513 -0.0041566076354944796 -0.0094511055001687983 -0.0059092271301287346 0.0029380665333446441
decision_type=2 2 2 2 2 2 2 2 2 2 2 2 2 2 2 2 2 2 2 2 2 2 2 2 2 2 2 2 2 2
left_child=2 5 4 15 7 23 13 12 14 25 -11 29 19 -5 22 21 -13 -7 27 -1 -10 -4 -8 24 -2 -6 -27 -9 -26 -3
right_child=1 11 3 6 9 17 8 18 20 10 -12 16 -14 -15 -16 -17 -18 -19 -20 -21 -22 -23 -24 -25 28 26 -28 -29 -30 -31
leaf_value=0.074244404992985222 -0.020794519238672947 -0.027166615262570339 -0.0090861102240119892 0.041674476869243138 0.13571134435196405 0.045907024426390185 0.089142595246613082 0.0099781077557352816 0.0039679544614020538 0.10777890274859799 0.032725531245784263 0.011165335428036424 0.11514054927769149 -0.0028347225959900334 0.12083529380148275 -0.018876084918684768 -0.024896224823722179 0.011625787629036231 -0.0030783284955905911 0.0062378032926005472 0.058715676341974533 0.047483816492849322 0.025713967456435879 -0.035604679774608683 0.065090860625509353 0.034901879001561172 0.10270983771461761 0.061174757084429723 0.0033046066382181952 -0.040897077546480073
leaf_weight=80.079474925994873 281.16657213866711 1013.9726360589266 99.75768419355154 215.5797641351819 96.04785467684269 230.24168874323368 86.101270712912083 100.50896692276001 109.79521974176168 71.495962798595428 169.34944247454405 213.66675728559494 82.097416386008263 295.82727733254433 103.53724736720324 488.57519795000553 445.02230106294155 452.62983088195324 206.28348834067583 60.800283834338188 102.52695404738188 97.162159845232964 65.215478040277958 242.71460056304932 43.428079158067703 47.524179190397263 217.55279139429331 114.86899802088737 142.72038898617029 1826.1008520051837
leaf_count=457 2350 9029 739 1423 460 1556 549 680 757 371 1054 1753 445 2291 618 3971 3857 3530 1552 405 671 648 485 2036 310 293 1247 724 1090 17079
internal_value=-0.000240004 -0.0217268 0.0358705 0.0185984 0.0589267 0.00333247 0.0372624 0.0359464 0.060617 0.0835358 0.0550054 -0.0317032 0.0707582 0.0159278 0.0857871 -0.00804552 -0.0131985 0.0231843 0.0175377 0.0448944 0.0304047 0.018826 0.0618057 -0.01576 -0.0054531 0.102564 0.0905529 0.0372832 0.0177192 -0.035995
internal_weight=7802.35 4891.66 2910.69 1664.08 1246.61 1392.9 978.583 644.639 467.176 601.97 240.845 3498.76 222.977 511.407 254.854 685.495 658.689 682.872 421.661 140.88 212.322 196.92 151.317 710.03 467.315 361.125 265.077 215.378 186.148 2840.07
internal_count=62430 42590 19840 12152 7688 10872 6794 4263 3080 3425 1425 31718 1307 3714 1652 5358 5610 5086 2956 862 1428 1387 1034 5786 3750 2000 1540 1404 1400 26108
is_linear=0
shrinkage=0.05


Tree=7
num_leaves=31
num_cat=0
split_feature=61 70 70 19 61 19 1 62 19 63 61 19 0 71 19 61 70 70 1 19 70 17 61 19 70 72 77 63 61 4
split_gain=2172.85 459.632 405.983 284.662 233.588 188.619 184.131 174.047 121.187 139.046 111.228 105.003 101.873 93.2794 76.5707 72.6861 69.6341 64.5769 61.9495 60.8419 60.2904 59.7735 59.0632 58.7874 58.0838 51.4759 50.698 47.7846 47.181 47.7444
threshold=-0.0031775634846286211 -0.0038864651993290927 -0.0037423457459494669 -0.0019869885772401024 -0.0091169245298727813 -0.00070789175689138192 -0.0015102776419012953 -0.0012702395355778222 -0.0070565397386801784 1.0098387532958895 -0.019605334160482008 0.006329825861454085 -0.00085632337772554852 -0.0033511295344172362 -0.0055192524259695423 -0.010174843579689489 0.019690343547592696 -0.022796632813300105 -0.0084117742604582924 -0.0040032496298133954 -0.0093448976074539999 1.0239509615332743 0.0036911581215446298 -0.014258275874586914 -0.013643795195462114 1.0162170979745546 0.44960586260507485 0.99881384096461334 -0.008679182114848116 1.0953571428571416
decision_type=2 2 2 2 2 2 2 2 2 2 2 2 2 2 2 2 2 2 2 2 2 2 2 2 2 2 2 2 2 2
left_child=2 5 3 4 8 17 15 27 10 -10 23 -3 28 14 -6 18 -13 19 -4 -2 22 -14 -7 -1 -16 -12 -9 -5 29 -8
right_child=1 11 6 7 13 20 12 26 9 -11 25 16 21 -15 24 -17 -18 -19 -20 -21 -22 -23 -24 -25 -26 -27 -28 -29 -30 -31
leaf_value=0.040362607096818756 -0.013012547769414743 -0.035503941180211801 -0.008154792461752219 0.043620572614032446 -0.0042115962364943065 0.048214810960521742 0.1099522887558801 0.021193088045046875 0.037843834702009582 0.10458918318355755 -0.014267837180984634 0.0054047315952647518 0.040473621595067621 -0.021116348378403253 0.062395366897346011 -0.017942818820550887 -0.029413062530413099 -0.023170035148210075 0.055124849175028461 0.058723084568055355 0.0040500343434083921 0.097060012475718563 0.010210299201699566 0.09979629563217951 0.015601683473458619 0.031967415592707431 0.075507351713087478 0.10159482212590572 -0.0089596345652277962 0.0090962584149220614
leaf_weight=92.51056182384491 71.225140005350113 2734.0350601300597 82.924275897443295 39.598351746797562 159.45303940027952 238.7404110878706 19.23907433450222 137.29918899387121 135.81896512210369 183.38434471935034 95.658931091427803 287.47814850509167 156.5793344154954 165.05226448923349 136.28174244612455 484.0627309307456 286.92936050891876 602.01062731444836 72.484110221266747 50.525476895272732 361.53832959383726 66.484220035374165 178.79390055686235 75.61292028427124 129.17415126413107 162.4047517478466 62.531084768474102 347.08943562954664 130.62882724404335 30.08207967877388
leaf_count=531 603 25808 630 257 1185 1584 106 873 835 966 669 2416 1038 1248 879 4001 2542 5005 442 374 2978 397 1280 397 939 1040 377 1852 996 182
internal_value=-0.000258509 -0.0210054 0.0334145 0.0470425 0.0342894 0.00192449 0.00829069 0.076078 0.0528939 0.0761895 0.0354461 -0.0314211 0.0347604 0.0107835 0.0231747 -0.00839132 -0.0119875 -0.0164535 0.0213595 0.0167571 0.0189977 0.0573392 0.0319408 0.0670927 0.039625 0.014829 0.0381892 0.095658 0.00677204 0.0484379
internal_weight=7775.63 4811.28 2964.35 1921.87 1335.35 1502.83 1042.48 586.518 745.39 319.203 426.187 3308.44 403.014 589.961 424.909 639.471 574.408 723.761 155.408 121.751 779.073 223.064 417.534 168.123 265.456 258.064 199.83 386.688 179.95 49.3212
internal_count=62430 42590 19840 12048 8689 11824 7792 3359 4438 1801 2637 30766 2719 4251 3003 5073 4958 5982 1072 977 5842 1435 2864 928 1818 1709 1250 2109 1284 288
is_linear=0
shrinkage=0.05


Tree=8
num_leaves=31
num_cat=0
split_feature=61 61 1 1 72 72 18 5 61 1 61 17 61 72 0 90 1 0 58 61 1 5 77 0 18 5 61 61 1 20
split_gain=1952.94 359.592 243.643 236.541 194.474 145.608 124.192 120.632 113.035 109.549 132.555 99.7188 90.6324 88.2776 79.64 77.4016 70.7501 68.5393 63.1267 55.4512 55.4192 55.1413 54.115 53.079 49.6483 49.0522 48.5657 47.8086 47.6127 47.0251
threshold=-0.0031775634846286211 -0.0077188281348248532 -0.0056440181212297552 -0.0021045384307394601 1.0170945972222178 1.020151212327401 0.004838063627215226 0.0046928494018914245 0.0036911581215446298 0.0010105186742807967 0.0017033100783793098 1.1953863830310312 -0.016845924006043018 0.99160296188290686 0.0011196849673981654 -0.0013913482978863277 -0.0032562573601160522 0.00055875681412341071 0.0025382509038950319 -0.00030811905335407841 -0.0046231932535955172 0.0043213818405029789 -0.46791965086300363 -0.0045033021763728988 0.0045508656712019381 0.0038904043000594288 -0.017622101052350164 -0.015266093120910823 0.005160119801219218 0.0020857001881441416
decision_type=2 2 2 2 2 2 2 2 2 2 2 2 2 2 2 2 2 2 2 2 2 2 2 2 2 2 2 2 2 2
left_child=1 2 5 13 9 25 14 23 16 19 11 -11 -9 -3 -5 -7 -6 -8 -12 -2 -15 -18 -22 -4 -24 -1 -27 -17 -13 -10
right_child=4 3 7 6 8 15 17 12 29 10 18 28 -14 20 -16 27 21 -19 -20 -21 22 -23 24 -25 -26 26 -28 -29 -30 -31
leaf_value=0.033084907485735254 -0.023334153158806832 -0.032082772513828274 0.043676530233214828 0.047147678654966198 -0.015249783141755567 0.036073173333950902 0.0020714796651133929 0.094217637428219994 -0.0307250189954426 -0.0069166455654790966 -0.031011335291224192 0.020987416926794764 0.025339786382150717 -0.0082488922450479462 0.11282015210736317 0.10984977955308384 0.049570605960473475 0.041716211227312255 -0.010407292820785324 -0.041880800582707545 0.00059924854286197622 0.008108317754487766 0.097866546298861962 0.094935911100809803 0.026962212184761677 0.031066098420752954 -0.012672625347126014 0.053042943084452648 0.089386474223437429 0.012357403492185741
leaf_weight=183.58166055381298 672.77767110615969 216.17001017928123 58.899425558745861 175.28724504262209 109.23354717344046 236.38605980575085 246.04249629378319 64.778654262423515 240.40236491709948 460.52330422401428 1183.5977041944861 69.007453329861164 181.79078539460897 329.20640194416046 62.668753921985626 75.981798239052296 181.57683416455984 195.76224106550217 541.97129520773888 1005.0980523228645 132.40984588116407 143.60882987827063 34.180522419512272 354.26190658658743 88.905623160302639 90.35773017257452 213.24358313530684 72.26267908513546 40.301704481244087 85.996127940714359
leaf_count=1231 6016 1809 328 1153 920 1439 1724 310 2074 4058 11027 602 1093 2559 353 376 1369 1195 4803 9598 1000 1131 237 1853 634 547 1543 456 310 682
internal_value=-0.000273144 0.0312004 0.0481865 0.0136303 -0.0202989 0.0308384 0.0353225 0.0711116 0.00285986 -0.0247335 -0.0176352 0.00327366 0.0434354 -0.00478148 0.0644434 0.0538356 0.0195652 0.0196379 -0.02454 -0.0344442 0.00531207 0.03126 0.0227854 0.0876285 0.0466521 0.0126821 0.00034488 0.0821589 0.0462058 -0.0193741
internal_weight=7746.27 3012.18 1531.54 1480.63 4734.09 871.814 679.761 659.731 760.818 3973.28 2295.4 569.832 246.569 800.872 237.956 384.631 434.419 441.805 1725.57 1677.88 584.702 325.186 255.496 413.161 123.086 487.183 303.601 148.244 109.309 326.398
internal_count=62430 19840 9176 10664 42590 5592 4425 3584 6176 36414 20800 4970 1403 6239 1506 2271 3420 2919 15830 15614 4430 2500 1871 2181 871 3321 2090 832 912 2756
is_linear=0
shrinkage=0.05


Tree=9
num_leaves=31
num_cat=0
split_feature=61 70 70 58 1 58 70 63 0 20 20 63 70 18 62 72 0 5 61 61 58 68 62 61 72 20 71 62 70 38
split_gain=1757.56 428.228 337.371 172.483 158.728 157.908 157.167 142.79 98.7563 90.0513 85.2813 79.815 77.6672 76.3856 73.0303 72.2411 71.7042 65.3162 84.5716 57.3168 56.0347 55.3182 57.3349 52.4241 74.7324 46.1655 45.0627 45.0114 43.9278 49.3544
threshold=-0.0030891979719859211 -0.0032017438517401762 -0.0060401386663146732 -0.00055187028050444778 -0.0013907836096681502 -0.0014925413661054016 -0.017149204389079225 1.0030715514062301 -0.00082308106736637325 -0.0031759123182811383 0.01176286675838348 0.9914216827826513 -0.0099058789597726588 0.0097140987813975847 -0.0023611873458142733 1.0337288685006014 -1.0000000180025095e-35 0.0028966976077045743 -0.0054407481497070025 -0.0068207095268470802 -0.0010188971811674016 -0.36857531688226103 -0.007837170038425054 0.0024403991891262995 1.0185375980965115 -0.0053742993899498137 0.029910424151553591 0.013412481078515157 -0.052700102019041038 0.30029614853460379
decision_type=2 2 2 2 2 2 2 2 2 2 2 2 2 2 2 2 2 2 2 2 2 2 2 2 2 2 2 2 2 2
left_child=2 3 5 23 14 6 13 16 -6 21 -3 26 -5 15 19 -1 -7 -10 -19 20 -4 -9 -23 24 -2 -26 -12 -13 -15 -30
right_child=1 10 4 12 8 7 -8 9 17 -11 11 27 -14 28 -16 -17 -18 18 -20 -21 -22 22 -24 -25 25 -27 -28 -29 29 -31
leaf_value=0.044329439517071606 -0.019220277886819171 -0.033985545794249956 0.011349991829113908 0.034317533121021614 0.0055564295193574415 0.014618939548423547 0.0048608969778026418 0.02245391469210899 0.090286448828009389 0.095530689998289758 0.0074488445915674804 0.15520639173465992 0.0033362051038004058 0.065759418401506189 -0.020807098821254616 0.090128167150304597 0.067204446425079653 0.066423377618094831 0.00075952282455559513 -0.011141050377059626 0.067430588269476052 0.092863047487355257 0.027050817215223934 -0.034169040197947052 0.0069405105214996989 0.070639844987667663 -0.026957576575360128 0.0079169724879310302 -0.0017997295540576885 0.092779804065632521
leaf_weight=312.68996135890484 338.41914524137974 2634.0294259116054 162.11544114351273 372.0008837133646 207.22849490493536 199.97986495494843 393.40810792148113 90.659098960459232 77.163765236735344 264.79882318526506 146.21756658703089 10.943363510072233 443.42083892226219 40.598150737583637 374.70171968638897 118.82178012281656 95.920614324510098 105.92949891835451 91.298456318676472 180.16458646953106 61.416840970516205 103.39485713094473 48.672323137521744 255.65112436562777 111.18654487282038 38.22167144715786 272.56039895117283 9.8610803037881833 141.66532439738512 15.281276643276213
leaf_count=1859 2884 25884 1175 2481 1436 1282 2709 549 453 1286 1295 84 3704 229 3043 652 553 583 615 1499 388 532 289 2280 899 260 2487 84 872 84
internal_value=-0.000283284 -0.0197568 0.02895 0.00158913 0.0090487 0.0426835 0.0296494 0.0592713 0.0316096 0.0753662 -0.0305832 -0.0101957 0.0174701 0.0451519 -0.00491046 0.0569407 0.0316653 0.0512857 0.036027 0.00984442 0.0267585 0.0533681 0.0717984 -0.0158286 -0.00621705 0.0232361 -0.0149445 0.0853928 0.0194009 0.00740911
internal_weight=7718.42 4632.51 3085.91 1558.9 1260.02 1825.89 1022.46 803.426 481.62 507.525 3073.61 439.582 815.422 629.056 778.399 431.512 295.9 274.392 197.228 403.697 223.532 242.726 152.067 743.478 487.827 149.408 418.778 20.8044 197.545 156.947
internal_count=62430 42342 20088 12508 9192 10896 6405 4491 3087 2656 29834 3950 6185 3696 6105 2511 1835 1651 1198 3062 1563 1370 821 6323 4043 1159 3782 168 1185 956
is_linear=0
shrinkage=0.05


Tree=10
num_leaves=31
num_cat=0
split_feature=61 61 70 1 1 19 61 18 62 1 71 0 18 19 70 58 72 70 70 0 70 23 0 72 63 70 17 61 61 38
split_gain=1600.24 374.585 332.239 251.755 198.954 149.685 134.202 119.132 118.786 107.502 98.6439 89.232 85.0503 83.7473 80.2082 72.5642 67.0222 61.9172 59.2874 54.911 53.5897 53.2554 51.5314 51.1927 47.6076 46.1351 44.0632 54.1632 42.7656 39.1041
threshold=-0.0019851310256560231 -0.0071005399997162164 -0.0076824148198899938 -0.0015102776419012953 -0.0056440181212297552 -0.0021291039667354138 -0.015266093120910823 0.0054721878737186416 0.0034658546776466029 0.0040495785698039695 -0.0012675766537250631 0.00028024555323291264 0.0097140987813975847 -0.0023946440092065691 -0.0064089775524824987 -0.0041412750415946772 0.99055241698853658 0.0039345205952662455 -0.028075579313713173 0.0035641803735414535 -0.016402786564274616 -0.00084377391303189491 -0.0048184149744254041 1.0170945972222178 0.99972621427042085 -0.02646335614061239 1.4831124648497558 0.001442799350507595 -0.021130879783140866 0.30173842131151568
decision_type=2 2 2 2 2 2 2 2 2 2 2 2 2 2 2 2 2 2 2 2 2 2 2 2 2 2 2 2 2 2
left_child=1 4 5 10 6 -2 12 11 13 -4 20 14 15 -6 -5 18 -8 -11 -1 23 21 -3 -18 -9 -15 -7 -19 -28 29 -14
right_child=2 3 9 7 8 25 16 19 -10 17 -12 -13 28 24 -16 -17 22 26 -20 -21 -22 -23 -24 -25 -26 -27 27 -29 -30 -31
leaf_value=0.078164905847283681 -0.024826409579790668 -0.00035575582917297342 -0.036251083530740663 0.064091771086781907 0.047687470058996262 0.057947949716290886 -0.026627668225347907 -0.012747489089651669 0.013215550452985692 0.00058405307299945659 -0.025576863934790736 0.072782010321441784 0.029149963914830768 0.036310421417084043 0.0029534495435341664 0.096042796915115886 -0.0040165325239025999 -0.030205076754540608 0.004593170426246536 0.046093868019238933 -0.0036022211907198198 0.058693667217120354 0.030670322420228158 0.032339157304546333 0.090037184531077688 0.014313634298836182 0.10991494603341823 -0.0094476453683412735 -0.014643072619565121 0.13136843966052622
leaf_weight=51.605190694332123 282.26525043696165 71.891837641596794 1980.4129572585225 87.211926810443401 296.11705660820007 68.080458983778954 102.57108690589666 224.4243093803525 118.29850509017706 343.17899559438229 450.93032091856003 192.48698095232248 91.779531687498093 47.17427097260952 139.37965976446867 114.13017638772726 168.33640397340059 703.18084400892258 58.339096322655678 81.051164098083973 413.5169743001461 81.435002900660038 294.21361090987921 87.506622768938541 327.3363188803196 549.71217461675406 10.022789433598517 183.62470548599958 56.479863233864307 10.418379455804823
leaf_count=256 2493 525 20009 524 1618 439 798 1635 735 3099 3873 1171 511 280 1075 581 1154 6844 341 494 3254 493 1922 564 1562 3996 76 1698 356 54
internal_value=-0.000292112 0.0242282 -0.0215166 0.00844174 0.0408603 0.00533951 0.0254214 0.0292045 0.0594096 -0.0290224 -0.00812442 0.0477495 0.048282 0.0675583 0.0264847 0.068116 0.00993817 -0.0174776 0.039126 0.00942792 0.00575919 0.0310066 0.0180467 -9.92399e-05 0.0832696 0.0191221 -0.0243891 -0.00326969 0.0202736 0.0395704
internal_weight=7687.11 3566.63 4120.48 1829.83 1736.8 900.058 947.873 812.061 788.926 3220.42 1017.77 419.079 382.752 670.628 226.592 224.074 565.121 1240.01 109.944 392.982 566.844 153.327 462.55 311.931 374.511 617.793 896.828 193.647 158.678 102.198
internal_count=62430 23776 38654 13608 10168 6928 5973 5463 4195 31726 8145 2770 2099 3460 1599 1178 3874 11717 597 2693 4272 1018 3076 2199 1842 4435 8618 1774 921 565
is_linear=0
shrinkage=0.05


Tree=11
num_leaves=31
num_cat=0
split_feature=61 70 70 1 19 19 61 61 1 63 0 19 68 61 5 17 61 63 70 58 72 94 77 19 38 70 17 61 5 37
split_gain=1448.29 343.495 310.556 197.122 137.704 135.309 124.88 107.351 103.649 97.5452 89.1716 77.6797 83.9748 71.8091 69.3621 65.2055 62.7589 59.4904 57.7612 56.0724 52.8485 45.1037 44.3995 42.327 42.1099 41.8126 41.5757 48.5536 40.6655 39.7299
threshold=-0.0019851310256560231 -0.0092208464452602865 -0.0076824148198899938 -0.0001368988069744811 -0.0029267225787019944 -0.0021291039667354138 -0.0091169245298727813 -0.006683129326377212 0.0040495785698039695 1.0031678121950554 -0.0014449524979133906 -0.0081518072042486567 0.41924748984879751 -0.023254694518821877 0.003747706049277791 1.019505851755534 -0.011384999788259239 1.0014457681424924 0.0039345205952662455 -0.0073246965005743766 0.99492823909516692 -0.0037302582590324957 0.38231536330717153 -0.0060446666202350263 0.21860500993807377 -0.030757111470736422 1.4831124648497558 0.0032154252184796194 0.0058490749706353621 0.32842604381673407
decision_type=2 2 2 2 2 2 2 2 2 2 2 2 2 2 2 2 2 2 2 2 2 2 2 2 2 2 2 2 2 2
left_child=1 4 5 7 6 -2 11 14 -4 22 -5 13 -13 19 16 17 -3 -12 -10 -1 -8 -11 -6 -22 -7 -26 -20 -28 -19 -9
right_child=2 3 8 10 9 24 20 29 18 21 15 12 -14 -15 -16 -17 -18 28 26 -21 23 -23 -24 -25 25 -27 27 -29 -30 -31
leaf_value=0.022822649218816798 -0.02403365083090192 0.084042895162905293 -0.035451326334150504 0.0023543900799614867 0.018235824558597527 0.0040378485073401136 -0.04135893933799132 -0.0057540480530810173 0.00055460336404085072 0.026680983231858274 0.0081811111818697307 0.031819642526127588 0.084725905370476751 0.010258811472525895 -9.4008427541717455e-05 0.076298329225439165 0.020848392406872022 0.066676037998630172 -0.029386420418722959 0.091770798539501791 -0.0075728957318714173 0.078575021800973685 0.063529970654124093 0.026807922714380469 0.088622416364611295 0.024708073649236103 0.069379247754720319 -0.011796803549362814 -0.011952658708605891 -0.029382288300633802
leaf_weight=58.106467813253403 277.12993511557579 51.445983916521072 1925.2498990595341 167.48161735385656 171.19427969306707 291.19974149763584 50.34219016879797 441.31753832101822 343.32786604017019 47.546413972973824 131.2788564786315 139.82626734673977 161.78143939375877 242.69962505251169 353.46212539076805 121.86463978886604 166.24068623781204 115.49490817636251 687.04739415645599 59.871549397706985 148.12026693671942 350.80753878504038 79.105219900608063 226.28007259219885 27.921750836074352 306.26426533609629 20.623219035565853 172.47964705526829 19.173793844878674 298.06687746196985
leaf_count=307 2493 292 20009 1175 1013 2089 395 3708 3099 240 913 764 804 1451 2478 684 1135 689 6844 283 1094 1718 443 1524 171 2175 167 1607 118 2548
internal_value=-0.000299526 0.0227701 -0.0208082 0.00787694 0.03878 0.0050493 0.0279009 -0.00270192 -0.0282196 0.0570115 0.0328438 0.0414726 0.0601984 0.0258137 0.0135802 0.046011 0.0357832 0.0321325 -0.01684 0.0578125 0.00673891 0.0723811 0.0325507 0.0132062 0.017937 0.0300482 -0.0236252 -0.00312727 0.0554811 -0.0152793
internal_weight=7652.75 3601.51 4051.24 1865.83 1735.68 902.516 1087.03 1310.53 3148.73 648.653 555.294 662.285 301.608 360.678 571.149 387.812 217.687 265.948 1223.48 117.978 424.743 398.354 250.299 374.4 625.386 334.186 880.15 193.103 134.669 739.384
internal_count=62430 23776 38654 13740 10036 6928 6622 10161 31726 3414 3579 3609 1568 2041 3905 2404 1427 1720 11717 590 3013 1958 1456 2618 4435 2346 8618 1774 807 6256
is_linear=0
shrinkage=0.05


Tree=12
num_leaves=31
num_cat=0
split_feature=61 70 70 19 61 19 63 1 19 72 19 63 61 1 19 70 0 20 62 61 1 63 77 20 5 72 17 70 90 18
split_gain=1311.54 311.363 294.899 183.741 217.193 161.431 147.204 112.385 107.978 103.705 96.3399 79.1671 78.0295 62.0369 61.8853 60.7771 57.8311 57.3511 60.8064 54.6563 65.4035 53.1066 52.7686 51.9793 49.788 48.3529 47.1629 47.1053 41.9256 39.1583
threshold=-0.0019851310256560231 -0.00032269352170372214 -0.0023665411506834659 -0.0012705626026805817 -0.0093136600046530345 0.0011354701542170692 0.99914862170390706 -0.0001368988069744811 -0.0066784744901257397 0.99770229966243551 0.0055229346925725568 1.0098387532958895 -0.023254694518821877 -0.0054227267940513699 -0.015629216016727596 -0.016402786564274616 -0.00074995573306980328 0.0030130662220644315 -0.0012702395355778222 0.0038677884373112415 0.00090177019004239315 1.0057598619976538 0.69485092505362478 -0.0042470457873869634 0.0042246804705202085 1.0162170979745546 1.019505851755534 0.015923618398595386 -0.001324112832850208 0.0096194887298050574
decision_type=2 2 2 2 2 2 2 2 2 2 2 2 2 2 2 2 2 2 2 2 2 2 2 2 2 2 2 2 2 2
left_child=1 3 5 4 8 19 22 21 12 -6 -4 -10 14 -11 -1 28 -9 18 -8 20 -2 -3 -5 -23 -7 -14 -18 -12 -15 -27
right_child=2 7 10 6 9 24 17 16 11 13 27 -13 25 15 -16 -17 26 -19 -20 -21 -22 23 -24 -25 -26 29 -28 -29 -30 -31
leaf_value=0.026258851959204382 -0.017803876042591704 -0.023398505315473495 -0.035695736630861612 0.005122098958260133 -0.024085933754907689 0.035076170228153868 0.067763951259280586 -0.0047976981112314195 0.033774470235414959 -0.0034161684289375702 0.0020272466379586385 0.079677793538822927 -0.01129313328490935 0.024878723139029432 0.093782554492705561 0.013038991938281508 0.020139756984488038 0.097238226293975244 0.024279386665699513 -0.035727573468018518 0.015853804820676155 -0.006802415763297708 0.062985225977115797 0.055024686550715032 0.003728114438310236 0.039793133881529698 0.070843995286050301 -0.025449984766280673 0.076424282027499929 -0.0051925463332635367
leaf_weight=74.936908006668091 463.83180969208479 472.15747272968292 1943.1140650063753 182.39570316672325 224.5867575109005 276.74675388634205 322.09723765403032 129.47956156730652 165.15633930265903 294.56425996124744 281.16983958333731 217.79153549671173 134.19520075619221 77.453814037144184 62.012545704841614 311.02820647507906 129.74059516191483 110.94856298714876 107.13265074789524 226.41916717588902 209.53994914889336 139.96244191378355 50.258259877562523 44.9004190787673 233.55391984432936 162.79289580881596 70.937573485076427 350.31412979960442 80.397466152906418 68.826405495405197
leaf_count=390 4084 4029 21102 1208 1772 2128 1647 950 916 2167 2504 1006 879 485 288 2172 859 525 650 2075 1669 1082 296 297 1716 894 387 3376 451 426
internal_value=-0.000304391 0.02142 -0.0201155 0.0303588 0.0218979 -0.00173568 0.0508725 -0.00254462 0.0398773 0.00578029 -0.0301819 0.0598808 0.024641 0.0145662 0.0568345 0.0258633 0.0212542 0.0651935 0.0569105 -0.014476 -0.00733027 -0.0145037 0.0176218 0.00821446 0.0207288 0.0125888 0.0380632 -0.0132157 0.0511321 0.0264255
internal_weight=7618.44 3633.75 3984.69 2646.57 1873.74 1410.09 772.832 987.178 885.712 988.031 2574.6 382.948 502.764 763.444 136.949 468.879 330.158 540.178 429.23 899.791 673.372 657.02 232.654 184.863 510.301 365.815 200.678 631.484 157.851 231.619
internal_count=62430 23776 38654 16172 11846 11672 4326 7604 4799 7047 26982 1922 2877 5275 678 3108 2196 2822 2297 7828 5753 5408 1504 1379 3844 2199 1246 5880 936 1320
is_linear=0
shrinkage=0.05


Tree=13
num_leaves=31
num_cat=0
split_feature=70 70 58 63 21 63 20 18 21 63 19 20 63 2 62 63 20 72 21 20 63 4 68 63 62 62 19 70 70 21
split_gain=1098.49 203.864 185.323 130.504 150.234 123.926 139.695 123.899 97.2247 161.436 117.378 116.683 82.8313 81.4055 76.2646 72.9273 108.213 64.4346 66.9623 64.2748 61.0714 59.181 57.1026 55.2345 52.8449 48.8915 47.037 44.8589 44.2298 57.1659
threshold=-0.0032017438517401762 -0.0174574702370849 -0.0011237915121518386 1.004824118543314 -0.0022004667411928227 0.99972621427042085 0.0008792341276371347 0.0095334519388462786 0.00032662133159720632 0.99741228244259339 0.0058773880620805142 0.0017428131245536499 0.99221647927399181 0.0045054407342575483 -0.012581108514468855 1.0069364898625015 -0.0095268098783320796 1.0337288685006014 -0.0039504766957861861 -0.0045437787317119038 1.0121124252702398 1.4714285714285682 -0.21150521036331127 1.0143668731082778 -0.0029260921223220712 0.012368809762687992 -0.0065047493925030732 0.019690343547592696 -0.025201981088718642 -0.0085572682709721039
decision_type=2 2 2 2 2 2 2 2 2 2 2 2 2 2 2 2 2 2 2 2 2 2 2 2 2 2 2 2 2 2
left_child=1 7 15 8 -5 13 14 17 -2 10 -10 -11 27 -4 -7 -3 -17 18 -1 -6 26 -16 -13 -18 -21 -14 -20 -12 29 -9
right_child=3 2 5 4 19 6 -8 28 9 11 12 22 25 -15 21 16 23 -19 20 24 -22 -23 -24 -25 -26 -27 -28 -29 -30 -31
leaf_value=0.013624539093733094 -0.036569774792572195 -0.022092292390802203 -0.010679098099120297 -0.015234812183706013 -0.0066108071297726161 0.06969990063534709 0.073769930197760611 -0.0012593869142086835 -0.032883889145306558 -0.016143914414213329 0.0034382728834380025 0.017623768156950183 0.076731004724933105 0.028349142751377471 0.021912033048277713 -0.018168974162706769 0.019652682002065686 0.067488585110890384 -0.008303662962811079 0.078707502479741939 0.082385082661946885 -0.036933538090620638 0.071790307174682419 0.090065125984152422 0.017425653531810713 -0.0048915175581386193 0.04445469525380602 -0.027191649339738572 -0.014745812870703871 0.044335844484349463
leaf_weight=216.19190254807472 946.89266104996204 433.81890801340342 365.32412812113762 429.98719599097967 61.042628735303879 78.82051220536232 172.69305758178234 135.59915713965893 1242.0787530094385 238.41919844597578 223.89478380233049 165.77508269995451 44.798124529421329 210.64908403158188 558.53871480375528 242.78788759559393 229.79757045954466 226.82588588446379 47.634090766310692 88.774291045963764 97.592387065291405 46.265404805541039 68.869067080318928 31.692921504378319 58.269045166671276 31.07142636179924 373.57175316661596 256.45424517989159 117.92763221263885 139.43235854804516
leaf_count=1393 9939 3601 2851 3916 479 418 944 884 13040 2194 1950 1414 332 1502 3892 1800 1570 1222 313 546 448 318 495 160 407 275 2126 2451 765 785
internal_value=-0.000308488 0.0190559 0.0102131 -0.0190143 0.00164286 0.0215275 0.0335895 0.0345278 -0.0231099 -0.0174987 -0.0243356 0.00849082 -0.00524647 0.00359459 0.0234394 -0.00706184 0.0058685 0.0441928 0.0370034 0.0365187 0.0467458 0.0174106 0.0335219 0.0281867 0.0544233 0.0433035 0.0384883 -0.0129148 0.0108717 0.021856
internal_weight=7581.49 3725.16 2370.39 3856.33 638.073 1432.29 856.318 1354.78 3218.25 2271.36 1798.3 473.063 556.219 575.973 683.625 938.097 504.278 961.816 734.99 208.086 518.798 604.804 234.644 261.49 147.043 75.8696 421.206 480.349 392.959 275.032
internal_count=62430 24992 17056 37438 5348 9925 5572 7936 32090 22151 18048 4103 5008 4353 4628 7131 3530 5502 4280 1432 2887 4210 1909 1730 953 607 2439 4401 2434 1669
is_linear=0
shrinkage=0.05


Tree=14
num_leaves=31
num_cat=0
split_feature=61 70 19 72 19 62 61 34 19 61 70 63 58 70 61 61 61 19 0 18 4 19 77 62 19 19 19 19 79 61
split_gain=1127.94 424.226 143.512 141.091 145.65 118.819 108.87 81.5299 74.7824 73.2406 72.602 72.2533 68.0813 63.9758 61.4388 60.0978 54.2659 54.0346 53.2954 51.8743 45.7819 44.2807 44.1606 47.5358 42.3962 41.5337 41.2174 41.1707 40.9914 38.184
threshold=-0.0054407481497070025 -0.0042274979617741822 -0.0029916724350091636 0.99123336054738431 -0.0040032496298133954 0.0031017895678195771 -0.019605334160482008 0.61356538625088464 -0.0016405399754760911 0.0022359760862410362 -0.0099058789597726588 0.99245269284265369 -0.0050730607762692849 -0.01470564277461972 -0.012795339793157409 -0.0010428419873112825 0.0036911581215446298 -0.00049822591211196976 -0.0014097954376066253 0.0095334519388462786 1.3485714285714276 0.0027917779653665684 -0.16967136251298562 0.0093742182952633746 -0.0079162203750883595 0.0083821611961069614 0.00019904189856019102 0.0038277822789624478 -0.02925724786226722 -0.0015114349016909856
decision_type=2 2 2 2 2 2 2 2 2 2 2 2 2 2 2 2 2 2 2 2 2 2 2 2 2 2 2 2 2 2
left_child=3 2 -2 8 6 14 12 15 -1 21 16 -10 -5 19 -6 18 28 20 -3 24 -16 -9 -7 -24 -8 -11 29 -18 -4 -12
right_child=1 7 10 4 5 22 13 9 11 25 26 -13 -14 -15 17 -17 27 -19 -20 -21 -22 -23 23 -25 -26 -27 -28 -29 -30 -31
leaf_value=-0.015816644201744105 -0.018165698161306032 -0.031484998621867599 0.05049318041419875 0.028877174820759334 0.085827753252145922 -0.023242561028510935 0.014330858508707437 -0.0049602788101025114 -0.011751632896933609 -0.030479307331841617 0.0060095681344315283 0.044787276053383 0.085381225767627911 -0.0046526529703787107 0.045657615445886451 -0.031817725736166862 -0.01375571689366047 0.071576335588939069 -0.0048977204723952934 -0.005546031436649829 -0.0081596409930038225 0.056824884377794455 0.070226205676540643 -0.0074393351082433518 0.049581869248552665 0.0044331324051577053 0.013228778236586032 0.032789243826861034 0.022180253632720085 -0.029036291633690238
leaf_weight=234.23145709186792 481.26532814651728 314.36274989694357 188.04284433275461 125.89662832021713 154.89986331760883 63.191568821668625 151.54260795563459 52.175996161997318 89.839882329106331 208.40908475220203 149.37601665407419 152.30011600255966 92.462650611996651 311.94917039573193 332.05198004096746 2044.8679086118937 142.08317362517118 196.8035693615675 470.73081015795469 107.76645787060261 44.855944454669952 65.283558532595634 40.935737535357475 37.981761641800404 195.11408215016127 144.08334738016129 325.04225856810808 71.376777492463589 399.29706629365683 162.02922751754522
leaf_count=1720 4219 3059 1126 641 657 409 890 503 645 2178 1077 887 419 2168 1865 22602 1071 923 4134 670 256 511 233 234 1023 1351 2509 451 2489 1510
internal_value=-0.000311811 -0.0132303 0.00546657 0.0285986 0.0348305 0.0497282 0.0216576 -0.0241003 0.00432559 -0.00481432 0.0133799 0.02381 0.0528034 0.0127833 0.0578853 -0.0273029 0.0233983 0.0503409 -0.0155436 0.0247527 0.0392528 0.0293797 0.00790568 0.032847 0.0341717 -0.0162086 0.000774407 0.001808 0.0312449 -0.0122254
internal_weight=7550.25 5218.43 1918.51 2331.82 1855.45 870.72 984.732 3299.91 476.371 469.952 1437.25 242.14 218.359 766.372 728.611 2829.96 800.8 573.711 785.094 454.423 376.908 117.46 142.109 78.9175 346.657 352.492 636.448 213.46 587.34 311.405
internal_count=62430 48790 14452 13640 10388 4577 5811 34338 3252 4543 10233 1532 1060 4751 3701 29795 5137 3044 7193 2583 2121 1014 876 467 1913 3529 5096 1522 3615 2587
is_linear=0
shrinkage=0.05


Tree=15
num_leaves=31
num_cat=0
split_feature=61 61 1 1 1 61 61 5 17 63 61 72 58 5 1 72 19 72 72 0 77 1 62 0 0 5 71 5 61 0
split_gain=1030.5 235.507 170.489 131.403 130.561 116.501 88.9302 82.583 76.7551 74.9671 71.4861 66.0471 65.1443 62.9244 59.7937 57.9725 55.283 50.3356 48.0371 46.7125 42.1545 41.6295 40.0088 39.154 38.8846 38.2896 37.0341 36.9511 36.32 46.0231
threshold=-0.0019851310256560231 -0.0071005399997162164 -0.0021045384307394601 0.0010105186742807967 -0.0056440181212297552 0.003373029246426146 -0.015266093120910823 0.0046211504249580445 1.1089108910891163 0.9989961929169523 -0.014276590585996536 1.0128619351178174 0.0026462037027718357 0.003413360169887318 -0.014249085034983471 1.0189426884300903 0.0021322596637788111 1.0130711132239745 0.99055241698853658 0.0014965262088672854 1.6707803801394616 0.0041242521216364927 0.019761321899260567 0.00013607148556976832 -0.0048184149744254041 0.0051343039327182245 -0.0030477049196051629 0.0096847969717724063 -0.01178870175354575 -0.0029926894670407917
decision_type=2 2 2 2 2 2 2 2 2 2 2 2 2 2 2 2 2 2 2 2 2 2 2 2 2 2 2 2 2 2
left_child=1 4 11 17 6 8 14 28 15 19 27 -3 26 16 20 -5 -11 -2 -8 -4 -1 -10 -14 -12 -20 -17 -7 -9 -6 -30
right_child=3 2 9 5 7 12 18 10 21 13 23 -13 22 -15 -16 25 -18 -19 24 -21 -22 -23 -24 -25 -26 -27 -28 -29 29 -31
leaf_value=0.0021503609118488868 -0.035504546427330773 -0.018963064291859205 -0.012834717740525048 -0.011884662491121634 0.078677645023054632 -0.015438934729522359 -0.025212077875710122 0.074246854021110545 0.0077786931155034841 0.036463098521925377 -0.0097605056328392472 0.010485130801939441 0.010524945196194751 0.012511923637412088 0.057529884495112399 0.051482047313823588 0.095402416165098647 -0.013848847161664811 -0.0060770141848234894 0.028932434590035923 0.047922321832080596 0.051002018711613223 -0.018311381622239425 0.034888388615466975 0.023535800691574349 -0.011106682001453295 -0.034977287556713164 0.003136262328343244 0.019934656210390089 0.059916903436622183
leaf_weight=136.40296021103859 1108.4340289235115 611.61157768964767 213.28750429302454 550.89420854300261 150.39952781796455 410.19465964287519 99.116099320352077 83.148545995354652 115.86724130064249 326.59155990928411 122.63360172510147 276.47513380646706 228.82912506908178 288.03687780350447 189.10390777885914 66.83078870177269 45.30409936606884 354.03684545308352 172.10220617055893 97.564349167048931 79.68949519097805 107.28798697888851 253.58632679283619 81.889267429709435 311.50400372594595 38.520534850656986 593.35612029582262 23.412152513861656 96.986786864697933 279.09325700998306
leaf_count=757 12244 5288 1647 5476 632 3913 798 368 1107 2044 727 1987 2130 1801 926 492 233 3247 1154 608 416 882 2448 437 1922 304 6411 113 539 1379
internal_value=-0.000312313 0.0185635 0.00603629 -0.0184806 0.0313199 -0.0111963 0.0190077 0.0458423 0.00322806 0.0205193 0.0254175 -0.00979539 -0.0197327 0.0300554 0.0369977 -0.00538585 0.043643 -0.0302621 0.0064983 0.000274373 0.0190299 0.0285595 -0.00463315 0.00811654 0.0129974 0.0285972 -0.0269911 0.0586233 0.0579109 0.0496059
internal_weight=7512.19 3684.35 1858.87 3827.84 1825.48 2365.37 987.919 837.563 879.401 970.784 311.084 888.087 1485.97 659.933 405.196 656.246 371.896 1462.47 582.722 310.852 216.092 223.155 482.415 204.523 483.606 105.351 1003.55 106.561 526.48 376.08
internal_count=62430 23776 13608 38654 10168 23163 5973 4195 8261 6333 1645 7275 14902 4078 2099 6272 2277 15491 3874 2255 1173 1989 4578 1164 3076 796 10324 481 2550 1918
is_linear=0
shrinkage=0.05


Tree=16
num_leaves=31
num_cat=0
split_feature=61 70 70 58 19 61 63 1 19 72 19 62 19 70 61 18 62 70 19 12 0 70 62 20 61 19 5 72 19 19
split_gain=936.364 243.039 212.719 130.959 125.248 149.418 103.253 98.958 88.2472 85.4254 80.3204 61.8191 60.534 65.1843 58.742 53.2784 52.918 49.057 48.2563 46.9692 43.7399 42.9214 42.5356 44.3474 40.3434 48.9184 38.1066 37.3683 36.2494 35.1373
threshold=-0.0016483624871555069 -0.00062828864828224208 -0.002239407322699402 -0.00012240490207319487 -0.0012705626026805817 -0.0093136600046530345 0.99914862170390706 0.0010105186742807967 0.0055229346925725568 0.99367247401039904 -0.0066784744901257397 -0.018045395141393975 -0.005280357020818709 -0.013201405949064242 -0.023254694518821877 0.0064293517752148826 -0.0015836876454951149 -0.022796632813300105 -0.015629216016727596 1.2684656020797962 0.00069930962398853235 0.015923618398595386 0.0098817252956539762 0.0029373756712742158 -0.006683129326377212 -0.0023946440092065691 0.0061727572559362748 1.0162170979745546 0.0093375375083397921 -0.0016880881366204729
decision_type=2 2 2 2 2 2 2 2 2 2 2 2 2 2 2 2 2 2 2 2 2 2 2 2 2 2 2 2 2 2
left_child=1 4 3 17 5 10 -6 16 -4 -7 14 -12 -11 -14 18 20 24 26 -1 -5 -9 28 23 -8 25 -3 -2 -16 -10 -19
right_child=2 7 8 19 6 9 22 15 21 12 11 -13 13 -15 27 -17 -18 29 -20 -21 -22 -23 -24 -25 -26 -27 -28 -29 -30 -31
leaf_value=0.020104062938556766 0.037314481763380022 0.0026110088767081971 -0.033539452726634021 0.0071885066294427565 0.014119772448509283 -0.028958879524347381 0.047470331332481609 0.016800169963635436 -0.007497695759675742 -0.0096348480437931216 0.0782364354613823 0.035867452903098472 0.038922277043295657 0.0057422801258304405 -0.012186652111475111 -0.00045803829035377772 -0.024000400301542001 -0.035321458715769083 0.078336026105170597 0.041370482271199549 0.071969810673052817 -0.02345530470202109 -0.030920025309114054 0.082124665467499747 -0.014070467098356812 0.064211898992393504 -0.020953039746747702 0.020764077793023444 0.033845441409955317 -0.011132132848736884
leaf_weight=78.250658333301544 66.337598480284214 106.64134571701288 1697.4725937768817 499.52267230302095 253.47486575692892 160.07815705984831 456.22243616729975 75.43015818297863 201.84681658446789 255.79193985462189 125.82048192620277 272.66158343106508 250.65505284816027 361.5142126083374 134.13654594123363 137.24209211021662 445.75864692032337 294.29203161597252 65.23799329996109 125.80985826253891 68.600415833294392 327.94913955032825 14.961030483245848 115.73999751359224 172.11201933771372 46.186545319855213 48.629612408578396 239.97781264781952 71.907304815948009 306.46584403514862
leaf_count=390 518 752 20311 3846 1618 1325 2361 535 1863 1895 552 1368 1428 2632 875 915 3967 2940 288 914 397 3361 83 513 1536 250 428 1316 623 2630
internal_value=-0.000311263 0.0169246 -0.0184764 -0.00265044 0.0246598 0.0176877 0.0407885 -0.00354989 -0.0277074 0.00460272 0.0323718 0.0492454 0.0107925 0.019328 0.0193814 0.0218348 -0.0128142 -0.0172553 0.0465796 0.0140655 0.043077 -0.0112544 0.0523059 0.0544828 0.00253115 0.0212276 0.0126681 0.00894978 0.00336195 -0.0229817
internal_weight=7476.73 3836.49 3640.23 1341.06 2784.52 1944.12 840.398 1051.97 2299.18 1028.04 916.085 398.482 867.961 612.169 517.603 281.273 770.699 715.725 143.489 625.333 144.031 601.703 586.923 571.962 324.94 152.828 114.967 374.114 273.754 600.758
internal_count=62430 24996 37434 11276 16644 12069 4575 8352 26158 7280 4789 1920 5955 4060 2869 1847 6505 6516 678 4760 932 5847 2957 2874 2538 1002 946 2191 2486 5570
is_linear=0
shrinkage=0.05


Tree=17
num_leaves=31
num_cat=0
split_feature=61 70 70 1 61 1 19 1 19 72 20 61 34 77 4 63 62 61 5 63 21 19 77 70 70 77 19 5 73 19
split_gain=850.505 216.426 199.799 121.678 113.345 140.95 117.469 90.7198 84.6489 59.2482 55.8567 56.0408 52.9076 52.7039 50.7208 49.2389 48.3594 46.2772 43.0336 42.1765 49.1893 41.0048 44.6774 39.7076 36.4832 36.2807 46.9861 34.1151 33.9212 32.0582
threshold=-0.0016483624871555069 -0.00062828864828224208 -0.002239407322699402 0.0010105186742807967 -0.0093136600046530345 -0.0046231932535955172 -0.0066784744901257397 -0.0001368988069744811 0.0055229346925725568 1.001137477469588 0.0024337762163756365 0.0043497717174415668 0.02072352438867137 0.95031500781783274 1.3764285714285733 0.99429245692487622 -0.0016700177071831857 -0.015266093120910823 0.0064880101643541178 1.0079115693350511 -0.0024418898719603109 -0.0013174303745191603 0.72090666517633928 0.015923618398595386 -0.029297230465622628 -0.50890178841408973 -0.0019869885772401024 0.0096847969717724063 1.0372752073451073 0.0097468176567319688
decision_type=2 2 2 2 2 2 2 2 2 2 2 2 2 2 2 2 2 2 2 2 2 2 2 2 2 2 2 2 2 2
left_child=1 4 3 -2 6 -6 13 19 -4 21 11 24 16 28 25 -12 -9 27 -19 -3 -21 -7 -23 29 -5 26 -11 -8 -1 -10
right_child=2 7 8 10 5 9 17 12 23 14 15 -13 -14 -15 -16 -17 -18 18 -20 20 -22 22 -24 -25 -26 -27 -28 -29 -30 -31
leaf_value=-0.010012217252524699 -0.01946184997821597 -0.020598527331420525 -0.032771858253329088 0.085391156962146039 -0.0070105290984194676 -0.01150077942041644 0.079155007516013981 0.035553815096303031 -0.0063627334931866779 -0.0025237182147546684 0.0098442586328023867 -0.022212642795665968 0.053648325698641801 0.036507210140612173 -0.00057787097595199844 0.051316893388454243 -0.0075797030676081935 0.047339823516937822 -0.0035561691876723465 -0.009124684542953565 0.055510526119604442 0.014463009162723013 0.086361643402277533 -0.022705320886748644 0.0092929537552483166 0.047712478005933597 0.038680338923933438 0.0083348597307852674 0.024320821626717812 0.033786177335340874
leaf_weight=171.37100841104984 591.85780526697636 538.51909303665161 1651.5488898381591 16.753680765628815 505.92692577838898 153.07575868070126 163.50732155889273 97.797755777835846 209.18626064807177 105.15401303768158 163.29298832267523 175.19554261118174 76.360279776155949 225.33741730451584 101.18063212931156 127.41170984506607 193.65747092664242 363.75421819835901 46.884854845702648 98.709998860955238 41.94314482063055 221.88576191663742 23.937582604587078 321.99665343761444 262.93690047413111 378.31147113442421 202.28397737443447 18.978657826781273 123.99767526239157 65.222259528934956
leaf_count=1051 5525 4853 20311 109 3790 1158 688 614 1935 730 1187 1486 426 1170 591 905 1429 1723 247 767 263 1394 134 3361 2064 2072 1163 85 648 551
internal_value=-0.000310856 0.0159999 -0.017837 -0.00253487 0.0232394 0.0150848 0.0356251 -0.00339956 -0.0269413 0.0245117 0.0109019 -3.84258e-05 0.0166002 0.0182951 0.0324689 0.0280211 0.00689374 0.0508391 0.0415288 -0.0142307 0.0101497 0.00881409 0.0214643 -0.0107954 0.0138513 0.0373449 0.0245872 0.0717897 0.00440101 0.00317998
internal_weight=7437.98 3852.58 3585.4 1337.45 2805.59 1691.76 1113.83 1046.99 2247.95 1185.83 745.591 454.886 367.816 520.706 786.93 290.705 291.455 593.125 410.639 679.172 140.653 398.899 245.823 596.405 279.691 685.749 307.438 182.486 295.369 274.409
internal_count=62430 24996 37434 11276 16644 11032 5612 8352 26158 7242 5751 3659 2469 2869 4556 2092 2043 2743 1970 5883 1030 2686 1528 5847 2173 3965 1893 773 1699 2486
is_linear=0
shrinkage=0.05


Tree=18
num_leaves=31
num_cat=0
split_feature=61 61 34 1 1 72 71 61 62 19 61 20 1 20 1 18 63 61 14 72 1 18 21 18 35 12 68 19 62 60
split_gain=778.357 173.75 118.057 116.678 112.7 98.9631 94.7363 68.6146 62.8576 70.125 61.1063 65.7914 61.0851 58.8038 56.0885 53.6489 43.8874 43.0655 42.8343 42.7182 41.8852 41.8715 37.3287 35.823 34.842 34.8129 34.0961 33.8289 41.3822 32.5562
threshold=-0.0054407481497070025 -0.00075644235170886968 0.0036234289602100037 0.0010105186742807967 -0.0043728958643831604 1.0114612297162549 -0.0022387259131844755 0.0036911581215446298 0.0026781488501682357 1.0000000180025095e-35 -0.019605334160482008 -0.01023580855877927 0.010252814982734464 -0.021766532890595689 -0.0013376243587911116 0.0095334519388462786 1.0094698585341007 -0.011384999788259239 0.60000000000003972 1.0185375980965115 -0.0052174313817793432 0.004838063627215226 -0.0030418639467967288 0.0056926410498052043 0.52981374819129545 1.2789751972686652 1.7866991656963835 0.0058773880620805142 0.017065701089913569 0.52325322350618697
decision_type=2 2 2 2 2 2 2 2 2 2 2 2 2 2 2 2 2 2 2 2 2 2 2 2 2 2 2 2 2 2
left_child=4 2 5 -3 6 14 10 19 9 17 13 26 -9 -1 -2 20 -13 -6 -4 25 -7 -19 -18 -16 -14 -5 -12 -10 -29 -20
right_child=1 3 18 7 8 15 -8 12 27 -11 11 16 24 -15 23 -17 22 21 29 -21 -22 -23 -24 -25 -26 -27 -28 28 -30 -31
leaf_value=0.016536752518843227 -0.023635065547329859 -0.031810333304209001 0.021353047541264283 -0.010461195872558319 0.053757262146806206 -0.012390439794289708 -0.0065876653297486827 -0.024884800999242798 -0.0043062920683407729 0.061678624345212929 -0.011255135776328546 0.015551339951822294 -0.010386903006468842 0.069736945496071762 0.0086653796345129968 -0.029892798725177746 0.020679348365883827 0.044660208841191866 0.040913174183196947 0.027641664946908531 0.02885925758194037 0.011619564197448348 0.070251890527945685 -0.01834552240025741 0.024100870526985826 0.018847632811418588 0.022764584682832639 0.083504819574244687 -0.0042760889030746879 0.11579400588131894
leaf_weight=93.588342323899269 545.72159839421511 1083.6648480892181 174.27175054699183 524.47128783166409 155.46632547676563 75.166762754321098 406.09517125040293 992.64692786335945 133.35084562003613 280.86275278776884 233.47862973809242 225.72716180980206 274.32569605112076 116.72501415014267 347.4659124314785 58.173155158758163 64.274187639355659 146.26344232261181 37.360595017671585 120.24762099981308 339.46958992630243 278.40313152223825 92.81080711632967 189.80352141708136 99.904607109725475 125.57597702741623 107.59213976562023 28.822921238839626 25.134081557393074 23.738530099391937
leaf_count=466 5241 12442 1215 5474 667 624 2949 10748 847 1269 1473 1406 2603 512 2786 445 357 760 252 890 2286 1540 463 1534 927 1178 631 145 155 145
internal_value=-0.00030928 -0.0115034 0.000980252 -0.0184459 0.0231795 -0.00401257 0.0135743 -0.0116693 0.03546 0.0411707 0.0223388 0.015446 -0.0183948 0.0460631 -0.0123448 0.0150727 0.0296742 0.031242 0.0339828 0.000264908 0.0213814 0.0229994 0.0499684 -0.00087688 -0.00118004 -0.00479932 -0.000523479 0.00921013 0.042615 0.0700062
internal_weight=7400.6 5012.01 1791.17 3220.84 2388.59 1555.8 1340.29 2137.17 1048.3 860.996 934.196 723.883 1366.88 210.313 1082.99 472.81 382.812 580.133 235.371 770.295 414.636 424.667 157.085 537.269 374.23 650.047 341.071 187.308 53.957 61.0991
internal_count=62430 48790 14528 34262 13640 12916 8257 21820 5383 4236 5308 4330 14278 978 9561 3355 2226 2967 1612 7542 2910 2300 820 4320 3530 6652 2104 1147 300 397
is_linear=0
shrinkage=0.05


Tree=19
num_leaves=31
num_cat=0
split_feature=61 70 62 19 70 19 19 19 62 21 70 63 20 63 70 63 19 70 21 20 63 20 63 61 1 68 5 20 63 71
split_gain=707.523 248.338 139.851 183.632 121.468 105.034 80.442 78.3189 72.9488 64.8223 61.2742 60.8462 158.115 49.817 48.7201 48.0638 47.121 47.0531 45.2036 44.5157 44.1051 53.7311 41.5884 38.6461 49.4067 37.1652 36.1357 35.7367 46.587 35.1895
threshold=-0.0030891979719859211 -0.0032017438517401762 -0.0015836876454951149 -0.0019373441802844002 -0.022323369810175669 -0.0029916724350091636 0.0022246407496507984 0.006329825861454085 0.013885926258778459 -0.0085572682709721039 -0.0099058789597726588 1.0094698585341007 -0.0095268098783320796 1.0176193814781251 0.001830476025086515 1.0005548588306985 0.0023238100036689826 0.019690343547592696 -0.0060797386121324024 -0.0054844721696232406 1.0254511751954891 -0.016875507186463131 1.0031678121950554 0.003081588497943133 0.00047153637744925809 -0.42349572300698862 0.0041081737202997345 0.012107848398056445 0.98563131127368131 -0.072093461388769611
decision_type=2 2 2 2 2 2 2 2 2 2 2 2 2 2 2 2 2 2 2 2 2 2 2 2 2 2 2 2 2 2
left_child=2 5 3 4 9 -2 14 23 -8 29 -7 19 13 -13 -4 -5 -12 27 -15 -6 21 -11 -21 24 -3 -14 -23 -9 -29 -1
right_child=1 7 6 15 11 10 8 17 -10 20 16 12 25 18 -16 -17 -18 -19 -20 22 -22 26 -24 -25 -26 -27 -28 28 -30 -31
leaf_value=0.038535053662630443 -0.025130968345598532 -0.032198209923526941 0.0016107678425776131 0.016662119422997664 -0.022081542185107453 0.018848638050066639 0.039636139330049669 -0.010443165389931078 -0.015237660223158348 -0.0055961013803743935 -0.011990823919119615 -0.02211751629010229 0.012252625161313599 -0.00075331528751736848 -0.026828875919313967 0.051827491672657502 0.019108209808885196 -0.022427382071811431 0.055448309285023291 -0.012946694483337896 0.082221117205912714 0.065937920541109141 0.021518593921850251 -0.035656399430414584 -0.010845506558476443 0.06093183457678545 0.029424938443131595 0.0022395429038908217 0.061912627915922037 -0.013456200261369759
leaf_weight=50.824325956404209 296.46003147959709 557.07863973081112 380.22078260779381 118.10664735734463 242.43246777355671 635.19199778139591 193.77842413634062 132.62962687760592 88.102614626288414 59.883070640265942 438.97466576099396 179.64902302622795 50.595788851380348 124.69885009527206 249.34958069771528 548.11658948659897 168.5800878405571 239.49320165067911 50.173431500792503 161.34444716572762 65.342313051223755 128.76960598677397 191.31609160453081 942.50432082265615 527.3640296831727 174.22794772684574 143.0230310484767 82.138904020190239 54.349248550832272 90.494042776525021
leaf_count=270 2993 6906 2436 733 1813 4229 1089 1210 609 320 3994 1220 288 780 2146 2602 1292 2542 278 1285 283 626 1188 12008 5987 881 734 742 439 507
internal_value=-0.000305675 -0.0142316 0.0169397 0.02332 0.0146562 0.00161107 0.000286169 -0.0238489 0.0224852 0.0343233 0.00799045 0.0056413 0.0171757 -0.00362544 -0.00965313 0.0455934 -0.00336168 -0.00630623 0.0153718 -0.00558788 0.0446747 0.0372778 0.0057505 -0.0282508 -0.0218144 0.0499768 0.046724 0.00804029 0.0260012 0.00524215
internal_weight=7365.21 4074.76 3290.45 2379 1712.77 1539.21 911.451 2535.56 281.881 538.336 1242.75 1174.44 579.345 354.521 629.57 666.223 607.555 508.611 174.872 595.093 397.018 331.676 352.661 2026.95 1084.44 224.824 271.793 269.118 136.488 141.318
internal_count=62430 42342 20088 13808 10473 12508 6280 29834 1698 2740 9515 7733 3447 2278 4582 3335 5286 4933 1058 4286 1963 1680 2473 24901 12893 1169 1360 2391 1181 777
is_linear=0
shrinkage=0.05


Tree=20
num_leaves=31
num_cat=0
split_feature=61 70 63 20 70 1 0 19 20 63 20 62 63 63 63 21 62 61 91 21 91 38 70 18 62 70 77 61 1 4
split_gain=648.382 176.979 173.675 174.846 134.146 86.3953 85.5731 82.719 73.3172 139.933 73.1834 63.9699 63.0771 58.2071 55.9537 78.1323 46.9064 46.6707 53.4871 44.2542 42.5436 37.0097 35.9641 35.841 34.8597 31.5379 43.3912 31.507 34.3388 31.4197
threshold=-0.0016483624871555069 -0.0076824148198899938 0.99972621427042085 0.0010982801380363984 -0.013643795195462114 0.0040495785698039695 0.0014641076687730147 -0.0018897206239200169 -0.0042470457873869634 1.004824118543314 -0.011683043871679151 -0.0029260921223220712 1.0092746109983113 1.0147190298654556 1.0226488833137555 -0.0081966502029851233 0.0078741448134781282 0.0056176004013106795 1.0990860489165841 -0.0037161337334428572 1.1242291762683079 0.20075937351684958 -0.0073426366536117936 0.0090175772819702134 -0.0085201597630007262 0.0019488179949391389 0.24605983624358427 0.003081588497943133 -0.00030485030562556409 0.75285714285713934
decision_type=2 2 2 2 2 2 2 2 2 2 2 2 2 2 2 2 2 2 2 2 2 2 2 2 2 2 2 2 2 2
left_child=2 7 6 4 10 27 25 -2 12 -10 14 -11 -6 23 -4 -16 -5 18 -7 24 -8 -9 -13 -12 -14 26 -1 28 -3 -21
right_child=1 5 3 16 8 17 20 21 9 11 13 22 19 -15 15 -17 -18 -19 -20 29 -22 -23 -24 -25 -26 -27 -28 -29 -30 -31
leaf_value=-0.014948589734839982 -0.020049343304477465 -0.035115853307342626 -0.0047000564065184415 0.057983104773533647 -0.022399342391256283 -0.0061812112603710969 0.01408215593027333 -0.004490560357353398 -0.0034695580676320347 0.056040675718203474 0.034403851204596735 0.063943446908170123 0.0040441462680979798 0.064809523282913492 0.0097820379225185897 0.068912391354693653 -0.010918031183396069 -0.019815201272814838 0.043808439095682085 0.065219015621561405 0.08203052496810842 0.022489347503014484 -0.011881901835524435 -0.0067175610093668792 -0.042116401171260635 -0.025877533154668966 0.022519129426486886 -0.038737326068774884 -0.015239533139557407 0.013971469709125993
leaf_weight=274.42724865674973 254.73124957829714 393.28564728051424 241.54414724558592 322.78702250868082 334.46023719012737 341.94788963347673 174.60041262209415 185.10001323372126 394.93567763268948 218.63680245727301 504.18041549623013 20.320884965360165 197.85617709904909 153.54689380526543 173.14117493480444 82.479342207312584 26.748186469078064 676.13162811845541 63.435896068811417 42.910080380737782 26.537856929004192 405.7095403522253 67.859137326478958 59.211906500160694 51.557531967759132 309.26433333754539 107.55933386832476 637.07591196894646 485.59791099280119 98.710463620722294
leaf_count=2032 2529 5089 1440 1586 2694 3659 1160 1303 3020 1106 2624 101 1336 680 944 369 165 7387 603 249 150 2764 461 319 374 2876 694 8314 5786 616
internal_value=-0.000304068 -0.016101 0.0137019 0.0194778 0.01508 -0.0225688 -0.00565615 0.0037677 0.00468744 0.01621 0.0272971 0.0415415 -0.00645803 0.0375196 0.0125557 0.0288612 0.0527104 -0.0117727 0.00164135 0.00717693 0.0230472 0.0140366 0.00559188 0.030082 -0.00549793 -0.0140082 -0.00439847 -0.0302709 -0.0241339 0.0294991
internal_weight=7326.29 3443.02 3883.28 2990.89 2641.35 2597.47 892.389 845.541 1427.25 701.753 1214.1 306.817 725.494 716.939 497.165 255.621 349.535 1081.52 405.384 391.034 201.138 590.81 88.18 563.392 249.414 691.251 381.987 1515.96 878.884 141.621
internal_count=62430 37434 24996 18084 16333 30838 6912 6596 9957 4688 6376 1668 5269 3623 2753 1313 1751 11649 4262 2575 1310 4067 562 2943 1710 5602 2726 19189 10875 865
is_linear=0
shrinkage=0.05


Tree=21
num_leaves=31
num_cat=0
split_feature=70 68 2 62 20 63 37 19 37 70 58 11 63 20 70 2 70 62 63 20 62 68 20 21 63 5 58 63 70 20
split_gain=592.273 126.739 95.6495 88.7637 94.4657 104.056 78.4881 76.1203 71.1951 70.7064 57.2197 53.3772 53.0453 55.3972 46.1034 46.0915 54.934 49.6315 43.111 62.6331 41.181 40.4539 39.9399 39.3367 37.145 36.1013 35.3013 57.8534 35.0975 32.6121
threshold=-0.0023665411506834659 0.41924748984879751 -0.0034898380055830925 -0.0025936901907668095 0.0015301946078776336 0.9968348871601912 0.94798901053350326 0.0055229346925725568 0.32507087841038451 -0.013643795195462114 -0.0012319173669563773 1.5687910971913079 0.99972621427042085 -0.00050606762194382274 0.019690343547592696 -0.014995279616216271 -0.039152391218085801 -0.018045395141393975 1.0014457681424924 -0.0011998312410661652 -0.014517974410368647 1.4832524498959361 -0.0051621549793118629 0.00036570997735233505 1.0065501367472363 0.0057507675399693656 -0.0030147994126154716 1.002308778679657 0.0063854714474787279 0.011498751699537879
decision_type=2 2 2 2 2 2 2 2 2 2 2 2 2 2 2 2 2 2 2 2 2 2 2 2 2 2 2 2 2 2
left_child=1 2 9 10 -5 7 15 -6 12 26 20 23 -4 24 29 16 -3 -17 -12 -20 -2 -8 -19 -7 -14 -10 -1 -28 -25 -9
right_child=3 6 8 4 5 11 21 14 25 -11 18 -13 13 -15 -16 17 -18 22 19 -21 -22 -23 -24 28 -26 -27 27 -29 -30 -31
leaf_value=-0.0083821098363394825 0.0059542873185298439 0.051324072039824642 0.007344223423950043 -0.035696676209832821 -0.030215523070660989 -0.017328784361119006 -0.020054585141792855 -0.012422837669192256 0.0083670835728335332 -0.016369155832589303 -0.010266176769005236 0.072904197214515437 0.0080345114808114959 0.052630160504815116 -0.022041321404444456 0.062236238677260441 -0.00011483215823982589 0.013429269871739825 0.0052173213702562107 0.054448088695287215 -0.030396033469156966 0.018910794420103363 0.041240401165024532 0.036354529725225869 0.039813090454699593 -0.019892062134552951 -0.018505634846221062 0.02906837928453461 -0.0035999230087610345 0.019807451941654945
leaf_weight=199.09051756560802 124.75787848979235 71.762765407562256 327.15378876030445 722.06981699168682 842.55760090053082 141.57419306784868 118.20490193367004 137.19779518246651 478.96976532042027 591.37390153110027 157.7705086171627 29.748554095625877 226.53819358348846 215.90034303069115 269.51948381215334 170.9974852502346 187.55842760950327 198.59950409084558 186.07319880276918 98.9679144769907 207.51211497932673 152.60759799182415 368.87290831655264 110.40601324290037 154.78193558007479 147.92036820948124 83.487245745956898 272.43923279643059 109.45792225748301 183.40428505092859
leaf_count=1350 1098 362 2458 8592 10499 1552 788 1335 3278 4857 1684 238 1662 1191 2887 876 1159 1328 1745 664 2185 907 2216 962 866 962 566 1606 1017 1540
internal_value=-0.000301698 0.0127418 0.00661258 -0.0158794 -0.0203897 -0.0143296 0.0257754 -0.0205702 0.0147062 -0.00433945 -0.00106438 0.00852586 0.0235273 0.0323923 -0.0067989 0.0322546 0.01412 0.0386228 0.0107037 0.0223105 -0.0167475 0.00190309 0.0315073 0.00322714 0.0209338 0.00169908 0.00847827 0.0179093 0.0164634 0.00601489
internal_weight=7287.28 3966.26 2697.66 3321.02 2545.94 1823.87 1268.6 1432.68 1551.26 1146.39 775.082 391.187 924.374 597.22 590.122 997.791 259.321 738.47 442.812 285.041 332.27 270.812 567.472 361.438 381.32 626.89 555.017 355.926 219.864 320.602
internal_count=62430 26432 18796 35998 28622 20030 7636 16261 10417 8379 7376 3769 6177 3719 5762 5941 1521 4420 4093 2409 3283 1695 3544 3531 2528 4240 3522 2172 1979 2875
is_linear=0
shrinkage=0.05


Tree=22
num_leaves=31
num_cat=0
split_feature=62 72 20 21 19 62 68 19 71 72 18 71 18 77 19 62 20 64 20 20 62 77 71 37 35 20 62 71 20 71
split_gain=365.406 131.493 143.676 131.088 85.8164 83.1478 73.448 70.0442 57.8804 55.1486 65.6021 49.7468 49.552 49.0434 47.8823 45.0321 64.6866 49.1858 43.1936 41.1575 43.7517 40.059 39.7697 39.1919 38.4408 33.2349 33.0973 31.9076 45.6003 43.0346
threshold=-0.0012702395355778222 1.0120349037213654 -0.00098748549730092415 -0.0041065675223084727 0.0021322596637788111 0.012634976849963694 -0.27615308488786866 0.006329825861454085 0.0079499336910619535 1.0424478894870133 0.010016752552135745 0.0025509990667830296 0.0075624597393785546 0.082428958577643485 0.0097468176567319688 -0.012348331113042722 -0.0093096142265223242 1.0062455274998052 0.0011686807041042322 -0.0031759123182811383 -0.014517974410368647 0.53904098992978577 -0.020244562106591809 0.1657458563535846 0.21368184356389378 -0.0058468017504381027 0.0033655728729107335 0.023613462023327009 0.0033665054841628991 -0.0055627663096581492
decision_type=2 2 2 2 2 2 2 2 2 2 2 2 2 2 2 2 2 2 2 2 2 2 2 2 2 2 2 2 2 2
left_child=1 2 15 9 11 7 8 27 -4 12 -11 18 21 19 -7 16 -1 22 -2 20 -5 -3 -18 -10 -9 -17 -20 28 -6 -30
right_child=4 3 6 13 5 14 -8 24 23 10 -12 -13 -14 -15 -16 25 17 -19 26 -21 -22 -23 -24 -25 -26 -27 -28 -29 29 -31
leaf_value=-0.017674822587477011 -0.018843111810883342 -0.0023886521121425047 0.026426892928910362 0.042390055432972668 -0.016556362965196619 -0.024679346321562337 0.039561063670681344 0.012544549693944768 0.014350453347932167 0.054355143061330317 0.004878618991164721 -0.029534278703420871 -0.016227645117622893 0.048232325101467535 0.002005022149578678 -0.030552198522204074 0.092222897893694492 0.044131679876523063 0.032247926014968765 0.041172122345078194 0.00022423922752257383 0.034579179670509434 -0.004548394553514047 -0.028035770776802655 0.057969458443590319 -0.0085519450042335268 -0.0075838217839329543 -0.021159851886823778 0.038086449146780027 0.0029759170211811231
leaf_weight=191.63909105211496 632.57872202247381 182.56530499458313 199.75980816036463 86.233322829008102 192.03666787594557 553.58053375780582 287.54965290427208 105.84373990446329 92.828763417899609 113.90692011266947 162.6864053979516 783.57989177852869 297.62282469123602 361.20231772959232 241.43182858079672 230.91362209618092 11.404747188091276 120.69272381067276 80.827342100441456 209.49683948606253 214.66088431328535 122.42024220526218 153.69591018557549 132.20818731188774 83.17188598960638 669.02756786346436 147.00385376065969 161.68136143684387 120.62183045595884 315.67185416072607
leaf_count=1481 6023 1314 1498 450 2000 5909 1937 841 743 618 1038 8911 2170 1918 2265 2189 70 778 609 1271 1444 785 1203 1205 593 5824 1377 1797 933 3236
internal_value=-0.000298601 0.0102848 0.00181645 0.0203925 -0.0121902 -0.00456351 0.020047 0.00519095 0.00683764 0.00677035 0.0252541 -0.0204202 -0.00171357 0.0341336 -0.0165758 -0.00761196 0.00480046 0.0198713 -0.0121199 0.024156 0.0123085 0.0124501 0.00213633 -0.0105513 0.0325327 -0.0141969 0.00654723 -0.00135075 0.0037465 0.0126829
internal_weight=7258.54 3840.52 2089.72 1750.8 3418.03 1774.04 712.346 979.027 424.797 879.202 276.593 1643.99 602.608 871.593 795.012 1377.37 477.432 285.793 860.41 510.391 300.894 304.986 165.101 225.037 189.016 899.941 227.831 790.012 628.33 436.294
internal_count=62430 27936 16928 11008 34494 17574 5383 9400 3446 5925 1656 16920 4269 5083 8174 11545 3532 2051 8009 3165 1894 2099 1273 1948 1434 8013 1986 7966 6169 4169
is_linear=0
shrinkage=0.05


Tree=23
num_leaves=31
num_cat=0
split_feature=61 70 61 0 58 5 20 61 19 18 70 1 72 70 20 71 0 70 17 1 1 19 70 5 17 77 17 79 19 61
split_gain=544.039 149.014 139.469 117.075 99.5083 87.7717 72.3307 66.2209 63.5201 59.4716 55.93 59.3774 50.4355 50.276 48.102 44.6565 43.3327 43.2979 35.5659 32.9096 32.5347 32.2644 44.2058 31.4526 31.0464 29.6352 28.79 28.3983 28.389 34.9502
threshold=-0.0016483624871555069 -0.002239407322699402 -0.0071005399997162164 0.00010361635278986703 -0.00012240490207319487 0.0046700872191897816 0.01176286675838348 -0.019605334160482008 -0.0049537825524996418 0.0055386142564056795 0.0029380665333446441 -0.0046231932535955172 0.99008565731404785 -0.016847849582947987 -0.023195090934705943 0.027553524714282827 -0.0036727743156117439 -0.022796632813300105 1.1494736842105422 0.0010105186742807967 0.0036167572643614663 0.00045314324503033834 0.0058682946461472586 0.0061727572559362748 0.82352941176469685 -0.55236473721483403 0.74792218257165888 0.01847108420865377 -0.0016880881366204729 0.0041864421434472431
decision_type=2 2 2 2 2 2 2 2 2 2 2 2 2 2 2 2 2 2 2 2 2 2 2 2 2 2 2 2 2 2
left_child=2 4 5 10 17 8 21 14 13 19 11 -4 -10 -1 -7 -8 -9 23 -6 27 -20 -3 -23 -2 -11 -13 -18 -5 -19 -30
right_child=1 6 3 9 18 7 15 16 12 24 -12 25 -14 -15 -16 -17 26 28 20 -21 -22 22 -24 -25 -26 -27 -28 -29 29 -31
leaf_value=0.032600707581719755 0.034696994837492993 -0.038592774656388731 -0.020149371684474879 0.029338738638423314 0.0052672534421510774 0.0017792374253999222 0.019805418462421603 -0.015008053224567733 0.011947799104109267 -0.01022770114207339 -0.026124500343277686 -0.0038750101322102973 0.048643442424426406 -0.0015668951022914967 0.04907344764118441 -0.016675495218851789 -0.003678274373595641 -0.032647388305774926 0.0033185824701027662 0.050433080493642646 0.049159050631067853 -0.010123470402754424 -0.030441999367482771 -0.018814123429950074 0.017787281363159664 0.017748042563604623 0.025872666525997508 -0.010095540755861492 -0.00018106155916910812 -0.039084839093403261
leaf_weight=236.40883696824312 67.590910099446774 495.42309000343084 273.29427460581064 212.84120478481054 468.92260698974133 83.272148594260216 133.14905367791653 247.19229175895452 114.6127158626914 193.79332282394171 282.35542371869087 295.74834243953228 511.63692796230316 197.70006444305182 151.71814212203026 226.73454958945513 149.43422295898199 268.25660441070795 61.445800684392452 144.40515272319317 104.5954836755991 409.9522063434124 771.40790825337172 46.251251243054867 201.95162246376276 341.3477440699935 183.79309831559658 58.121733084321022 222.59813030064106 77.945712029933929
leaf_count=1168 518 7077 2310 1407 3586 406 1254 1581 705 1373 2879 2184 2414 1282 705 2500 874 2940 490 748 684 5134 10193 428 1255 2221 1033 451 1883 747
internal_value=-0.000294104 -0.0150408 0.0124557 0.00328354 -0.00193836 0.0222542 -0.0235173 0.00992038 0.0317388 0.0179391 -0.0066828 -0.000652996 0.0419276 0.0170402 0.0323141 -0.00317836 0.000854007 -0.0151905 0.0123088 0.0311543 0.0321952 -0.0278826 -0.0233911 0.0129568 0.00406856 0.00771034 0.0126207 0.0208801 -0.020824 -0.0102707
internal_weight=7233.9 3354.27 3879.63 2003.86 1317.61 1875.77 2036.67 815.41 1060.36 811.113 1192.75 910.39 626.25 434.109 234.99 359.884 580.42 682.643 634.964 415.368 166.041 1676.78 1181.36 113.842 395.745 637.096 333.227 270.963 568.8 300.544
internal_count=62430 37434 24996 14828 11276 10168 26158 4599 5569 5234 9594 6715 3119 2450 1111 3754 3488 6516 4760 2606 1174 22404 15327 946 2628 4405 1907 1858 5570 2630
is_linear=0
shrinkage=0.05


Tree=24
num_leaves=31
num_cat=0
split_feature=61 70 61 0 1 19 58 70 72 17 5 77 61 20 1 63 70 71 19 5 2 20 70 37 61 62 58 5 1 0
split_gain=495.118 133.635 132.476 118.454 79.1629 78.8954 68.9395 55.3746 53.7544 53.6846 53.1623 53.0915 49.6024 44.3393 40.6714 36.0874 34.9728 34.8419 33.8975 33.8422 42.1322 33.2632 31.7191 30.9227 30.4545 29.9155 28.4341 46.5572 27.8725 26.9254
threshold=-0.0013121042040059644 -0.0078771653718605669 -0.0077188281348248532 0.00010361635278986703 -0.0072252978689941504 0.0021814620639139617 -0.00055187028050444778 0.0058682946461472586 1.001137477469588 0.97198538367843657 0.0046928494018914245 0.95031500781783274 -0.016845924006043018 0.01176286675838348 -0.0050109068060720111 1.0147190298654556 -0.0014094232458785911 0.02109007964564415 0.00053728357665603884 0.0059469864955668987 0.01993506191670413 -0.0077813947270691042 0.019690343547592696 0.060972793330705773 0.005535215176091019 0.0059420921203329584 0.0016322876448599587 0.0053813885573348241 0.013001023699617909 -0.0038192154584072544
decision_type=2 2 2 2 2 2 2 2 2 2 2 2 2 2 2 2 2 2 2 2 2 2 2 2 2 2 2 2 2 2
left_child=2 6 4 8 11 24 -2 19 -4 17 15 -1 -12 -9 -10 21 -16 23 -11 20 -7 -6 -15 -5 -3 26 -8 -28 -27 -23
right_child=1 5 3 9 10 7 25 13 14 18 12 -13 -14 22 16 -17 -18 -19 -20 -21 -22 29 -24 -25 -26 28 27 -29 -30 -31
leaf_value=0.00079676587407214285 -0.013165789835985361 -0.02625455549576616 -0.017297848063269446 0.041871034707771697 -0.0039795938666665987 0.0057125459590965317 0.019590668006249035 -0.028278240483259845 -0.015486072425267075 0.016315515026906226 0.048524607674814209 0.027490845651869503 0.0044161405888453178 0.015532582230664369 0.016893161008331711 0.066417665421498254 -0.012847329556712129 -0.020281748545465987 0.047551609225569245 -0.034611629385799633 0.12774914178769378 0.014777146650501656 -0.017174436095065519 0.0077077307378786908 -0.046395054610513069 -0.0091032696186736338 0.11478442283771786 0.0051040564329861565 0.059665459749685006 0.04587325608637028
leaf_weight=514.8093108907342 367.1113460958004 889.03340228274465 585.91583213210106 79.240091197192669 49.228514447808266 354.02032363414764 240.00002734363079 540.64037649333477 218.50448288023472 164.41738592088223 86.191404268145561 291.8704717233777 244.67106091231108 120.14155642688274 425.5535582229495 112.60126534104347 128.75803183764219 91.854919143021107 184.11574675142765 53.06441830098629 7.2166893184185019 87.77202396094799 193.54428962618113 403.62616764008999 237.92544588446617 134.68574474751949 21.560654565691948 17.551847942173481 16.544398039579391 336.47218280285597
leaf_count=3148 3419 11870 5437 521 256 3707 1571 7116 1803 1076 371 1549 1340 1109 2616 503 1155 754 992 513 57 442 2236 2686 3426 861 122 109 98 1567
internal_value=-0.000290795 -0.0149777 0.0114168 0.00351421 0.0218794 -0.0208794 0.00275114 -0.0123272 -0.00587615 0.0173338 0.03193 0.0104551 0.0159066 -0.0196017 0.00278329 0.0409759 0.0099849 0.0079446 0.0328163 0.00267351 0.00815056 0.0349253 -0.00464766 0.0133141 -0.0305067 0.0163294 0.0260331 0.065565 -0.00158005 0.0394398
internal_weight=7198.64 3193.04 4005.6 2281.99 1723.62 2395.59 797.454 1268.63 1358.73 923.254 916.936 806.68 330.862 854.326 772.816 586.074 554.312 574.721 348.533 414.301 361.237 473.473 313.686 482.866 1126.96 430.343 279.113 39.1125 151.23 424.244
internal_count=62430 36214 26216 17040 9176 30034 6180 14738 11011 6029 4479 4697 1711 10461 5574 2768 3771 3961 2068 4277 3764 2265 3345 3207 15296 2761 1802 231 959 2009
is_linear=0
shrinkage=0.05


Tree=25
num_leaves=31
num_cat=0
split_feature=61 70 19 18 61 1 58 19 61 17 70 5 19 14 61 61 0 1 18 61 0 70 61 72 94 58 70 20 63 68
split_gain=451.621 224.888 86.5554 81.2124 87.139 82.1387 62.7921 60.4944 65.6866 66.7738 49.6054 58.9427 47.3432 45.7807 44.112 42.025 41.5738 41.4885 41.331 40.4178 40.142 36.5757 36.3146 34.7185 34.5504 33.9502 41.432 31.7852 44.807 30.716
threshold=-0.0054407481497070025 -0.0042274979617741822 -0.0039203495139901864 0.0095334519388462786 -0.015266093120910823 -0.0072252978689941504 -0.0041412750415946772 0.0021322596637788111 0.0017572252315803043 0.91031873803781826 -0.015637121145636545 0.0042611020264707528 0.0011354701542170692 0.58888888888888968 0.0037749596081671812 -0.019605334160482008 -1.0000000180025095e-35 0.00019672508716803581 0.004838063627215226 -0.011384999788259239 -0.0040612871418362123 -0.025903886808067596 0.0038677884373112415 1.0189426884300903 0.0014419874565288152 0.0027684205503488747 0.015923618398595386 -0.021766532890595689 1.0170230420736048 2.1913795493996195
decision_type=2 2 2 2 2 2 2 2 2 2 2 2 2 2 2 2 2 2 2 2 2 2 2 2 2 2 2 2 2 2
left_child=3 2 -2 4 6 -6 21 14 9 -9 -4 12 22 -11 -3 27 18 -18 -7 -20 -17 -1 23 -12 -21 -10 -27 -5 -29 -13
right_child=1 7 10 15 5 16 -8 8 25 13 11 29 -14 -15 -16 20 17 -19 19 24 -22 -23 -24 -25 -26 26 -28 28 -30 -31
leaf_value=0.043526220915658068 -0.019826679066092579 -0.020722191437924385 0.022252273974763943 -0.0034119005104617686 -0.0018579564346911167 0.033110469781748995 0.062327421800551119 -0.014436246887313512 -0.025224676549506539 0.0075927951104270879 0.00075402834435188632 -0.019374763043579248 0.02834120542537551 0.057361420422276078 -0.041780315034635807 -0.030899210196607813 0.024231084331623631 0.057421392874156187 0.037748006298977503 0.011121642999772821 0.0035926252698457264 -0.0116791106161332 -0.039119475858858936 0.037130742049324608 -0.0212338045845561 0.011858102363231692 -0.019952603802417351 0.0029676623765949651 0.072865775991775739 0.089757101950858426
leaf_weight=62.11127033829689 318.8561340495944 1129.3873226158321 474.91137424856424 76.79152512550354 415.6540109962225 266.2797120437026 206.31511380523443 183.54440120980144 581.91556121781468 114.05406172201037 476.27636263519526 275.15125831961632 240.70727092772722 77.677247241139412 318.91365642100573 139.07678607851267 240.78555858880281 154.61539442837238 96.333571597933769 282.17160823196173 214.38528948277235 58.040187694132328 49.069936111569405 76.068685315549374 116.60387139767408 176.67700520157814 243.3439600430429 43.099635057151318 48.986240655183792 6.6023729071021071
leaf_count=269 3075 13723 2864 377 2839 1459 926 1918 7641 991 3741 2125 1599 650 4854 946 1304 664 439 1651 1265 309 511 492 764 1700 2861 218 210 45
internal_value=-0.000286476 -0.00925566 0.00395985 0.0172839 0.0220866 0.0172062 0.0455933 -0.0182249 -0.0107223 0.00712003 0.00870374 0.0029786 0.00960188 0.0277559 -0.0253592 -0.000175817 0.0240563 0.0372096 0.0172255 0.00868227 -0.00997888 0.0168588 0.00210175 0.00576381 0.00166075 -0.0174052 -0.00657179 0.0203421 0.0401508 -0.0168175
internal_weight=7164.41 4743.16 1917.64 2421.25 1898.91 1572.44 326.467 2825.51 1377.21 375.276 1598.79 1123.88 842.122 191.731 1448.3 522.339 1156.79 395.401 761.389 495.109 353.462 120.151 601.415 552.345 398.775 1001.94 420.021 168.877 92.0859 281.754
internal_count=62430 48790 14452 13640 10624 9120 1504 34338 15761 3559 11377 8513 6343 1641 18577 3016 6281 1968 4313 2854 2211 578 4744 4233 2415 12202 4561 805 428 2170
is_linear=0
shrinkage=0.05


Tree=26
num_leaves=31
num_cat=0
split_feature=61 70 70 1 0 62 19 70 58 19 61 19 5 21 63 71 77 20 1 21 71 37 71 70 70 18 61 58 62 19
split_gain=418.387 131.7 112.717 81.4369 78.4162 67.2127 63.0666 66.587 61.4182 57.768 54.7021 53.3032 49.4343 45.8262 44.2299 41.3618 36.474 33.8303 31.5131 31.0246 40.3207 30.9039 30.6836 30.6766 29.1527 28.5568 30.5138 36.6271 28.1791 28.7927
threshold=-0.00075644235170886968 -0.0071775690071176962 -0.002239407322699402 0.0010105186742807967 0.0014641076687730147 -0.0023611873458142733 -0.0041782615345622755 -0.025201981088718642 0.0025888872239960459 -0.0020345349479486846 -0.012795339793157409 -0.00012696836420217025 0.0065526155717219514 -0.003791437477041078 1.0011947550592668 -0.015439340995333381 -0.18600335658121006 -0.0016296031908643288 0.010872817304779996 -0.0085572682709721039 -0.014035269552931122 0.73801750388545317 -0.072093461388769611 -0.021886199697395976 0.019690343547592696 0.0097140987813975847 -0.015266093120910823 -0.0044654805845113785 0.0035908898735847261 0.0060121588504373916
decision_type=2 2 2 2 2 2 2 2 2 2 2 2 2 2 2 2 2 2 2 2 2 2 2 2 2 2 2 2 2 2
left_child=1 6 3 -2 5 9 7 19 -4 16 -8 -6 15 -5 -11 -12 -3 -16 -15 22 -21 -18 -1 -17 -10 26 27 -9 -13 -30
right_child=2 4 8 13 11 -7 10 25 24 14 12 28 -14 18 17 23 21 -19 -20 20 -22 -23 -24 -25 -26 -27 -28 -29 29 -31
