tree
version=v4
num_class=1
num_tree_per_iteration=1
label_index=0
max_feature_idx=125
objective=binary sigmoid:1
feature_names=log_return_1 log_return_3 log_return_6 range_1 atr_proxy volatility_lookback hour_of_day day_of_week session_asia session_london session_newyork volume_zscore relative_volume volume_percentile body_ratio upper_wick_ratio lower_wick_ratio atr_normalized_range stop_distance dist_ema_fast dist_ema_slow trend_strength trend_direction ema_slow_slope sweep_high_detected sweep_low_detected sweep_depth_atr sweep_rejection_ratio sweep_volume_zscore bullish_fvg_present bearish_fvg_present fvg_size_atr fvg_age_candles price_inside_fvg breakout_volume_confirmation rejection_volume_confirmation volume_block_strength atr_percentile range_compression high_volatility_flag market_regime funding_rate funding_rate_abs funding_rate_mean_4 funding_rate_std_4 mark_basis mark_premium mark_premium_mean_4 futures_pressure m1_bull_ratio m1_vol_tail_pct m1_max_body_ratio m1_trend m1_atr_ratio m1_volume_zscore m5_bull_ratio m5_vol_tail_pct m5_max_body_ratio m5_trend m5_atr_ratio m5_volume_zscore btc_1h_log_return_1 btc_1h_log_return_3 btc_1h_ema_fast btc_1h_ema_slow btc_1h_trend_strength btc_1h_trend_dir btc_1h_atr_pct btc_1h_volume_zscore btc_1h_regime btc_4h_log_return_1 btc_4h_log_return_3 btc_4h_ema_fast btc_4h_ema_slow btc_4h_trend_strength btc_4h_trend_dir btc_4h_atr_pct btc_4h_volume_zscore btc_4h_regime btc_1d_log_return_1 btc_1d_log_return_3 btc_1d_ema_fast btc_1d_ema_slow btc_1d_trend_strength btc_1d_trend_dir btc_1d_atr_pct btc_1d_volume_zscore btc_1d_regime eth_return_1 eth_return_3 eth_trend eth_volume_block sol_return_1 sol_return_3 sol_trend sol_volume_block gold_return_1d gold_return_5d gold_ema_fast gold_ema_slow gold_trend gold_trend_dir oil_return_1d oil_return_5d oil_ema_fast oil_ema_slow oil_trend oil_trend_dir dxy_return_1d dxy_return_5d dxy_ema_fast dxy_ema_slow dxy_trend dxy_trend_dir spx_return_1d spx_return_5d spx_ema_fast spx_ema_slow spx_trend spx_trend_dir vix_return_1d vix_return_5d vix_ema_fast vix_ema_slow vix_trend vix_trend_dir
feature_infos=[-0.09041019507896858:0.10768446076881111] [-0.17335116589108704:0.13438175691511467] [-0.16279109876008571:0.2178206803430961] [0.00081499592502040576:0.22936071126164267] [0:10.792857142857144] [0:0.035541384023889427] [0:23] [0:6] [0:1] [0:1] [0:1] [-2.4473305663500002:4.2426460585913208] [0.071255503963312955:19293.708999999999] [0:1] [0:1] [0:1] [0:1] [0:8.2527430949678351] [0:0.053190303988006594] [-0.12222439158656559:0.092725717336637536] [-0.16574125906593534:0.13233865165711137] [-0.049784264422340456:0.051430409392998533] [-1:1] [-0.014217671183632688:0.015252339165488999] [0:1] [0:1] [0:3.0314161430642823] [0:0.98437500000001388] [-1.8482439289403616:8.3672639974187106] [0:1] [0:1] [0:4.6955177743431165] [0:999] [-1:1] [0:4.2426460585913208] [0:4.1679580496019604] [0:4.5483266953207009] [0:1] [0:0.52368220015278633] [0:1] [-1:1] none none none none none none none none [0.066666666666666666:1] [0.0070880728312247296:0.8687093052167022] [0.50000000000004441:1] [-0.030721462762508964:0.014026980739461826] [0.032857142857145458:4.4728571428571415] [-2.35209017929908:4.2461711406386815] [0:1] [0.025363689419660922:0.97016383295208641] [0.031249999999970857:1] [-0.054991180531195574:0.04656095175106726] [0.11142857142857565:11.329285714285717] [-2.322918081966141:4.2397157247518793] [-0.095569537666229068:0.11270169977947467] [-0.13385917307799683:0.19714413098056266] [0.87627101013350306:1.1283426692738123] [0.85163765271353431:1.1822852450250381] [-0.062482396644598995:0.055862926468242736] [-1:1] [0:0.066189624329159188] [-2.4292022570932024:4.2426858929505542] [-1:1] [-0.15544462005523771:0.11839629746172868] [-0.17674183687429698:0.21955599084370828] [0.87552629102258539:1.1387342420752036] [0.82459263664145233:1.2361463279767879] [-0.097412085901584386:0.074411362922553959] [-1:1] [0:0.089912178936866274] [-2.0407853433984546:4.1317643905614352] [-1:1] [-0.22956902832394238:0.21878989406911528] [-0.25438812438101255:0.26124054635214561] [0.81684610974570737:1.1989236099479941] [0.74540521905694479:1.3037517794582629] [-0.1344646398568238:0.11029555779867606] [-1:1] [0:0.16086588871977001] [-2.015347018085178:4.1812009983606746] [-1:1] [-0.04832452516267341:0.031568184591943091] [-0.076640046063691042:0.063346432335985012] [-0.027387549847263003:0.024405539106781556] [0:4.3608682025128944] [-0.099446723516727592:0.092430499214559078] [-0.13813637119276417:0.10939641052517758] [-0.059277062181200442:0.03604832788331977] [0:4.6393174925371055] [-0.03729596062718759:0.032973254571937123] [-0.060968475254185237:0.084680320243828572] [0:1.0318324864480544] [0:1.0387109496239975] [-0.013552050412290875:0.030825046746169066] [-1:1] [-0.089574597252929655:0.070089696022911305] [-0.17817279753831927:0.14127287057139246] [0:1.0969112310548137] [0:1.1255793479486649] [-0.040803565775165758:0.049074156231914079] [-1:1] [-0.019925071373086668:0.016018741767101052] [-0.035686415870970691:0.027696452929837568] [0:1.0242388360487171] [0:1.0351943449985415] [-0.015750939562693685:0.008761870926379851] [-1:1] [-0.061609061898230934:0.090894879833036457] [-0.12266859018076186:0.07978869774574511] [0:1.0842435716467713] [0:1.1082896208395034] [-0.038414436962718956:0.022760384685888101] [-1:1] [-0.44244875916441467:0.55410965103896503] [-0.62865397896855968:0.87703695910092472] [0:1.2922893212610334] [0:1.3733007100084338] [-0.17593381470394809:0.18846479647704209] [-1:1]
tree_sizes=3416 3501 3486 3524 3511 3537 3529 3538 3533 3534 3540 3542 3546 3533 3538 3543 3531 3536 3540 3554 3544 3559 3545 3538 3537 3561 3542 3547 3553 3539 3560 3549 3553 3544 3547 3534 3554 3538 3532 3548 3538 3522 3533 3539 3519 3540 3537 3548 3538 3533 3545 3528 3541 3531 3531 3548 3558 3550 3540 3541 3539 3550 3547 3545 3532 3528 3528 3525 3556 3504 3525 3556 3528 3560 3534 3556 3564 3549 3542 3519 3535 3535 3544 3523 3552 3523 3543 3511 3554 3535 3529 3540 3526 3534 3547 3550 3525 3549 3560 3546 3526 3507 3519 3528 3538 3525 3524 3554 3527 3535 3535 3515 3551 3535 3511 3527 3562 3527 3511 3533 3523 3547 3482 3544 3511 3516 3508 3495 3498 3511 3495 3549 3497 3516 3540 3488 3513 3516 3548 3530 3541 3492 3515 3521 3528 3485 3523 3524 3511 3520 3555 3531 3512 3506 3503 3491 3527 3493 3493 3505 3509 3496 3528 3531 3536 3503 3493 3487 3505 3508 3505 3522 3519 3520 3507 3484 3493 3498 3500 3517 3507 3513 3501 3511 3497 3510 3519 3524 3482 3511 3525 3504 3514 3522 3509 3508 3530 3478 3511 3483 3493 3480 3509 3488 3495 3496 3527 3494 3507 3514 3462 3487 3515 3497 3535 3506 3489 3545 3508 3524 3498 3506 3520 3477 3481 3533 3475 3489 3523 3514 3500 3478 3482 3513 3481 3524 3528 3499

Tree=0
num_leaves=31
num_cat=0
split_feature=61 1 70 61 19 61 61 5 1 70 5 0 19 70 63 19 61 19 1 61 17 19 70 70 17 71 63 63 5 63
split_gain=3623.52 1094.81 1072.87 520.321 501.773 404.798 367.405 363.165 350.852 308.754 266.684 231.191 179.889 166.324 154.804 149.514 149.472 205.615 134.122 123.537 121.565 113.937 162.804 111.12 107.378 101.584 97.481 90.7408 87.7501 85.8648
threshold=0.008380344865977352 0.0066024896462718802 0.0071679349660480002 0.011557079118492576 0.0024622604676108159 0.0030113990455214322 0.0017033100783793098 0.0045989758631517384 0.0014093985859835523 0.011847946574041247 0.0041275300126629383 1.0000000180025095e-35 0.0043742958120655375 0.019355214000252998 1.0018732933173926 0.002004640878024867 0.01609542442985528 0.0093375375083397921 -0.0004811816780897462 0.00025095428822044416 0.84627855855195089 -0.00021448535178994951 -0.0043825754520343983 0.041268823092001646 1.2544802867383502 -0.011796357726431927 0.98988842358607487 1.0003744945730215 0.0038904043000594288 1.0034507797765513
decision_type=2 2 2 2 2 2 2 2 2 2 2 2 2 2 2 2 2 2 2 2 2 2 2 2 2 2 2 2 2 2
left_child=2 3 5 10 6 21 13 -5 11 -3 12 24 25 -4 15 -9 28 26 20 -6 -8 22 -1 -19 27 -2 -18 -7 -11 -20
right_child=1 9 4 7 19 8 18 14 -10 16 -12 -13 -14 -15 -16 -17 17 23 29 -21 -22 -23 -24 -25 -26 -27 -28 -29 -30 -31
leaf_value=-1.8958385876492034 -1.7802079895296494 -1.8602879426830308 -1.8531501318139105 -1.5649472571234375 -1.903560171475001 -1.7484049472670893 -1.7855317651758136 -1.591784610145027 -1.8792942382362978 -1.769972554967733 -1.8124439662632443 -1.8522965101457916 -1.8159645452967961 -1.7870651389124541 -1.8122995555961277 -1.736248010733622 -1.5949240187362526 -1.8191079787708309 -1.7834917548552036 -1.8577912698056886 -1.6880511916115648 -1.9055038301091818 -1.8688498864854508 -1.7122753074780475 -1.6715061504351325 -1.6416246869367799 -1.769262105111135 -1.8376101833994734 -1.8463529739903297 -1.8629931198412955
leaf_weight=1727.4221820831299 16.314024925231934 223.03602647781372 464.01748037338257 81.68665337562561 202.52696657180786 68.052789688110352 60.711478471755981 33.094164848327637 544.6553750038147 61.760237216949463 110.23619699478149 168.61710047721863 26.91814112663269 119.79155445098877 25.985911130905151 39.037131071090698 26.91814112663269 69.684192180633545 182.71707916259766 541.97521376609802 67.586674690246582 1255.7138042449951 825.95577621459961 37.405728578567505 24.93715238571167 69.800720930099487 11.419817447662352 49.058603525161743 96.136218309402466 41.717292308807373
leaf_count=14824 140 1914 3982 701 1738 584 521 284 4674 530 946 1447 231 1028 223 335 231 598 1568 4651 580 10776 7088 321 214 599 98 421 825 358
internal_value=-1.86035 -1.76814 -1.87385 -1.70613 -1.8396 -1.88619 -1.81525 -1.64283 -1.85511 -1.81563 -1.75711 -1.81271 -1.70314 -1.83959 -1.70766 -1.66997 -1.78279 -1.74622 -1.77496 -1.87024 -1.73418 -1.89317 -1.88711 -1.78179 -1.76571 -1.66788 -1.64685 -1.78577 -1.81648 -1.79827
internal_weight=7274.89 929.433 6345.46 403.073 1681.04 4664.41 936.542 179.804 855.321 526.36 223.269 310.666 113.033 583.809 98.1172 72.1313 303.324 145.428 352.733 744.502 128.298 3809.09 2553.38 107.09 142.049 86.1147 38.338 117.111 157.896 224.434
internal_count=62430 7976 54454 3459 14426 40028 8037 1543 7340 4517 1916 2666 970 5010 842 619 2603 1248 3027 6389 1101 32688 21912 919 1219 739 329 1005 1355 1926
is_linear=0
shrinkage=1


Tree=1
num_leaves=31
num_cat=0
split_feature=61 1 70 61 19 61 1 18 61 1 70 0 61 64 18 61 61 1 0 70 19 72 70 20 1 20 70 19 62 0
split_gain=3165.72 875.224 784.677 532.415 388.07 353.757 327.903 266.436 211.998 269.005 171.026 167.462 156.876 151.902 151.799 130.425 121.97 119.617 111.549 111.273 106.128 101.546 99.7086 97.7081 93.5547 87.5868 79.003 110.306 76.0421 74.8157
threshold=0.0058450917623463616 0.0030467138202439768 0.007566867860594813 0.011557079118492576 0.0014324218546218641 0.010497879806147746 0.0097186692035011232 0.0054271438934720027 0.0021699724089936146 -0.00059778820300542674 0.02755449343204882 -0.00039423713099736793 0.0016360976779157433 1.0040680230122803 0.0056468263968597722 0.015502373851106669 0.00025095428822044416 0.0078024942902260403 -0.0013003903070703949 0.019355214000252998 -0.0065047493925030732 1.0018020125587983 -0.0065765045041414902 0.01905757486044132 -0.0017458806374961568 0.014846209770744712 -0.0053372573396495383 -0.00021448535178994951 0.0044148733614664043 -0.00053830834075623577
decision_type=2 2 2 2 2 2 2 2 2 2 2 2 2 2 2 2 2 2 2 2 2 2 2 2 2 2 2 2 2 2
left_child=2 5 8 17 12 7 14 -2 20 18 -8 24 19 25 -5 -16 -6 21 -10 -4 22 -3 -1 -12 -9 28 -22 -28 -7 -14
right_child=1 3 4 6 16 13 10 11 9 -11 23 -13 29 -15 15 -17 -18 -19 -20 -21 26 -23 -24 -25 -26 -27 27 -29 -30 -31
leaf_value=-0.02276754525345694 0.14793927122609773 0.04349607140155038 0.015180921948006847 0.2135304390883194 -0.036712487465992337 0.13829648609133163 0.017946361683706499 0.16708404685730144 0.092757629329490013 -0.021003697787400018 0.1559415479136384 0.018854424765734651 0.1155403911352493 0.097341194067405823 0.05540835187887614 0.16145178769029664 0.006227898287812267 -0.019142877165514292 0.015939641778465821 0.073927859277229307 -0.045198508155944353 -0.011234855957122848 0.032604366835737933 0.05750030700400556 0.060310444645517103 0.041966000196786854 -0.01627141236519274 -0.04321758456960683 0.24043445953688811 0.051455697785471155
leaf_weight=476.36770144104958 120.39061081409454 257.46382008492947 354.70680862665176 45.578787088394165 261.03697834163904 22.989662483334541 182.19652394205332 38.543646968901157 77.45008922368288 617.43989226967096 43.08532390743494 127.90737572312355 90.721131294965744 41.907232403755188 60.932261317968369 55.321029789745808 451.2409210652113 246.72342273592949 121.23150625824928 104.3080700263381 1440.0263377651572 126.33507592976093 98.03130216896534 60.745283581316471 43.860578030347824 7.4333593100309363 812.30484108626842 713.29084698855877 87.889378987252712 91.454922705888748
leaf_count=4196 977 2159 3028 340 2283 171 1527 308 637 5351 342 1064 725 328 489 429 3823 2105 1032 849 12709 1071 850 488 362 58 7027 6322 638 742
internal_value=-7.33716e-05 0.0628226 -0.0173605 0.0376286 0.0158931 0.118165 0.0793145 0.0886217 -0.0276925 -0.00471994 0.0471334 0.054666 0.0441115 0.179143 0.136192 0.105871 -0.00950898 0.00801924 0.0458848 0.0285308 -0.0329887 0.0254803 -0.0133174 0.0983493 0.110253 0.208118 -0.0367987 -0.0288701 0.219257 0.083369
internal_weight=7278.91 1569.3 5709.61 1078.38 1353.47 490.922 447.859 330.702 4356.14 816.121 286.027 210.312 641.191 160.22 161.832 116.253 712.278 630.522 198.682 459.015 3540.02 383.799 574.399 103.831 82.4042 118.312 2965.62 1525.6 110.879 182.176
internal_count=62430 12856 49574 8950 11450 3906 3615 2711 38124 7020 2357 1734 5344 1195 1258 918 6106 5335 1669 3877 31104 3230 5046 830 670 867 26058 13349 809 1467
is_linear=0
shrinkage=0.05


Tree=2
num_leaves=31
num_cat=0
split_feature=61 1 61 1 61 63 5 61 5 1 19 72 55 5 72 62 20 19 61 52 71 21 61 1 20 61 61 19 95 19
split_gain=2759.33 675.342 502.494 488.903 438.295 309.643 273.51 198.981 233.557 158.551 154.031 139.938 131.185 124.729 123.369 118.548 102.331 95.7611 93.3681 79.3331 78.7461 83.2349 75.1481 99.4551 76.7761 70.149 69.0636 66.1257 62.9592 60.918
threshold=0.0058450917623463616 0.0030467138202439768 -0.00016153597662055109 -0.00077500094509266686 0.011557079118492576 0.99933711385724167 0.004281414897561551 0.011975932875342378 0.0044448045682327448 -0.003943896970667291 0.0056375527160230513 0.99623102970523403 0.50000000000000011 0.0029231845566142587 1.0159003643735853 0.019761321899260567 0.014343705650522722 0.00090947550370496183 0.0031516311317918554 -0.00059798898510156253 0.012341922940287907 0.0022192093396681089 0.024959006025710915 0.013001023699617909 0.020084898153353885 0.0078108557752432119 0.01609542442985528 0.0061716115650355266 1.7703825936245792 0.0050975229498495351
decision_type=2 2 2 2 2 2 2 2 2 2 2 2 2 2 2 2 2 2 2 2 2 2 2 2 2 2 2 2 2 2
left_child=2 5 9 12 13 7 10 8 17 20 -6 -5 18 -3 22 -12 -17 -2 28 -7 -1 -22 23 26 -24 -19 -8 -9 -4 -15
right_child=1 4 3 11 6 19 14 27 -10 -11 15 -13 -14 29 -16 16 -18 25 -20 -21 21 -23 24 -25 -26 -27 -28 -29 -30 -31
leaf_value=-0.02268390361690549 0.17636970114498923 0.050665452758538558 0.035799584296024832 0.0025352066064489379 0.19140830390859909 0.13636128421849128 0.041510667275041546 0.19624042417480089 0.036958111829806899 -0.038267182380294612 0.028213489573397994 -0.026762201032398208 0.013002793976722852 0.011438782251325295 -0.016992932873106593 0.20510871731459962 0.067562651698622606 0.068738855530670939 0.099413851284530674 0.027924740252226361 0.035495697427267478 -0.015887321614337448 0.17961870303160149 0.0080362696583408996 0.063042077557063605 0.15010883669599862 0.12463735042823541 0.043929641472622412 0.13263974971682324 -0.023712086547913579
leaf_weight=1114.134397521615 82.438268415629864 132.68950620293617 232.11938393861055 776.6440828666091 56.399954907596111 19.39516519755125 54.313187189400196 98.534169003367424 87.13217880576849 1939.3970318511128 45.236697025597095 857.71453707665205 270.5068593993783 283.41595147550106 64.864091828465462 27.668424740433693 26.448508955538273 59.896879464387894 102.73604520410299 129.41011020541191 134.00963334739208 191.35592111945152 23.593083940446377 93.071986429393291 35.188328109681606 47.485684521496296 46.275710888206959 7.6815954297780982 18.091873407363892 218.11597889661789
leaf_count=9914 592 1098 1984 6685 384 145 429 617 686 17392 352 7550 2295 2378 521 196 205 466 785 1009 1154 1662 174 749 270 336 335 55 153 1859
internal_value=-0.000127651 0.0569697 -0.0167326 0.00153017 0.0347251 0.103271 0.071149 0.127043 0.104729 -0.0289359 0.125414 -0.0128401 0.0392013 0.00755686 0.0445124 0.087951 0.137886 0.135838 0.0592804 0.0420583 -0.0163642 0.00527601 0.060316 0.0452864 0.109832 0.104722 0.0797529 0.185225 0.0428017 -0.00384831
internal_weight=7275.97 1639.26 5636.71 2257.81 1107.28 531.974 473.06 383.169 276.953 3378.9 155.754 1634.36 623.454 634.221 317.306 99.3536 54.1169 189.821 352.947 148.805 1439.5 325.366 252.442 193.661 58.7814 107.383 100.589 106.216 250.211 501.532
internal_count=62430 12856 49574 19452 8950 3906 3615 2752 2080 30122 1137 14235 5217 5335 2478 753 401 1394 2922 1154 12730 2816 1957 1513 444 802 764 672 2137 4237
is_linear=0
shrinkage=0.05


Tree=3
num_leaves=31
num_cat=0
split_feature=61 61 1 70 1 19 0 72 63 70 72 19 5 61 19 70 71 20 19 63 61 19 20 70 70 61 64 70 70 21
split_gain=2455.71 607.953 553.503 532.909 433.975 272.307 226.531 142.575 141.624 136.946 129.425 125.705 108.37 160.222 106.725 159.842 105.89 99.5721 99.2522 113.015 90.9948 77.9771 74.3154 116.314 82.8298 70.2433 68.3627 65.798 65.075 71.9536
threshold=0.0035939100688337326 0.011557079118492576 0.0030467138202439768 0.007566867860594813 0.0076287042059949252 0.0017315823380274393 -0.00039423713099736793 1.0050362162113293 1.0009995895925137 0.004714075571998458 1.0035074395248211 0.0048016883339125739 0.0044448045682327448 0.0078108557752432119 -0.00021448535178994951 -0.00087785736670916911 -0.0019420350421661876 0.013904860208675136 0.00090947550370496183 1.0008129839159086 0.008380344865977352 -0.0068630260798991771 0.014343705650522722 0.020663744153315195 0.041268823092001646 -0.00023186403891842664 1.0010806932139265 -0.011229609806292186 0.020663744153315195 0.0042874910348917692
decision_type=2 2 2 2 2 2 2 2 2 2 2 2 2 2 2 2 2 2 2 2 2 2 2 2 2 2 2 2 2 2
left_child=3 2 6 14 8 16 18 22 17 -4 12 20 13 -8 15 21 -5 -3 19 -2 -11 27 23 -6 -24 -23 -22 -1 29 -18
right_child=1 4 9 5 7 -7 10 -9 -10 11 -12 -13 -14 -15 -16 -17 28 -19 -20 -21 26 25 24 -25 -26 -27 -28 -29 -30 -31
leaf_value=-0.022269332359263594 0.13687393587745797 0.15399991669916036 -0.023511994866834463 -0.0025291521435430613 0.054280329754468837 -0.018565099634680487 0.047657093289570115 -0.0078059833009483355 0.042587916705389521 0.021540903666802835 0.00055104182428803567 -0.0080728865858351543 0.0017801094274946178 0.14152131767201445 -0.041303724857104256 0.0010176313515850742 0.044711427448936331 0.049347956001097461 0.047127626945538931 0.061787390996211812 0.12073650165384438 -0.04129287789483059 0.014051214719537269 0.15052418427920561 0.095583744623650685 -0.014256011165100148 0.023533839076425436 0.022689400288362624 0.078794621175982474 -0.015875757380560438
leaf_weight=381.98322366178036 133.40917204320431 217.66906713694334 377.26767735183239 160.01543725281954 81.775140352547169 461.1610739454627 195.89590537548065 91.389067120850086 40.977662168443203 213.4908534437418 174.38576186448336 291.09405138343573 77.0550831630826 59.203475579619408 1282.0522514432669 523.07387065142393 281.26111091673374 25.379248358309269 94.487807705998421 80.262071825563908 48.879272401332855 1178.953472495079 99.937715969979763 50.952740646898746 45.257080897688866 301.71199102699757 28.714883178472519 103.41342338174582 107.38301438838243 59.343305967748165
leaf_count=3467 937 1284 3271 1335 622 4085 1562 733 300 1786 1420 2479 620 384 11889 4587 2334 174 729 599 373 10869 779 344 324 2668 236 908 831 501
internal_value=-0.000167444 0.0408734 0.0256889 -0.0207498 0.0821071 0.0104086 0.0559962 0.0463703 0.128575 -4.60841e-05 0.0354318 0.0151605 0.0537447 0.0694411 -0.0295835 -0.0235469 0.0323847 0.143072 0.0897991 0.108669 0.0383945 -0.0300823 0.0641851 0.0912273 0.0394648 -0.0357836 0.0847652 -0.0126909 0.0448554 0.0341554
internal_weight=7267.84 2427.48 1774.15 4840.35 653.338 1069.16 814.699 369.312 284.026 959.447 506.54 582.179 332.154 255.099 3771.19 2489.14 608.003 243.048 308.159 213.671 291.085 1966.06 277.923 132.728 145.195 1480.67 77.5942 485.397 447.987 340.604
internal_count=62430 18956 14396 43474 4560 9086 6251 2802 1758 8145 3986 4874 2566 1946 34388 22499 5001 1458 2265 1536 2395 17912 2069 966 1103 13537 609 4375 3666 2835
is_linear=0
shrinkage=0.05


Tree=4
num_leaves=31
num_cat=0
split_feature=70 58 70 63 20 63 20 63 62 20 63 63 21 21 21 70 19 70 63 20 63 21 62 20 63 63 21 70 63 20
split_gain=1931.41 295.352 287.142 239.151 453.736 225.127 321.976 187.711 157.492 156.901 184.385 110.871 209.358 106.066 102.611 101.142 94.3683 90.0018 89.1249 188.054 90.8993 146.11 86.7857 129.597 128.717 84.5737 85.8492 80.7475 78.3517 83.9073
threshold=0.0073888981769467685 0.0014605375357444827 0.015255339334417873 0.99914862170390706 -0.000646119064717273 0.9904501529962656 0.00980292279022397 1.0013768576528748 0.0033655728729107335 -0.0040586201319798921 1.0022295814430737 0.98397887197807876 0.0061787527368794811 0.00011173689297087171 0.0061787527368794811 0.02755449343204882 -0.0090767808604812535 -0.015985993827842351 1.0029608222840187 -0.0010622677461558836 0.98988842358607487 0.0034174134608087885 0.0039216276681316269 0.0023608596840260731 0.99517634414059652 0.98740665507833969 0.0055111477344523948 -0.0048776159077176971 0.98895907968306329 0.0014541919298572809
decision_type=2 2 2 2 2 2 2 2 2 2 2 2 2 2 2 2 2 2 2 2 2 2 2 2 2 2 2 2 2 2
left_child=3 2 18 4 8 6 25 14 13 10 -5 12 -8 -1 28 -7 17 -12 19 -2 21 -21 -6 24 -24 26 -3 -18 -4 -30
right_child=1 5 7 9 22 15 11 -9 -10 -11 16 -13 -14 -15 -16 -17 27 -19 -20 20 -22 -23 23 -25 -26 -27 -28 -29 29 -31
leaf_value=0.078610583562003303 0.1008320477309964 0.15943546633750066 0.15547273356323321 0.051701419132258147 -0.027679425374563849 -0.016004876397117614 0.094735503763264936 0.035504702842934902 0.12688456218942298 -0.039235607174733234 -0.014272132172925257 -0.013418733801809704 0.009808855444498478 -0.00016712637178926517 0.024655261904093867 0.060343385654810136 -0.034851455596489646 0.042007595831108996 0.00290791606499082 0.16805979265771129 0.019902503948697199 0.024762085083434311 0.10168701439173196 -0.012435537030508868 0.004362206887492461 0.062741865695667573 0.025457545495840034 -0.0057841550724768952 0.13141345817789127 0.070202553990975025
leaf_weight=78.015044540166855 113.93060263991356 64.390441045165062 78.865552105009556 93.34722775220871 652.43395467102528 433.08435175567865 101.28541904687881 147.35060818493366 64.814919978380203 1417.0471770167351 233.80369025468826 189.58245151489973 255.93949178606272 94.463592402637005 37.254816114902496 48.206835456192493 895.8116395547986 102.04084986448288 179.73139550536871 28.879686832427979 402.1347925812006 46.319417595863342 52.815363846719265 695.65402131527662 95.223857529461384 85.134361952543259 14.683178611099718 325.82561159133911 101.36124540120363 125.06591001152992
leaf_count=578 823 409 465 766 5893 3687 707 1139 448 13188 2128 1565 2042 824 280 388 8309 873 1486 178 3228 361 385 6143 845 662 113 2852 696 969
internal_value=-0.000201756 0.0358907 0.0527612 -0.018643 -0.00379756 0.0180497 0.035925 0.0826943 0.0604358 -0.027031 -0.0165548 0.0174867 0.0338885 0.0354654 0.102993 -0.00835772 -0.0206457 0.00282754 0.0337414 0.0431141 0.0293379 0.0797946 -0.0139853 -0.00339556 0.0390844 0.0973242 0.134557 -0.0270989 0.112553 0.0976039
internal_weight=7254.5 2453.2 1260.89 4801.3 1733.42 1192.31 711.015 489.898 237.294 3067.88 1650.83 546.807 357.225 172.479 342.548 481.291 1557.48 335.845 770.996 591.264 477.334 75.1991 1496.13 843.693 148.039 164.208 79.0736 1221.64 305.293 226.427
internal_count=62430 19198 9625 43232 15116 9573 5498 3549 1850 28116 14928 4314 2749 1402 2410 4075 14162 3001 6076 4590 3767 539 13266 7373 1230 1184 522 11161 2130 1665
is_linear=0
shrinkage=0.05


Tree=5
num_leaves=31
num_cat=0
split_feature=61 61 70 1 1 19 5 88 70 91 19 70 70 4 61 19 61 4 70 19 93 61 61 71 21 68 70 1 19 63
split_gain=2047 455.959 449.037 417.591 361.003 223.938 136.31 134.715 127.727 119.756 103.571 150.598 96.8488 88.2343 86.7047 84.5938 73.4576 72.1046 71.3857 68.2648 66.1921 70.6636 64.906 62.5473 56.6394 53.9071 52.1916 49.6433 48.6729 48.2625
threshold=0.0035939100688337326 0.010218744794558332 0.007566867860594813 0.0030467138202439768 0.0074742872774537436 0.00082734716097487241 0.0044862854907711707 0.00099515775880986129 0.0093530350151825176 0.18227056360229277 -0.00021448535178994951 -0.0036442479736346913 0.011847946574041247 0.80857142857142972 0.00025095428822044416 0.0083821611961069614 0.014478694596956457 0.80500000000000027 0.041268823092001646 -0.012495208176262857 -0.011879338326515288 -0.00075644235170886968 -0.00023186403891842664 -0.0019420350421661876 0.0042874910348917692 0.75227435708518708 0.0045416993280247581 0.0020496318184020962 0.0031396106365346415 1.0004622133482692
decision_type=2 2 2 2 2 2 2 2 2 2 2 2 2 2 2 2 2 2 2 2 2 2 2 2 2 2 2 2 2 2
left_child=2 3 10 7 6 23 -3 9 -6 17 11 19 -5 28 -7 -10 -8 26 -17 -1 -13 -22 -21 -4 29 -9 -2 -16 -14 -25
right_child=1 4 5 12 8 14 16 25 15 -11 -12 20 13 -15 27 18 -18 -19 -20 22 21 -23 -24 24 -26 -27 -28 -29 -30 -31
leaf_value=0.0018163756926284386 0.040647515589464778 0.12751311056927528 0.003178137196614075 -0.015923886498075603 -0.0063734135832828366 -0.032520704223445045 0.035820582895599522 0.0040825402467770562 0.089148750311562136 0.096477692813302623 -0.040014842315589265 0.089011410565191088 0.11884742912709204 -0.0002498261701055473 0.02985203835271379 0.016483350657301232 0.097125310342987714 0.028374319097766387 0.08025132455340199 -0.038765330256741164 -0.016174746374900482 0.017345928681838152 -0.011436737053145943 0.070643875929417649 0.0032880860999517461 0.068168256076440489 0.09737553272385982 -0.011577311607714292 0.037804071542524631 0.030840548786038521
leaf_weight=146.82795839011669 75.217259168624878 211.81834441423416 134.8798640742898 555.42975894361734 132.63924647122622 285.54226849228144 88.182832844555378 196.05865210294724 103.55897928774357 159.8396247625351 1217.5547688752413 18.698219701647758 24.366278052330017 194.52700674533844 126.19350837916136 157.32480148226023 109.59014870971441 246.3828494027257 60.868025742471218 1224.8967003375292 529.61650641262531 223.59776533395052 264.11181907355785 164.84795492142439 73.152663692831993 39.410434372723103 87.960891753435135 169.33530050516129 77.300776682794094 141.55230367928743
leaf_count=1352 576 1168 1107 4847 1091 2608 605 1514 702 1113 11889 157 182 1602 1024 1175 640 1813 399 11852 4803 1932 2403 1247 577 294 609 1438 626 1085
internal_value=-0.000228792 0.0361533 -0.0196535 0.0207948 0.0655999 0.00839878 0.0996416 0.0466181 0.0349144 0.0597726 -0.0281304 -0.0221206 -0.0036108 0.019479 -0.0128717 0.0519349 0.0697908 0.0454476 0.0342723 -0.0307105 -0.00391696 -0.00622386 -0.0339179 0.0324245 0.0428177 0.0148086 0.0712267 0.0061134 0.0572275 0.0522553
internal_weight=7241.28 2520.48 4720.81 1656.49 863.982 1095.5 409.591 804.87 454.391 569.401 3625.3 2407.75 851.624 296.194 581.071 321.752 197.773 409.561 218.193 1635.84 771.912 753.214 1489.01 514.433 379.553 235.469 163.178 295.529 101.667 306.4
internal_count=62430 18956 43474 13176 5780 9086 2413 5919 3367 4111 34388 22499 7257 2410 5070 2276 1245 2998 1574 15607 6892 6735 14255 4016 2909 1808 1185 2462 808 2332
is_linear=0
shrinkage=0.05


Tree=6
num_leaves=31
num_cat=0
split_feature=61 70 61 1 1 19 0 70 5 70 19 70 5 19 61 17 70 61 19 19 19 70 70 61 5 70 61 61 1 4
split_gain=1831.09 417.576 386.225 372.949 287.102 200.695 195.177 124.271 103.28 102.03 100.367 143.722 83.0681 79.9887 74.4965 73.0329 72.6104 69.4377 72.465 67.1897 65.1637 62.6508 60.4728 58.6581 58.4282 54.649 52.3799 51.4939 49.4913 45.7261
threshold=0.0035939100688337326 0.007566867860594813 0.010497879806147746 0.0042792034312624594 0.0076287042059949252 0.0017315823380274393 -0.00039423713099736793 0.0059400998445583893 0.0060491476254969203 0.0093530350151825176 -0.00021448535178994951 -0.0051824963276599963 0.0027289618698502992 -0.0037567874531595643 -0.00030811905335407841 0.79767441860466459 0.018876979723592559 0.014478694596956457 0.0042064084582409096 0.0083821611961069614 -0.012495208176262857 0.011635483887867016 0.033376890387572057 0.0063571804559994132 0.0033833929134563533 0.028401115483808591 0.00025095428822044416 -0.0011006868424373116 0.0003037980247841162 2.2817857142857152
decision_type=2 2 2 2 2 2 2 2 2 2 2 2 2 2 2 2 2 2 2 2 2 2 2 2 2 2 2 2 2 2
left_child=1 10 3 6 8 16 15 -8 17 -6 11 20 23 -13 -15 -2 -3 18 -4 -11 -1 -5 -21 -9 -23 -10 -7 -22 -17 -24
right_child=2 5 4 21 9 26 7 12 25 19 -12 13 -14 14 -16 28 -18 -19 -20 22 27 24 29 -25 -26 -27 -28 -29 -30 -31
leaf_value=0.00075933351002767174 0.040409234238618988 0.016025541123926901 0.10678045401919714 -0.020596053523465267 -0.0055410466889095683 -0.034942361760340185 0.0010347666974136395 0.050782300671669868 0.027442077511099439 0.081456763542573835 -0.039238252192451167 0.018604916567569688 0.028548419505002472 -0.025811180333946915 0.010637978935987462 0.10486748741110977 0.05454559181027855 0.1345955616401219 0.03791810687331109 0.0099896600196575924 -0.039840395079482574 0.042631808699600204 0.084886379221609048 0.13218376739061077 -0.007062514703104858 0.10550311892308387 -0.00090923605042678287 -0.01579909390570523 0.057397719138275877 0.0056899545369522775
leaf_weight=144.34745945781469 149.70281335711479 485.49291745573282 126.89388674497604 424.98042865097523 124.02757126092911 222.54022518545389 334.40709584951401 52.438117899000645 79.68157097697258 101.65912353247404 1180.5170770138502 245.22441790997982 227.35825161635876 464.20723459124565 200.83423635363579 133.88148382306099 163.55262088775635 123.93520940840244 54.659976348280907 127.41820535808802 1028.4821584150195 91.886711277067661 66.650866240262985 38.291925221681595 166.018514059484 31.200081631541252 229.8078405931592 284.29885397106409 93.083613909780979 25.085983321070671
leaf_count=1330 1059 3843 696 3762 1023 2131 2708 389 492 650 11889 2147 1675 4345 1728 816 1158 616 337 947 10278 715 434 235 1376 178 1954 2671 685 163
internal_value=-0.000250782 -0.0189803 0.0335892 0.0198505 0.0609011 0.00791391 0.0388599 0.0223163 0.0907409 0.0329711 -0.0273292 -0.0213906 0.0446895 -0.00580367 -0.014804 0.0675183 0.0257322 0.105744 0.0860482 0.04786 -0.0311278 -0.00879815 0.0322756 0.0851372 0.0106426 0.049407 -0.0176524 -0.034634 0.085399 0.0632296
internal_weight=7222.57 4649.31 2573.26 1712.05 861.212 1101.39 1029.16 652.495 416.371 444.842 3547.91 2367.39 318.088 910.266 665.041 376.668 649.046 305.489 181.554 320.814 1457.13 682.886 219.155 90.73 257.905 110.882 452.348 1312.78 226.965 91.7368
internal_count=62430 43474 18956 13420 5536 9086 7567 5007 2319 3217 34388 22499 2299 8220 6073 2560 5001 1649 1033 2194 14279 5853 1544 624 2091 670 4085 12949 1501 597
is_linear=0
shrinkage=0.05


Tree=7
num_leaves=31
num_cat=0
split_feature=61 70 1 72 19 61 63 19 20 70 19 61 1 61 61 19 17 70 61 19 61 71 52 1 19 62 68 17 70 5
split_gain=1645.83 452.514 334.062 289.349 258.409 186.689 139.284 137.592 109.035 124.749 106.548 106.536 134.68 104.661 99.2336 98.4814 85.8498 83.7459 80.0694 79.3985 73.0345 72.057 71.8224 68.2795 61.8274 61.0593 61.0492 60.8703 59.6106 54.4964
threshold=0.0046664006208392101 0.0042946713701761769 0.0018130594384837796 1.0001290175517321 0.00082734716097487241 0.013935382464754157 0.99933711385724167 0.0075993668382370004 0.010209564321164303 0.012786198062938707 -0.0066784744901257397 -0.00023186403891842664 7.6155662320568499e-05 0.00025095428822044416 -0.0036276030220852005 0.0020466990709998409 1.9275166697407053 0.013029133027546358 -0.00030811905335407841 0.0045357923123896518 0.010218744794558332 0.0017610272256842927 -0.00059798898510156253 0.004361973232729406 -0.002627323656532708 0.0046626432588881429 -0.72854539551494324 1.2014378109613417 -0.012527730945092182 0.0041464776724762674
decision_type=2 2 2 2 2 2 2 2 2 2 2 2 2 2 2 2 2 2 2 2 2 2 2 2 2 2 2 2 2 2
left_child=1 10 6 5 18 8 15 25 9 29 14 -12 -13 -6 28 26 -16 -15 24 -19 -5 -11 -8 -22 -3 -7 -2 -20 -1 -4
right_child=2 4 3 20 13 7 22 -9 -10 21 11 12 -14 17 16 -17 -18 19 27 -21 23 -23 -24 -25 -26 -27 -28 -29 -30 -31
leaf_value=-0.028010342858220634 0.053143320655755159 0.034530316494570147 0.028879483162006482 -0.023355826763979168 -0.035517468616230619 0.037592841545619857 0.10048885912227368 0.044605997383247296 -0.0060406822465482986 -0.0029067097562549813 -0.038174623868290278 0.0049156745831688727 -0.032807937365474119 -0.017446197078252162 0.026939865112420965 0.04500128275299168 0.21035293117053144 0.046042170292863317 0.034643364838382366 -0.015289268614109008 0.084752592085983888 0.079348463817263987 0.017408774682518096 0.0033132820288808793 -0.0019102187252794441 0.12965541171196002 0.1065066448794227 0.092913428336904524 0.013570018418193806 -0.019168345003663979
leaf_weight=309.59631264954805 67.717442713677883 190.35223431140184 225.19626601785421 305.24824547767639 345.09438602626324 22.128858111798763 30.783961094915867 200.03282707184553 213.01667397469282 31.452155031263828 1788.4223818406463 394.65311835706234 590.78620277345181 297.35233796387911 86.205157957971096 138.3387645855546 6.8898864090442649 140.38090848922729 273.43055743724108 84.554237350821495 30.017683774232864 173.47996015846729 167.88373442739248 180.49025289714336 299.60979619622231 96.774418108165264 257.01689886301756 53.604551553726196 119.45350369066 79.972112007439137
leaf_count=3013 417 1501 1764 2666 3356 138 187 1330 1699 234 18276 3478 5792 2595 764 892 59 1099 2053 722 171 1179 1200 1348 2505 491 1409 379 1054 659
internal_value=-0.000267715 -0.0162265 0.0355417 0.0228991 0.00485631 0.0380592 0.0653039 0.0699258 0.0240041 0.0365508 -0.0270006 -0.0309009 -0.0177002 -0.0141505 -0.00628034 0.0803289 0.0405141 -3.25458e-05 0.0250353 0.0229874 -0.00773085 0.0667243 0.0302822 0.0149262 0.0122471 0.112522 0.0953787 0.0441945 -0.0164338 0.0162881
internal_weight=7199.94 4980.39 2219.55 1557.81 1684.38 1042.05 661.741 318.936 723.117 510.1 3296.01 2773.86 985.439 867.382 522.145 463.073 93.095 522.287 816.997 224.935 515.756 204.932 198.668 210.508 489.962 118.903 324.734 327.035 429.05 305.168
internal_count=62430 46646 15784 11679 14210 7494 4105 1959 5535 3836 32436 27546 9270 7772 4890 2718 823 4416 6438 1821 4185 1413 1387 1519 4006 629 1826 2432 4067 2423
is_linear=0
shrinkage=0.05


Tree=8
num_leaves=31
num_cat=0
split_feature=61 61 1 1 71 0 72 5 61 1 20 1 61 17 71 61 5 61 0 20 62 68 1 20 0 1 12 77 1 62
split_gain=1481.65 305.077 267.882 257.525 197.578 149.148 130.237 126.937 120.726 167.649 121.772 91.5435 87.7129 92 77.7117 69.4273 64.2459 61.2559 60.8689 57.6559 85.718 54.9633 53.4529 45.6366 45.2065 44.7476 43.4763 42.8156 42.4331 42.2858
threshold=0.0035939100688337326 0.008598737450077833 0.0066024896462718802 0.0047954649049558526 0.0010482490424979631 -0.00039423713099736793 0.98812056109332824 0.0044862854907711707 -0.00016153597662055109 -0.00042240774573198378 -0.0042470457873869634 -0.0046231932535955172 -0.0049447020109084422 1.538347324538853 -0.001452413223239844 0.014478694596956457 0.0032800549623116381 -0.00053941475402610511 0.0020162202896434984 0.014343705650522722 0.019761321899260567 0.75227435708518708 0.00090177019004239315 -0.013955515458502276 0.0072380666053342728 -0.00030485030562556409 0.83473428178165998 0.59000741832186887 -0.015853143699238667 0.02829506637924966
decision_type=2 2 2 2 2 2 2 2 2 2 2 2 2 2 2 2 2 2 2 2 2 2 2 2 2 2 2 2 2 2
left_child=4 3 7 5 11 16 19 -3 10 -10 26 12 28 -14 -7 18 -2 -13 -9 20 27 -16 -19 -15 -17 -12 -6 -4 -1 -21
right_child=1 2 6 -5 8 14 -8 15 9 -11 25 17 13 23 21 24 -18 22 -20 29 -22 -23 -24 -25 -26 -27 -28 -29 -30 -31
leaf_value=0.0017231924668247274 0.080387473980122304 0.093157823654770322 0.019759991576008135 -0.017123649966936532 -0.012780597073923093 -0.0090683421146590375 -0.00013832143785402358 0.052483139038148718 0.040374360470049386 -0.0080138298717153389 -0.015161283279572439 -0.042670684167844752 -0.0013614789048437552 0.17135814492603751 0.019646416225607952 0.092629685066255879 0.037192107095453446 -0.0079803854966127574 -0.010868402318857733 -0.0059807601939400219 0.11828937787740412 0.074148889095523515 -0.036329601291691535 0.047614769517801123 0.015043112881577243 -0.036434262308371011 0.033725079875379003 0.083716701929400825 -0.031588728218629937 0.045368040472153363
leaf_weight=120.78419114649296 138.58241333812475 322.04059700667858 75.028692647814751 458.44380536675453 76.321549072861671 238.71838787198067 282.16838058829308 86.418871618807316 276.7747318148613 506.73325607180595 696.95315450429916 932.90428695827723 216.71147990226746 10.85544531047344 334.13778757303953 89.192791730165482 227.22391372174025 317.56310056895018 67.555661365389824 66.179654620587826 54.252894692122936 53.690079547464848 349.02532675862312 23.757391817867756 23.780024290084839 383.07548802345991 147.14508081227541 40.182563997805119 458.43828732520342 101.71574351936579
leaf_count=1126 891 1692 527 4024 708 1945 2172 559 2205 4631 6584 9751 2019 87 2484 449 1497 2887 476 481 301 383 3470 215 132 3930 1280 264 4581 679
internal_value=-0.000283518 0.0293261 0.0478814 0.0138695 -0.0177156 0.0281877 0.0249284 0.0720245 -0.00643171 0.00907933 -0.0157551 -0.0274065 -0.013939 0.0107285 0.0133763 0.0465295 0.0535563 -0.0343996 0.0246879 0.0458944 0.0664687 0.0271916 -0.022824 0.0864238 0.0762982 -0.0227066 0.0178418 0.0420664 -0.0246423 0.0251278
internal_weight=7176.36 2659.31 1208.52 1450.8 4517.04 992.353 619.528 588.988 2087 783.508 1303.5 2430.04 830.547 251.324 626.546 266.947 365.806 1599.49 153.975 337.36 169.464 387.828 666.588 34.6128 112.973 1080.03 223.467 115.211 579.222 167.895
internal_count=62430 18956 7732 11224 43474 7200 4424 3308 19338 6836 12502 24136 8028 2321 4812 1616 2388 16108 1035 2252 1092 2867 6357 302 581 10514 1988 791 5707 1160
is_linear=0
shrinkage=0.05


Tree=9
num_leaves=31
num_cat=0
split_feature=61 70 1 70 20 71 58 0 61 1 93 61 70 61 70 58 20 68 5 70 61 14 61 18 63 61 18 62 70 71
split_gain=1334.25 346.946 309.528 300.831 179.692 177.176 171.342 131.483 95.6724 98.6138 94.273 82.0715 80.3218 79.3982 72.8424 92.429 71.7421 65.2775 62.1086 61.9983 60.5005 57.4096 53.5381 50.6891 46.7086 43.7482 68.6053 41.8886 41.7935 41.2124
threshold=0.0024403991891262995 0.013029133027546358 0.0008468113448335423 0.0070514998433407359 0.013904860208675136 0.0064041514567668495 0.001082664240266403 0.0014641076687730147 0.01094317192627378 0.010252814982734464 -0.0091636510465060907 0.0059333591005101783 0.025616942467637845 0.01609542442985528 -0.0080564080006899751 0.00013891780855916297 0.0099985255994041872 0.049097119402347338 0.0031917094242090733 0.016281575473569461 0.0060308811375610347 0.51746218897381513 0.0076799796840522662 0.0094395864742669432 0.98097636848024961 0.0080868465602775656 0.0077410426028088506 0.0020061744939272133 0.0019488179949391389 -0.0019420350421661876
decision_type=2 2 2 2 2 2 2 2 2 2 2 2 2 2 2 2 2 2 2 2 2 2 2 2 2 2 2 2 2 2
left_child=3 2 7 10 5 17 19 11 18 23 -1 21 16 -6 -12 28 22 -3 20 29 -4 -2 -7 -10 -18 -9 -27 -24 -16 -5
right_child=1 4 8 6 13 12 -8 25 9 -11 14 -13 -14 -15 15 -17 24 -19 -20 -21 -22 -23 27 -25 -26 26 -28 -29 -30 -31
leaf_value=0.0030244169051537855 0.024667737078904871 0.0019251266478380502 -0.0084859347228481881 -0.013756462335449155 -0.015035339879144042 0.04830016021389906 -0.020997746089154206 -0.0088441694221670884 0.066881963161275079 -0.011608819685378228 -0.039237129950795535 0.084528778682647063 0.096512124738073871 0.038171905483631627 -0.019191665603649773 -0.037900643687751492 0.10424626916694779 0.053678120796725452 -0.019785207678282433 0.046750532218168682 0.029309092131347161 0.075360617853764258 0.020995290474481038 -0.0035053642709900953 0.0044812957500114789 0.077550029367936008 -0.014231902024921148 0.097949683733838167 0.0047685053551453117 0.021006163829857809
leaf_weight=237.50598091632128 195.47565422207117 157.86132550239563 307.91163714230061 118.85590290278196 143.72481705993414 155.24898887425661 393.79331464320421 139.06633644551039 115.68706405162811 107.1840718537569 1178.3473055064678 156.70290142297745 208.84791635721922 136.89984035491943 742.98700278997421 625.76587434113026 13.809797294437884 99.230586178600788 598.49275410175323 172.86099768429995 161.37825994938612 78.191849611699581 20.041717484593391 32.838395245373249 77.984903208911419 46.19390332698822 36.406795561313629 150.28796871006489 241.04387409985065 301.6275594830513
leaf_count=2251 1421 1129 2752 1016 1104 1044 3685 1100 656 862 12611 863 1181 865 7424 6695 75 642 5269 1229 1226 515 118 216 568 242 226 786 2259 2400
internal_value=-0.000293724 0.0241216 0.0113632 -0.0193954 0.0457762 0.0568494 0.00457238 0.0395602 -0.00252845 0.0249423 -0.0272151 0.055674 0.0711976 0.0109213 -0.029791 -0.0228766 0.0585305 0.0219004 -0.00910707 0.0215429 0.00451093 0.0391516 0.0695377 0.0513196 0.0194902 0.00827491 0.0370965 0.0888949 -0.0133225 0.01118
internal_weight=7152.26 3139.47 1975.53 4012.79 1163.94 883.313 987.138 652.037 1323.49 255.71 3025.65 430.37 626.221 280.625 2788.14 1609.8 417.373 257.092 1067.78 593.344 469.29 273.668 325.579 148.525 91.7947 221.667 82.6007 170.33 984.031 420.483
internal_count=62430 22860 15348 39570 7512 5543 8330 4367 10981 1734 31240 2799 3772 1969 28989 16378 2591 1771 9247 4645 3978 1936 1948 872 643 1568 468 904 9683 3416
is_linear=0
shrinkage=0.05


Tree=10
num_leaves=31
num_cat=0
split_feature=61 70 70 19 61 1 61 19 19 70 0 62 59 0 72 23 70 19 93 63 61 19 71 19 77 95 63 12 61 62
split_gain=1204.83 312.517 280.854 223.928 187.186 184.379 178.912 158.786 96.6469 123.983 91.6519 87.9538 75.4884 74.5407 64.2719 63.4263 78.0396 59.6103 59.1426 55.5022 55.154 60.7525 52.7937 50.3405 47.0984 45.3099 42.8416 42.8608 42.3336 40.5306
threshold=0.0024403991891262995 0.004714075571998458 0.007566867860594813 0.0037658193425883476 0.012503657559641094 0.0008468113448335423 0.0075527693679825801 0.0016893151544874398 -0.00021448535178994951 -0.0043825754520343983 0.0014641076687730147 0.0018865790202391216 0.60571428571428465 -0.00078732412379308933 0.99458668618599222 0.0011632511057598231 0.020235445083083555 -0.0035242142551105871 -0.0091636510465060907 1.0011043884194051 0.01094317192627378 0.0057501735474719791 -0.0019420350421661876 -0.0031233564313006799 2.4485172772293686 0.017538794760165965 0.99527986903753285 0.68394388181663213 -0.00075644235170886968 0.018383972883459439
decision_type=2 2 2 2 2 2 2 2 2 2 2 2 2 2 2 2 2 2 2 2 2 2 2 2 2 2 2 2 2 2
left_child=2 5 8 6 14 10 13 22 9 18 25 23 29 -3 15 16 -5 -11 -1 20 -7 -22 -4 -8 -14 -2 -13 -28 -19 -6
right_child=1 3 7 4 12 19 11 -9 -10 17 -12 26 24 -15 -16 -17 -18 28 -20 -21 21 -23 -24 -25 -26 -27 27 -29 -30 -31
leaf_value=-0.0035841149070036621 0.029638364028477405 0.058422362767841379 -0.0053185045674305521 0.0086537430293624779 0.038424057416317499 -0.011227101235850724 0.093431862914923766 -0.021515939835402953 -0.039840480439975304 0.016947377974783451 -0.003464713390546242 0.10181101041460539 0.021116247367040725 0.021563805376378701 -0.025869808759836188 -0.013023033911283004 0.07136547483481713 -0.023165201731333625 -0.033529874230828524 -0.032654790918728131 0.071115496528283084 -0.0076300239892938913 0.029587049124663718 0.015748721053380477 0.081646156003724421 0.070676522453033783 0.0081737967788009496 0.093421026803682694 0.0076635525824968482 0.09679803879382809
leaf_weight=191.97440885752439 184.52601580321789 211.31130500137806 143.30161298066378 168.69685576856136 46.62307958304882 423.32598732411861 29.234098225831985 349.05311240255833 903.96254952251911 233.99232130497694 150.66378204524517 229.60816489160061 238.40047776699066 390.94464821368456 172.46726758033037 167.6255671903491 70.274183101952076 354.17413228750229 1168.2661374360323 235.26826754957438 47.35184982419014 50.739481449127197 443.8335190936923 72.75823287665844 37.144182980060577 105.83830399811268 27.336705900728703 32.01071248203516 162.42370996624231 82.098559960722923
leaf_count=1859 1240 1340 1183 1271 278 3805 164 3388 10165 2065 1108 1102 1471 2873 1433 1344 470 3557 12674 2181 269 392 3247 470 212 649 170 183 1432 435
internal_value=-0.000302845 0.0226357 -0.0187318 0.0348483 0.0179345 0.00248162 0.051594 0.00519059 -0.0261605 -0.020302 0.0281781 0.0779332 0.0440433 0.0344962 -0.000293023 0.010556 0.0270954 -0.00398915 -0.0293035 -0.0124954 -0.00339923 0.030383 0.0210677 0.0380151 0.0292758 0.0445968 0.092023 0.0541543 -0.0134723 0.0756549
internal_weight=7125.23 3174.25 3950.98 1976.53 983.33 1197.71 993.204 936.188 3014.79 2110.83 441.028 390.948 404.266 602.256 579.064 406.597 238.971 750.59 1360.24 756.686 521.417 98.0913 587.135 101.992 275.545 290.364 288.956 59.3474 516.598 128.722
internal_count=62430 22860 39570 13216 6914 9644 6302 7818 31752 21587 2997 2089 2396 4213 4518 3085 1741 7054 14533 6647 4466 661 4430 634 1683 1889 1455 353 4989 713
is_linear=0
shrinkage=0.05


Tree=11
num_leaves=31
num_cat=0
split_feature=61 70 72 19 61 1 19 1 19 61 61 5 61 1 4 20 70 70 63 19 70 62 19 61 63 20 63 70 70 20
split_gain=1093.95 325.259 213.629 179.283 160.899 168.402 165.429 160.258 94.8337 79.2814 77.2514 72.968 71.6796 92.3368 71.6169 66.3746 65.8928 64.9623 56.7984 55.8601 50.9027 50.4642 86.6734 53.0039 49.7968 103.32 100.483 57.837 48.1163 50.7154
threshold=0.0036911581215446298 0.0042946713701761769 1.0041150640335739 0.00082734716097487241 0.0089666815415939492 0.0041973152407274042 0.0049022942361872006 -0.0018020620484356616 -0.0065047493925030732 0.01609542442985528 0.00025095428822044416 0.0038904043000594288 -0.002342991199182794 -0.00019923017344554284 0.90500000000000225 0.016627709092595481 -0.015637121145636545 0.00059190285174461987 0.98563131127368131 -0.0010075106262742914 0.015009110725651779 -0.01002450105422773 -0.002627323656532708 -0.00060841243649216675 1.0011043884194051 0.0020857001881441416 0.99576128773284012 0.011141301482630714 0.013816044867301024 0.0080992440167233139
decision_type=2 2 2 2 2 2 2 2 2 2 2 2 2 2 2 2 2 2 2 2 2 2 2 2 2 2 2 2 2 2
left_child=1 8 4 21 5 14 11 -4 16 -8 -5 -6 -10 -14 19 18 -1 -13 -11 -2 -21 -3 -23 -24 25 26 -9 -28 -12 -30
right_child=2 3 7 10 6 -7 9 24 12 15 28 17 13 -15 -16 -17 -18 -19 -20 20 -22 22 23 -25 -26 -27 27 -29 29 -31
leaf_value=-0.020659252595413079 0.090489872363794105 -0.0078081496868855904 0.047011965185371762 -0.033243174892440989 0.096023430403159887 -0.005454617570933528 0.011560649896501676 0.12662102711956513 -0.038530679675875174 0.10401791569005391 -0.014467694519269393 -0.0038059451892740108 -0.0062806408512515143 -0.034109203043539753 0.01626628988114015 0.025848957223030045 0.015972039161167607 0.066916105320099478 0.025771912627975371 0.029367781570212616 0.075710813101726518 0.056953774022247716 4.8264403304431332e-05 0.033560590200567564 -0.024974871520504142 -0.016691483687204883 -0.00032770898993084505 0.10935967181886873 0.046629384111049325 -0.011294713903436643
leaf_weight=308.00351382791996 68.526715405285358 137.01115901768208 159.59135315567255 319.39372488856316 187.20122758299112 397.79613859206438 268.14294155687094 26.661430992186069 1179.2139725014567 75.259114228188992 229.38794191926718 40.636732444167137 557.26295071095228 640.89641942083836 277.58963310718536 118.81184846162796 204.12522002309561 161.58468335866928 33.523794546723366 241.33988258242607 78.53484969586134 164.2441930025816 267.02008445560932 211.39907023310661 276.24728660285473 220.17594286054373 78.472226448357105 14.191415980458258 87.656881384551525 66.423659719526768
leaf_count=3172 389 1046 950 3356 886 3343 1828 137 13330 378 2099 261 5517 7101 1845 737 1852 827 195 1675 456 1190 2248 1564 2351 1770 600 84 674 569
internal_value=-0.000309838 -0.0158064 0.0245597 0.00323288 0.0333909 0.0202861 0.0491402 0.00236097 -0.0255751 0.0299823 -0.0150801 0.0735285 -0.0297792 -0.0211662 0.035661 0.0516859 -0.00605868 0.0527044 0.0799047 0.0495223 0.0407458 0.0197417 0.0256151 0.0148564 -0.00921181 0.00361438 0.0410823 0.0164709 4.80756e-05 0.0216585
internal_weight=7096.33 4372.04 2724.29 1482.54 1948.95 1063.79 885.16 775.34 2889.5 495.738 702.862 389.423 2377.37 1198.16 665.991 227.595 512.129 202.221 108.783 388.401 319.875 779.675 642.663 478.419 615.748 339.501 119.325 92.6636 383.468 154.081
internal_count=62430 43718 18712 12746 12820 7708 5112 5892 30972 3138 6698 1974 25948 12618 4365 1310 5024 1088 573 2520 2131 6048 5002 3812 4942 2591 821 684 3342 1243
is_linear=0
shrinkage=0.05


Tree=12
num_leaves=31
num_cat=0
split_feature=61 70 70 19 61 1 58 61 19 70 71 20 62 0 0 62 1 19 19 12 61 61 63 5 61 95 20 93 1 70
split_gain=995.831 289.182 210.763 190.677 177.313 174.545 129.555 106.064 88.9391 114.715 84.0904 103.227 79.2951 70.2239 68.6057 68.5429 57.3395 54.672 53.3288 52.4904 50.9287 49.7718 48.2774 45.5014 48.5336 44.4015 43.5955 42.1654 39.6743 38.4166
threshold=0.0017572252315803043 0.004714075571998458 0.0092313260629222297 0.003075533857640202 0.0078108557752432119 -1.0000000180025095e-35 0.001082664240266403 0.0089666815415939492 -0.00021448535178994951 -0.0043825754520343983 0.0083541007439186295 0.013904860208675136 0.020717092767748833 0.0005281876251743634 -0.00053830834075623577 0.0053350854865547503 -0.0097880615771057163 0.0032618431644989613 0.0061716115650355266 0.94262894716192347 0.0047374387485193048 0.019618365626750279 1.0046190775703414 0.0030972945573324155 0.0041864421434472431 0.16969739247069307 0.020084898153353885 -0.011879338326515288 -0.0023589689299339666 0.026744255955307508
decision_type=2 2 2 2 2 2 2 2 2 2 2 2 2 2 2 2 2 2 2 2 2 2 2 2 2 2 2 2 2 2
left_child=2 5 8 7 29 13 28 14 9 16 -6 12 18 25 -3 -7 -1 20 -12 -11 -17 -13 -9 24 -16 -2 -23 -21 -4 -5
right_child=1 3 6 4 10 15 -8 22 -10 19 11 21 -14 -15 23 17 -18 -19 -20 27 -22 26 -24 -25 -26 -27 -28 -29 -30 -31
leaf_value=-0.0098224176565943344 0.028486711794094156 0.05489018252678704 0.037843003034518263 -0.01493500710887681 0.0015985205790439696 -0.022308945931085553 -0.020679562094664507 0.080994513422141132 -0.038432788310525892 -0.014133323563317835 0.062225371257894971 -0.0033475783592769644 0.094842065599357983 0.0025183424847998728 0.014140604825140388 -0.0066823475851098867 -0.034558237423533394 -0.0099646071501748919 0.011956828520292241 0.084483309741464896 0.059275886750264344 0.095252592219624094 0.011462606377437195 0.0072103820870664144 0.062448931534587505 0.072834475038411658 0.021783550396481943 0.0076244226391935684 0.0067022239848849204 0.02577547266383879
leaf_weight=310.83089759945869 166.5376163944602 294.22043327987194 225.63081943243742 373.24282067269087 179.5223421305418 585.47863727062941 272.82813334465027 233.44025030732155 844.59054046869278 488.43712293356657 131.76304128021002 139.48696350306273 105.44633268564939 178.42453471571207 97.027724795043468 48.838451094925404 951.33893135935068 192.26351016014814 87.995694614946842 19.086629390716553 73.027065977454185 28.481348223984241 27.953421398997307 213.52401830255985 112.01591545343399 85.375231847167015 69.374059803783894 274.23418361693621 187.08818212896585 68.599813282489777
leaf_count=3169 1106 1792 1611 3106 1256 5432 2692 1078 9886 4676 739 961 508 1312 760 481 10954 1685 574 143 495 162 175 1525 698 509 415 2536 1463 531
internal_value=-0.000315283 0.0186743 -0.018869 0.0299591 0.0164623 0.000328472 0.00605427 0.0462946 -0.0247842 -0.0191443 0.0313934 0.0409016 0.0591993 0.026518 0.036352 -0.0121996 -0.0284666 0.00664236 0.0420969 -0.00409316 0.0328427 0.0158303 0.0735588 0.0234445 0.0400266 0.0435165 0.0431671 0.0126257 0.0237267 -0.00861436
internal_weight=7066.1 3492.04 3574.07 2162.09 1183.91 1329.95 685.547 978.182 2888.52 2043.93 742.07 562.547 325.205 430.337 716.788 899.608 1262.17 314.129 219.759 781.758 121.866 237.342 261.394 422.568 209.044 251.913 97.8554 293.321 412.719 441.843
internal_count=62430 25300 37130 14280 8252 11020 5766 6028 31364 21478 4615 3359 1821 2927 4775 8093 14123 2661 1313 7355 976 1538 1253 2983 1458 1615 577 2679 3074 3637
is_linear=0
shrinkage=0.05


Tree=13
num_leaves=31
num_cat=0
split_feature=70 63 20 70 21 20 63 19 72 63 21 20 63 21 62 63 20 20 63 19 63 20 63 20 62 63 20 63 19 63
split_gain=848.057 155.255 292.16 140.735 206.894 154.086 161.604 136.732 107.481 95.4003 81.7804 74.0639 105.368 73.8708 71.4755 66.0504 80.972 66.0173 110.762 65.797 59.4558 57.1254 80.4965 56.9589 55.6037 54.2731 66.5896 72.7601 50.0423 49.6237
threshold=0.0070514998433407359 1.0003027305635082 -0.00078433477849904 0.020663744153315195 0.0061787527368794811 0.0065867848049053794 0.99161819189568401 -0.0066784744901257397 0.99008565731404785 0.9904501529962656 0.0030574651602741239 0.0024337762163756365 1.0016232531924525 0.00014304088513344713 0.0044148733614664043 1.0140806246993661 -0.013955515458502276 0.0046598451699170823 0.9914216827826513 -0.0032551784337413975 0.99906342076616739 -0.0029325908240067388 1.003274414180616 -0.00050606762194382274 -0.011690694179903972 0.98969409179789514 0.012418649183837135 0.9821374251331717 -0.013260377527471076 0.99803261655293718
decision_type=2 2 2 2 2 2 2 2 2 2 2 2 2 2 2 2 2 2 2 2 2 2 2 2 2 2 2 2 2 2
left_child=1 2 13 5 8 6 10 15 20 -7 -2 12 23 -1 -4 16 -3 18 -16 24 -5 22 -9 -8 -14 26 27 -19 -17 -15
right_child=3 7 14 4 -6 9 11 21 -10 -11 -12 -13 19 29 17 28 -18 25 -20 -21 -22 -23 -24 -25 -26 -27 -28 -29 -30 -31
leaf_value=0.056942047967467692 0.090772720215714378 0.071365591480330101 -0.024524219080635429 0.073036945807848155 0.0014376926330781697 0.004986144196022297 0.062577069784164316 0.0086527430648544665 0.021480749690545954 -0.040128245200134076 0.02446175243078991 -0.002583706267555276 -0.0034621669265937714 0.036740345073161318 0.082073276816386584 0.0090059654353629084 0.0023570323899558938 0.11017793231043037 0.0019282218829446583 -0.011314257734095286 0.020277019829756229 -0.040073048352209845 -0.027963629642041576 0.025361997141255716 0.069524695280556964 -0.033223762069482576 -0.032623530525028505 0.0084006855588118819 -0.0316635912201133 -0.023854830438335174
leaf_weight=206.38470610976219 116.20934194326401 57.672151565551758 714.27238237857819 389.96524821966887 287.57695432752371 357.8317269012332 174.28586730360985 178.22193896770477 196.0456860512495 174.24178990721703 77.507882110774517 397.83947825431824 47.991989754140377 75.267393700778484 51.078792668879032 126.81303220242262 161.66340444236994 20.986121602356434 276.33165519684553 236.35664490610361 61.870046325027943 737.96654716879129 951.05620186775923 250.73112722486258 57.191888488829136 213.46323712170124 82.117113910615444 107.57189861685038 187.43071356415749 61.308455623686314
leaf_count=1373 570 441 7414 2200 2123 2644 1021 1648 1293 1605 498 3243 346 603 319 1170 1543 143 2589 1867 382 8467 10294 1743 383 2211 788 952 1929 628
internal_value=-0.000318722 -0.0145414 -0.00347872 0.02087 0.0367318 0.0130199 0.0219554 -0.022876 0.0523979 -0.00978778 0.0642411 0.0149205 0.024005 0.0380651 -0.0131988 -0.000554374 0.0205022 -0.00243508 0.0144315 0.00332579 0.0658125 -0.0292546 -0.0221849 0.0406227 0.0362232 -0.0154551 0.00254864 0.025015 -0.0152514 0.00953937
internal_weight=7035.25 4209.61 1808.78 2825.65 935.458 1890.19 1358.11 2400.82 647.881 532.074 193.717 1164.4 766.558 342.961 1465.82 533.579 219.336 751.549 327.41 341.541 451.835 1867.24 1129.28 425.017 105.184 424.138 210.675 128.558 314.244 136.576
internal_count=62430 42512 17020 19918 5998 13920 9671 25492 3875 4249 1068 8603 5360 2604 14416 5083 1984 7002 2908 2596 2582 20409 11942 2764 729 4094 1883 1095 3099 1231
is_linear=0
shrinkage=0.05


Tree=14
num_leaves=31
num_cat=0
split_feature=61 61 0 70 58 19 63 72 19 70 18 58 68 79 62 93 19 70 19 19 77 58 70 6 89 70 35 0 53 71
split_gain=850.522 234.158 218.181 186.398 162.044 152.303 135.707 99.2002 84.3054 77.1828 73.7648 71.6412 58.8248 55.2476 54.4801 54.2516 50.977 50.9489 51.7112 49.4777 46.8774 49.5843 43.6747 41.1249 40.7444 39.1408 36.4362 35.4965 33.1597 33.5359
threshold=0.0017572252315803043 0.008380344865977352 6.8052688238058441e-05 -0.00087785736670916911 -1.9074237886889912e-05 0.0045357923123896518 0.99914862170390706 0.98812056109332824 -0.0065047493925030732 0.004714075571998458 0.0055159744474835614 0.0023962065585766581 0.54893452813813248 0.033247959066850137 0.0049371580312174554 -0.00048691551964647031 0.00066545510981599009 0.012242571367399863 0.0044485083226110953 -0.0066784744901257397 0.44960586260507485 0.0052960927927665153 -0.012527730945092182 22.500000000000004 0.0012630735484426418 0.013029133027546358 0.11643412237564653 -0.0070542596645138201 0.090714285714284928 0.014489082443387749
decision_type=2 2 2 2 2 2 2 2 2 2 2 2 2 2 2 2 2 2 2 2 2 2 2 2 2 2 2 2 2 2
left_child=3 2 10 8 13 6 14 20 22 23 15 12 24 -5 16 -2 -3 -6 -19 27 -7 -22 -1 -4 28 -17 -8 -12 -11 -30
right_child=1 5 9 4 17 7 26 -9 -10 11 19 -13 -14 -15 -16 25 -18 18 -20 -21 21 -23 -24 -25 -26 -27 -28 -29 29 -31
leaf_value=-0.0190699411750801 0.066060396599217752 0.067980002757303148 -0.02195817097975928 0.0045464527019157029 -0.028736361024392518 0.014313052127200958 -9.2139997251808578e-05 -0.0066975883306532452 -0.034373223810448369 0.10394591677670922 0.11709278065879758 -0.026050907527623526 0.052770888234850023 0.036922203365611507 0.075324160327768341 0.017981695296527538 0.0053326400503423211 0.0082135479355378415 -0.037132555622721435 0.0066714493992637005 0.065688413988139863 0.017734520322778849 0.015980303252433697 0.04783947342212036 -0.0095236969940471535 0.066228277359242929 0.051350595820974412 0.03005366668461066 -5.4363526899575831e-05 0.035444819648489549
leaf_weight=328.27618818730116 148.61073994636536 66.283151507377625 567.25132348388433 539.43896185606718 558.44586054980755 198.3246253579855 130.21503977477551 267.90890710055828 1438.9710807651281 11.083029501140116 17.126775503158569 148.28994587063789 79.752659991383553 174.36005287617445 341.79399465024471 201.55260633677244 63.657761961221695 237.5316609069705 85.500542789697647 402.5266594812274 142.26239536702633 86.79364924877882 121.87187942862511 21.91943433880806 220.86760351806879 53.115734525024891 46.789422698318958 37.062475502490997 149.91456783562899 119.61034195125103
leaf_count=3508 942 315 5442 4695 6102 1207 917 1953 17413 75 91 1275 563 1375 1561 1591 395 2006 924 2901 798 537 1107 211 1752 328 293 221 1123 809
internal_value=-0.000323064 0.0170017 0.00687679 -0.0178384 -0.00525381 0.0334144 0.0508392 0.0171562 -0.0284655 -0.00590107 0.02647 0.00496973 0.0128841 0.0124549 0.0648473 0.0420535 0.0372892 -0.0195939 -0.00378871 0.0127097 0.0321092 0.0475178 -0.00958053 -0.0193614 0.00654065 0.0280444 0.0135063 0.0575628 0.019185 0.0156995
internal_weight=7007.11 3522.71 2178.68 3484.4 1595.28 1344.03 648.739 695.29 1889.12 1318.69 859.995 729.518 581.228 713.799 471.735 403.279 129.941 881.478 323.032 456.716 427.381 229.056 450.148 589.171 501.476 254.668 177.004 54.1893 280.608 269.525
internal_count=62430 25300 17324 37130 15102 7976 3481 4495 22028 11250 6074 5597 4322 6070 2271 2861 710 9032 2930 3213 2542 1335 4615 5653 3759 1919 1210 312 2007 1932
is_linear=0
shrinkage=0.05


Tree=15
num_leaves=31
num_cat=0
split_feature=61 61 1 5 61 1 61 1 0 17 77 1 61 17 71 63 20 19 71 58 71 89 0 63 93 63 61 19 0 79
split_gain=772.589 195.393 208.132 158.347 125.1 125.058 122.436 138.487 97.9464 77.3016 62.6225 61.8344 61.1213 66.8661 59.8563 59.5552 65.2104 63.8455 51.6832 50.2139 47.9055 46.2414 45.2379 43.1129 43.0684 36.5165 36.2905 32.916 32.849 31.8864
threshold=0.0047374387485193048 -0.00023186403891842664 -0.00019923017344554284 0.0042611020264707528 0.01609542442985528 -0.003943896970667291 0.013935382464754157 0.0047954649049558526 -0.00074995573306980328 1.3751058425063649 0.22684463401538421 0.013001023699617909 -0.0048524451830685164 1.5879629629629695 0.0091570354425280446 0.99517634414059652 0.0050961683732144783 -0.0010075106262742914 -0.0028336876244787904 0.0041295822979328309 0.0010482490424979631 -0.0034206051626709251 -0.0011146084545127666 0.98946777218894877 -0.010557803636919405 1.0024989122291756 0.024959006025710915 0.0014729928024609319 0.00097619808632223501 0.030387626960053721
decision_type=2 2 2 2 2 2 2 2 2 2 2 2 2 2 2 2 2 2 2 2 2 2 2 2 2 2 2 2 2 2
left_child=1 5 9 6 8 12 7 15 21 18 -9 -6 24 -14 -4 16 -2 25 -3 -8 -7 -5 -11 -18 -1 -17 -13 29 -16 -22
right_child=3 2 14 4 11 20 19 10 -10 22 -12 26 13 -15 28 17 23 -19 -20 -21 27 -23 -24 -25 -26 -27 -28 -29 -30 -31
leaf_value=0.0060222554262779684 0.074148777789297127 -0.0024576470496262067 -0.022603736159101145 0.069251396168721599 0.055739510634486893 -0.039676308239986302 0.085768535332637896 -0.0065011197120373376 -0.013791896571903682 0.089154836499110379 0.035097069087599575 -0.0088280725289690744 0.00083179203804564252 0.071955716547465937 0.013671322412693216 0.074979976661908643 0.051215239862501122 0.006911656632927113 0.026347745571164441 0.019531576385923701 -0.022032820170477908 0.013761835028817004 0.0069713582419361295 -0.0032428378468826514 -0.021786536940477316 0.017163556472138731 0.037775442262659324 -0.036267324155829235 -0.012708354195818065 0.0069666432697701843
leaf_weight=173.15249783545732 212.67390338331461 256.62331745773554 687.51940782368183 47.325203597545624 168.81286551058292 749.63303791731596 146.21205607056618 295.71644995361567 540.10669519752264 59.950709506869316 130.35537450015545 89.662020310759544 321.52989521622658 36.831029981374741 236.69371265172958 76.373719818890095 101.74935676902533 176.64188647270203 396.03009431064129 35.574796631932259 328.28175982832909 181.66767736524343 23.233914375305176 56.537439174950123 710.68923760950565 42.512113019824028 78.211115926504135 247.2396302074194 235.35518926382065 133.27286998182535
leaf_count=1611 1097 2210 7099 237 836 9294 661 2322 4104 397 959 605 3224 327 2002 391 570 1245 2946 209 3546 1182 188 383 7543 278 461 3001 2172 1330
internal_value=-0.0003238 -0.012298 7.97186e-06 0.0227983 0.00895362 -0.0209347 0.0348117 0.0284899 -0.00217355 0.0208071 0.00622572 0.0343717 -0.0092763 0.00814165 -0.0131907 0.0427229 0.0560633 0.0259774 0.0150215 0.0728063 -0.0308647 0.0252297 0.0662005 0.0317637 -0.0163385 0.0543055 0.0128842 -0.0215454 0.000518885 -0.0136593
internal_weight=6976.17 4596.04 1895.41 2380.13 1105.79 2700.63 1274.35 1092.56 769.1 735.838 426.072 336.686 1242.2 358.361 1159.57 666.488 370.961 295.528 652.653 181.787 1458.43 228.993 83.1846 158.287 883.842 118.886 167.873 708.794 472.049 461.555
internal_count=62430 46890 17014 15540 7425 29876 8115 7245 5523 5741 3281 1902 12705 3551 11273 3964 2050 1914 5156 870 17171 1419 585 953 9154 669 1066 7877 4174 4876
is_linear=0
shrinkage=0.05


Tree=16
num_leaves=31
num_cat=0
split_feature=61 70 1 70 19 20 63 19 61 0 61 5 61 20 63 68 63 14 70 19 63 70 58 4 70 1 62 5 62 123
split_gain=705.388 206.232 177.813 175.372 148.114 109.443 105.167 79.3609 75.4131 68.4132 63.1857 93.7187 60.2231 52.5527 78.9516 54.1301 52.5358 51.9071 48.5353 44.739 48.2729 43.4758 44.5809 41.2629 40.4746 36.4038 35.1915 32.2174 32.0962 31.1525
threshold=0.0017572252315803043 0.013029133027546358 0.0008468113448335423 -0.00087785736670916911 -0.0002546514708116336 0.0099985255994041872 0.98946777218894877 -0.0065047493925030732 0.012503657559641094 0.0014641076687730147 0.0071193702375769224 0.0037997174040177574 0.0059333591005101783 0.0064737944745782367 0.99545921075954003 0.062318614379313693 1.0055040114874683 0.44444444444444836 0.01061563198319084 0.0048016883339125739 0.99161819189568401 0.012242571367399863 0.0018519285264172194 1.3764285714285733 -0.017844558090037908 0.0046228159606094077 0.019761321899260567 0.003485507194134247 0.0048107005622877843 1.1126953264985915
decision_type=2 2 2 2 2 2 2 2 2 2 2 2 2 2 2 2 2 2 2 2 2 2 2 2 2 2 2 2 2 2
left_child=3 2 9 7 18 6 28 24 29 12 25 19 17 14 -8 -16 -17 -2 -5 20 -12 -6 -23 -10 -1 -4 -21 -19 -3 -7
right_child=1 5 10 4 21 8 13 -9 23 -11 11 -13 -14 -15 15 16 -18 27 -20 26 -22 22 -24 -25 -26 -27 -28 -29 -30 -31
leaf_value=-0.022009719886978831 0.0085414032581750451 -0.014405015596589563 -0.0057101607120303606 0.0023479359157412474 -0.02902606644658634 -0.018538975002807611 0.061302252399075545 -0.033151040278634282 0.048121949844105186 0.002819438299047176 0.0865423267648876 -0.0088865826546390345 0.058301283308837354 -0.0048320686342548883 0.0046467864982870427 0.077765985616920372 0.0026582600038301601 0.067165991929586541 0.028906337968499271 -0.012956035999457256 0.027912747009956319 0.01419322831915593 -0.025223518026004994 0.009253470878643956 0.0084757285154611669 -0.027454195101100462 0.078604427596912524 0.020643515070468639 0.072234364220866001 0.029966240590023958
leaf_weight=251.82801455259323 236.8576545715332 11.175419777631758 526.38322363048792 542.72255448997021 488.43398786336184 179.69854950904846 193.7784735634923 1374.7456449866295 144.02047327905893 251.34053178876638 52.360260240733624 343.81191086769104 177.42688069492579 91.087081432342529 192.4616112112999 62.991508215665817 36.933261543512344 82.242084510624409 251.85634627193213 67.271899946033955 106.55513889342546 151.06735296547413 136.59817420691252 129.84045798331499 191.80326224118471 303.45932522416115 12.434265397489069 67.969568453729153 245.91144175827503 40.576752059161663
leaf_count=2760 1686 58 4758 4938 5713 1393 1041 17413 778 1785 258 2662 863 655 1236 352 232 524 1722 522 728 1247 1482 737 1855 3078 81 415 1157 301
internal_value=-0.000323146 0.0152312 0.00593422 -0.0166463 -0.00440838 0.0308239 0.0418682 -0.0272173 0.0121758 0.0245183 -0.00480136 0.00782256 0.0341797 0.0300216 0.0365517 0.0201483 0.0500054 0.0231227 0.0107661 0.0318975 0.0472303 -0.0199442 -0.00452384 0.029694 -0.00882939 -0.0136616 0.00132752 0.0461149 0.0684682 -0.00960386
internal_weight=6945.64 3556.59 2228.11 3389.06 1570.68 1328.48 834.339 1818.38 494.136 815.837 1412.28 582.433 564.496 577.252 486.165 292.386 99.9248 387.069 794.579 238.622 158.915 776.1 287.666 273.861 443.631 829.843 79.7062 150.212 257.087 220.275
internal_count=62430 25300 17360 37130 15102 7940 4731 22028 3209 5273 12087 4251 3488 3516 2861 1820 584 2625 6660 1589 986 8442 2729 1515 4615 7836 603 939 1215 1694
is_linear=0
shrinkage=0.05


Tree=17
num_leaves=31
num_cat=0
split_feature=61 70 61 1 19 1 0 70 1 70 72 20 70 5 61 18 1 37 11 61 61 1 68 68 4 71 62 70 19 61
split_gain=640.3 190.025 168.24 179.88 136.543 106.64 100.088 83.2132 76.07 59.6303 47.7847 48.4682 47.6728 46.5451 53.1207 46.0484 52.6057 43.4213 43.0682 39.36 37.5692 53.4384 37.0924 36.9412 41.9431 36.0792 36.6224 31.8952 31.4835 32.0132
threshold=0.002099910759585598 0.001830476025086515 0.011557079118492576 0.0045417885019937059 0.00082734716097487241 0.012500558877665668 -0.00039423713099736793 0.0067929585370160627 -0.0097880615771057163 0.041268823092001646 1.0001290175517321 0.012107848398056445 0.019355214000252998 0.0041879213607522812 0.020973566224378532 0.0071628178533645935 -0.0027467239622047915 0.19331319409005929 0.75287025893249104 0.00017216702682642583 -0.002342991199182794 -0.00088784478148188923 -0.20205284278823701 0.85504152542936884 0.61714285714285688 0.015285033246005013 0.0046626432588881429 0.013816044867301024 -0.0037567874531595643 -0.0030244094099328403
decision_type=2 2 2 2 2 2 2 2 2 2 2 2 2 2 2 2 2 2 2 2 2 2 2 2 2 2 2 2 2 2
left_child=1 8 3 6 12 13 15 22 -1 -7 11 25 17 -4 -15 16 -2 28 -17 -6 -10 -22 -8 24 -9 -5 -27 -18 -3 -30
right_child=2 4 5 10 19 9 7 23 20 -11 -12 -13 -14 14 -16 18 27 -19 -20 -21 21 -23 -24 -25 -26 26 -28 -29 29 -31
leaf_value=-0.0038610405755671027 0.070268730898874615 0.062373653907966502 0.063193646793058514 -0.0087894258047838472 -0.031708505639091999 -0.0045341676401539971 -0.015379634212525823 0.04599989124557384 -0.035452258052396525 0.049246083883495786 -0.02728405425495178 -0.030092694302724557 0.039022099419954867 0.023261794093435831 0.071641154862187514 0.0035912911715198902 0.02368111403533079 -0.0032335754082388132 0.065923864818890426 -0.0039876753359147504 -0.0056052902811707314 -0.032991578114093763 0.01128868095719948 0.056180320818321652 0.0088988932143501086 -0.0078450650253594437 0.035463405154631922 0.058489483271648823 -0.01279216707543392 0.027606979175471065
leaf_weight=354.51563507318497 115.59891096502542 41.27419975399971 245.14566906541586 209.29613898694515 325.93943668156862 206.91858206689358 347.31882103532553 98.155263438820839 1018.4246833398938 68.639761209487915 282.2654529735446 119.23085306584835 131.96848132461309 248.9562226459384 73.487722083926201 182.68859903514385 287.14159747213125 446.946085549891 32.667213544249535 210.91093462705612 327.09172883629799 391.11956990510225 208.75599250942469 70.588317096233368 340.22587503492832 74.917400643229485 140.09419292956591 85.379133440554142 71.515428140759468 156.0126024633646
leaf_count=3639 584 309 1116 1798 3876 1411 3053 605 13223 355 2793 1053 801 1337 341 1118 1966 3785 170 2029 3599 5043 1681 410 2221 599 1009 460 662 1384
internal_value=-0.000321933 -0.0154548 0.0149793 0.00867324 -0.001087 0.0343826 0.0176699 0.00800284 -0.0249677 0.00886214 -0.0105938 -0.00192642 0.0114084 0.0467725 0.0342879 0.0323057 0.0408027 0.00631701 0.0130465 -0.0208179 -0.0292765 -0.0205192 -0.00536808 0.0226113 0.017206 0.00598832 0.0203733 0.0316589 0.0221971 0.0149089
internal_weight=6913.19 3475.72 3437.47 2594.32 1384.57 843.148 1768.52 1065.04 2091.15 275.558 825.804 543.539 847.717 567.59 322.444 703.475 488.12 715.748 215.356 536.85 1736.64 718.211 556.075 508.969 438.381 424.308 215.012 372.521 268.802 227.528
internal_count=62430 38350 24080 19520 12846 4560 12268 7970 25504 1766 7252 4459 6941 2794 1678 4298 3010 6140 1288 5905 21865 8642 4734 3236 2826 3406 1608 2426 2355 2046
is_linear=0
shrinkage=0.05


Tree=18
num_leaves=31
num_cat=0
split_feature=61 61 1 71 19 1 62 61 20 1 61 71 19 77 20 71 62 92 36 71 61 6 63 20 93 95 71 62 62 16
split_gain=585.846 159.025 170.867 128.72 130.274 114.283 105.642 103.618 60.2398 56.3886 55.7844 52.1201 51.2211 48.436 66.494 46.6993 46.5366 46.5102 48.544 47.1266 45.1853 41.5956 40.4699 45.5426 38.3347 37.2687 35.6391 35.3876 33.3482 32.0888
threshold=0.0047374387485193048 -0.00023186403891842664 -0.00019923017344554284 -0.011443588195255672 0.0037658193425883476 -0.003943896970667291 0.0044148733614664043 0.01609542442985528 0.016627709092595481 -0.0017458806374961568 -0.0048524451830685164 0.0091570354425280446 4.3123607084764018e-05 0.24605983624358427 0.013904860208675136 0.0010482490424979631 0.021791414399317369 -0.0035010122276246994 1.8750539518810314 -0.0024280741689669074 0.0078108557752432119 22.500000000000004 1.0020725556949057 -0.00098748549730092415 -0.010557803636919405 1.0413791013396123 0.027006976467920725 0.02829506637924966 -0.0074787092538400411 0.16666666666666777
decision_type=2 2 2 2 2 2 2 2 2 2 2 2 2 2 2 2 2 2 2 2 2 2 2 2 2 2 2 2 2 2
left_child=1 5 17 9 6 10 12 13 16 -2 24 -4 28 -6 26 -7 -9 18 29 21 -8 -19 23 -11 -1 -12 -15 -10 -5 -3
right_child=3 2 11 4 7 15 20 8 27 22 25 -13 -14 14 -16 -17 -18 19 -20 -21 -22 -23 -24 -25 -26 -27 -28 -29 -30 -31
leaf_value=0.0062346901522551826 0.02756651031170847 0.077767698690283493 -0.021268073777485554 0.0067231239862019579 -0.0089367417375037488 -0.038098441645635389 0.036846277763357443 0.031076885227600333 -0.027693529537281138 0.049367674960080821 0.0013301084000630426 0.00047814570187652475 0.0014525172425348684 0.016053923839605837 -0.014810487904636977 -0.019638406037230095 0.085959379646451436 -0.0065268431871189185 0.16022125573854173 0.025011033056942113 0.066268869405204295 0.084440002222385999 -0.029375699369497306 -0.0089858460470626719 -0.020156595961029186 0.044128598038192551 0.060988550272692413 0.029209505402117947 0.050047699542418771 0.0033405495261231211
leaf_weight=172.37951918691397 115.77877817302942 28.910952046513557 664.58590702712536 63.863726988434792 408.40040798485279 695.39683318138123 231.57062664628029 75.928294107317924 37.861069045960903 42.13843098282814 292.83817597478628 470.67780033499002 199.22632148116827 97.502290613949299 98.469672076404095 675.29177534580231 78.617916285991669 250.76103533804417 9.9137248396873456 418.40611815452576 298.94340672343969 13.229691572487353 181.79252745956182 161.9188831076026 681.93990764021873 61.558795742690563 80.608226634562016 98.159371368587017 145.86131405085325 29.017563499510288
leaf_count=1611 634 194 7099 416 3019 9294 1382 414 240 254 2979 4174 1440 687 739 7877 348 2153 59 3024 1327 113 1584 1284 7543 572 462 547 763 198
internal_value=-0.000320052 -0.011053 -1.61977e-05 0.0195098 0.0254158 -0.0191207 0.0387049 0.0126181 0.0376376 -0.00303684 -0.00791322 -0.0122521 0.0196081 0.0020049 0.0181614 -0.0290038 0.0589957 0.0184993 0.0579825 0.0145739 0.0534258 -0.00196811 -0.0122197 0.00306433 -0.0148315 0.00876421 0.0363902 0.0133706 0.0368549 0.0404856
internal_weight=6881.55 4464.91 1885.5 2416.64 1915.01 2579.41 939.465 975.547 290.567 501.629 1208.72 1135.26 408.951 684.981 276.58 1370.69 154.546 750.239 67.8422 682.397 530.514 263.991 385.85 204.057 854.319 354.397 178.111 136.02 209.725 57.9285
internal_count=62430 46890 17014 15540 11784 29876 5328 6456 1549 3756 12705 11273 2619 4907 1888 17171 762 5741 451 5290 2709 2266 3122 1538 9154 3551 1149 787 1179 392
is_linear=0
shrinkage=0.05


Tree=19
num_leaves=31
num_cat=0
split_feature=70 61 61 19 1 19 19 70 71 62 70 70 20 20 5 21 63 62 6 19 19 70 52 63 68 61 72 72 19 18
split_gain=553.878 175.956 168.813 160.587 127.448 125.918 76.9531 76.9896 71.4887 58.4539 54.9251 51.9082 71.6057 50.9199 45.017 42.7974 61.3378 42.7045 39.3066 39.1752 37.9141 41.3021 37.762 35.5023 34.9504 33.845 33.8076 33.6013 32.9408 32.2679
threshold=0.0042946713701761769 0.0072266549265242817 -0.00016153597662055109 0.0028462221628632709 -0.00088784478148188923 0.0051898247123706052 -0.0041782615345622755 -0.0059111941175709311 -0.0050032898986891597 0.0048107005622877843 0.021931434150671118 0.018876979723592559 0.0023608596840260731 0.013904860208675136 0.0041081737202997345 0.0061787527368794811 0.99665573079580616 0.011480096140750467 22.500000000000004 0.0016893151544874398 -0.019805733959532064 -0.033180193146615973 -0.00083852436381540781 0.98599609244763176 -0.42349572300698862 0.00025095428822044416 0.98959488581440291 0.99593583551863729 -0.013260377527471076 0.0047940234589320492
decision_type=2 2 2 2 2 2 2 2 2 2 2 2 2 2 2 2 2 2 2 2 2 2 2 2 2 2 2 2 2 2
left_child=2 3 6 8 14 17 7 20 -2 18 -7 12 -10 23 22 16 26 24 -6 -11 21 -1 -4 -12 29 -5 -13 -27 -16 -3
right_child=1 5 4 25 9 10 -8 -9 11 19 13 15 -14 -15 28 -17 -18 -19 -20 -21 -22 -23 -24 -25 -26 27 -28 -29 -30 -31
leaf_value=-0.0084086700731360025 -0.0061309221463601727 0.061674589375699973 0.079560838474876217 -0.037466440161802304 -0.022719699775455515 -0.0038816156418206463 -0.033315996374892708 0.018963347228965241 0.025806321751801808 0.032818134445884765 0.07676538040986107 0.089588335662792451 -0.0025898445238530577 0.010905218280710822 0.056455343127933183 -0.0062574221090984572 0.023791381369468421 0.059877682142220015 0.034089972101731418 -0.0051458757990279318 -0.02449395595491001 0.10310523279399603 0.023433815555904798 0.024823271340618097 0.044480073573995152 -0.0012552124013859532 0.010119837320617518 -0.030222291205540309 -0.0065695936635681365 -0.0033223787331324779
leaf_weight=26.066306114196777 334.38767845928669 24.318163156509399 33.577623948454857 139.60948748141527 730.5309853553772 268.02560198307037 1089.8747699633241 155.34949439018965 558.81369803100824 88.170722723007202 65.631886437535286 85.622330792248249 368.34517515450716 205.77977079898119 23.148705653846264 42.080574609339237 114.61261840909719 272.79503506422043 31.772409044206142 296.34228474646807 511.28253570199013 12.18479213118553 278.72879111766815 65.957100220024586 233.85831341892481 349.27547360211611 15.862806126475332 140.33632779866457 198.61777813732624 88.907609909772873
leaf_count=263 2817 129 209 1806 7562 1850 14901 1464 4015 678 294 477 3087 1228 134 292 676 1263 327 2752 6184 116 2114 381 1239 2836 100 1316 1408 512
internal_value=-0.000316754 0.0141133 -0.0143257 0.00549165 -0.00293921 0.0292343 -0.0249897 -0.0121158 0.0142866 -0.0123347 0.013015 0.0200464 0.014525 0.0264387 0.0172358 0.0398746 0.0488579 0.0450746 -0.0203519 0.00355946 -0.0209017 0.0271138 0.0294683 0.0507301 0.0334399 -0.0157502 0.0771669 -0.00955798 9.15388e-06 0.0106374
internal_weight=6849.87 3374.22 3475.65 2148.95 1680.89 1225.27 1794.76 704.883 1519.72 1146.82 605.394 1185.34 927.159 337.369 534.073 258.178 216.098 619.879 762.303 384.513 549.534 38.2511 312.306 131.589 347.084 629.221 101.485 489.612 221.766 113.226
internal_count=62430 24318 38112 17422 15184 6896 22928 8027 11464 11319 3753 8647 7102 1903 3865 1545 1253 3143 7889 3430 6563 379 2323 675 1880 5958 577 4152 1542 641
is_linear=0
shrinkage=0.05


Tree=20
num_leaves=31
num_cat=0
split_feature=70 61 61 19 1 19 1 70 62 77 61 0 70 63 68 36 19 20 19 5 62 37 37 19 62 20 61 83 5 90
split_gain=502.374 157.855 157.314 146.493 116.711 107.15 74.4928 64.6708 53.1255 53.9314 52.4563 48.2456 46.952 46.9057 46.6527 45.8101 45.0545 44.1334 43.1451 41.4523 38.1948 38.0845 37.7534 36.823 35.5286 35.9281 32.9249 32.5168 32.258 31.9825
threshold=0.0042946713701761769 -0.00016153597662055109 0.0073737566095224425 0.0028462221628632709 7.6155662320568499e-05 0.0049022942361872006 -0.0097880615771057163 0.015255339334417873 0.0048107005622877843 0.12274636241341826 0.0017033100783793098 -0.0016741221413529362 0.028401115483808591 0.99527986903753285 -0.31595247282302236 0.85090319729686215 0.0016893151544874398 0.021610052390865938 0.00082734716097487241 0.0033682454255357544 -0.009848716600147309 0.48471211011328602 0.33181091501964072 -0.00058090702109943803 0.0016426890396053111 0.00047012028650162725 0.00025095428822044416 -0.039651294070722341 0.0035183742968895341 0.0012334127086920542
decision_type=2 2 2 2 2 2 2 2 2 2 2 2 2 2 2 2 2 2 2 2 2 2 2 2 2 2 2 2 2 2
left_child=1 6 3 7 11 13 -1 10 -6 16 18 15 -7 24 -15 28 -10 -14 -2 23 -9 29 -11 -12 25 -4 -5 -16 -3 -22
right_child=2 4 5 26 8 12 -8 20 9 22 19 -13 17 14 27 -17 -18 -19 -20 -21 21 -23 -24 -25 -26 -27 -28 -29 -30 -31
leaf_value=-0.0036084854889692195 0.0049569902441594337 0.045563095288009517 0.070243639781895045 -0.036750736003357695 -0.022098862701278525 0.0032377923009392802 -0.02939249115889539 -0.0067324792554967657 0.031954642269947847 0.066421481514114797 0.064817592419919218 0.0033571808843020829 0.049053513526082934 -0.0075554041139665774 0.09087071265829183 0.072148477309795775 -0.024555221637395919 0.0043860437573504532 -0.025901852285319618 0.0012395899277782157 0.061276816716553967 0.015273141313493969 0.0089186989563956025 0.021951437692351885 0.057692549714430601 -0.044132620004008936 -0.0089539791653182495 0.028181342590356248 0.0028557163101951754 0.023081420965070369
leaf_weight=349.7076151072979 478.49610083550215 72.649751640856266 11.196575820446016 135.3216308504343 650.79088991135359 400.27984869480133 1407.8766742497683 61.950933188199997 44.231704466044903 42.203410245478153 64.762316629290581 436.4270381256938 140.81898144632578 75.211798645555973 27.220754764974117 53.332103475928307 174.12773040682077 91.058951579034328 148.39780282974243 184.09649829566479 155.13909687101841 144.25651123374701 88.194658868014812 221.27031091600657 358.19027049094439 17.751723580062389 500.71571504324675 86.154389150440693 112.96938602626324 84.743759050965309
leaf_count=3657 3944 513 47 1806 6982 2626 19271 392 354 343 338 3467 729 462 146 312 1688 524 1662 1250 932 927 772 1549 1612 98 4260 480 753 534
internal_value=-0.000314367 -0.013795 0.0133473 0.00532469 -0.00281119 0.0278208 -0.0242622 0.0136476 -0.0136604 0.00208586 0.00712042 0.0132455 0.0136091 0.0434256 0.0229775 0.0313059 -0.0131084 0.0315125 -0.00234789 0.0197459 0.0296994 0.0355748 0.0275295 0.031657 0.0533865 0.000105642 -0.0148679 0.0432327 0.019571 0.0477835
internal_weight=6819.54 3432.51 3387.03 2179.15 1674.93 1207.88 1757.58 1543.11 999.548 348.758 1097.02 675.378 632.158 575.726 188.587 238.951 218.359 231.878 626.894 470.129 446.09 384.139 130.398 286.033 387.139 28.9483 636.037 113.375 185.619 239.883
internal_count=62430 38112 24318 17594 15184 6724 22928 11528 10139 3157 8743 5045 3879 2845 1088 1578 2042 1253 5606 3137 2785 2393 1115 1887 1757 145 6066 626 1266 1466
is_linear=0
shrinkage=0.05


Tree=21
num_leaves=31
num_cat=0
split_feature=70 70 58 21 19 63 20 63 20 63 58 63 20 62 19 63 20 63 21 63 63 21 70 19 19 20 63 62 20 77
split_gain=459.824 132.853 113.163 113.066 71.1999 94.2644 110.626 62.7604 92.3719 62.3341 83.5618 59.6378 73.7402 59.3955 58.6853 52.6615 52.8122 50.4805 48.9848 74.4276 48.799 56.8176 45.3194 41.4681 39.7657 39.7424 39.3523 37.6804 36.7038 35.5508
threshold=0.00044010460232666681 0.015255339334417873 0.00081782770092624004 0.0061787527368794811 -0.0065047493925030732 1.0013768576528748 -0.0018653906321924186 1.0003027305635082 -0.0021747746430522382 0.98442747893890858 0.0028250629403430622 0.99636404971756265 0.0045707773183372461 0.0032207125585170765 -0.0032551784337413975 0.99007289845815649 0.007486513917413516 1.0015361959319369 0.0024051058222980455 0.99517634414059652 1.0140806246993661 -0.0046552108627859407 -0.0071775690071176962 -0.00066534744760155418 -0.013260377527471076 0.013904860208675136 1.013388055115281 -0.0044065907538113997 -0.0029325908240067388 0.0078302314447149732
decision_type=2 2 2 2 2 2 2 2 2 2 2 2 2 2 2 2 2 2 2 2 2 2 2 2 2 2 2 2 2 2
left_child=4 2 7 9 20 6 27 8 -2 25 17 12 -4 -8 26 16 -14 -11 19 -10 21 -1 -23 -19 -22 -3 -9 -6 -7 -15
right_child=1 3 11 -5 5 28 13 14 18 10 -12 -13 15 29 -16 -17 -18 23 -20 -21 24 22 -24 -25 -26 -27 -28 -29 -30 -31
leaf_value=0.064017292697903419 0.062884098361418159 0.070847887756911351 0.030232692886216772 -0.0032203609593217165 -0.0035362129792281673 -0.023997743526287234 -0.029146168964251491 0.033361490099878238 0.051098901453118267 0.038822306035393342 -0.0068543043981586938 -0.027541928330350709 0.044773129174136179 -0.015376956507435216 -0.010342678347650618 -0.024162657585713818 -0.0052430083903805295 0.027816083394608594 -0.0046467139195536817 0.010065426151307576 0.0085329722078726338 -0.011357547724089829 0.042940148077436263 -0.019673642686036358 -0.029242464540451141 0.024210210283018112 -0.018335043430789007 0.043013582654872692 -0.043410502966309786 0.013398570970016939
leaf_weight=51.114072263240814 116.05624518543482 133.68370860815048 148.64359501749277 335.33945532143116 69.286588191986084 785.68977235257626 464.80637255683541 166.14201722294092 164.35361640900373 579.62158175557852 174.60917327553034 304.5131223089993 66.264039851725101 261.56938769295812 416.02768987044692 297.59649868309498 259.33009617775679 118.00281126797199 223.22152829170227 337.31406720355153 120.24682777374983 131.63436961174011 54.273848727345467 75.301620647311211 165.62596097588539 69.38972532004118 47.289669156074524 116.68651828542352 352.8304396905005 182.03287947922945
leaf_count=370 604 589 1075 2486 650 9843 5548 1203 949 3347 1299 3235 406 2808 3907 2848 2115 699 1784 2857 1138 1377 409 557 1918 381 377 869 5032 1750
internal_value=-0.000310682 0.0104467 0.00351454 0.0223275 -0.0160525 -0.0199416 -0.00946324 0.0125321 0.0214691 0.0297734 0.0243857 -0.00880434 -0.00141176 -0.016656 0.000592328 -0.00895961 0.00493614 0.0314431 0.0148385 0.0235086 0.000555407 0.0173303 0.00449406 0.00931649 -0.013353 0.0549119 0.0219072 0.0256709 -0.0300138 -0.00356887
internal_weight=6788.5 4032.7 2546.75 1485.95 2755.8 2232.9 1094.38 1470.4 840.945 1150.61 947.535 1076.35 771.834 908.409 629.459 623.191 325.594 772.926 724.889 501.668 522.895 237.022 185.908 193.304 285.873 203.073 213.432 185.973 1138.52 443.602
internal_count=62430 30718 21360 9358 31712 26500 11625 11681 6194 6872 5902 9679 6444 10106 5487 5369 2521 4603 5590 3806 5212 2156 1786 1256 3056 970 1580 1519 14875 4558
is_linear=0
shrinkage=0.05


Tree=22
num_leaves=31
num_cat=0
split_feature=71 21 62 68 17 62 20 21 64 9 71 72 62 20 62 62 6 92 77 58 62 71 19 65 62 6 20 37 21 104
split_gain=294.499 119.799 114.536 92.4295 75.4816 69.996 81.5937 60.1559 97.8963 58.9602 45.2858 44.5012 44.4016 40.9846 78.4698 46.0424 38.0976 37.0876 33.1351 36.8627 55.162 32.9505 32.7464 30.6905 33.173 32.1823 28.1028 30.4622 27.2962 27.6838
threshold=0.006904214920247718 0.0024051058222980455 0.0048107005622877843 0.41924748984879751 1.1089108910891163 0.0012109659787653026 0.0007448509945257542 0.0061787527368794811 0.97021157646060863 1.0000000180025095e-35 0.034327962183147757 1.0125620263448671 0.0052046340737276721 -0.0020178851246116761 -0.0045256765302198491 0.0038039949760633831 22.500000000000004 -0.0084393064413470324 -0.36807833940213758 0.0039914206107587499 0.018383972883459439 0.020334625750280892 0.0022246407496507984 -0.0054756465676992537 -0.0029260921223220712 1.5000000000000002 0.0049274227369525102 0.050759940531541071 0.005271935108056733 0.99023357603863116
decision_type=2 2 2 2 2 2 2 2 2 2 2 2 2 2 2 2 2 2 2 2 2 2 2 2 2 2 2 2 2 2
left_child=4 3 26 12 5 16 9 8 -4 11 -9 -7 22 14 17 -15 -1 -6 -10 20 21 -20 23 -2 25 -25 27 -3 29 -23
right_child=1 2 7 -5 13 6 -8 10 18 -11 -12 -13 -14 15 -16 -17 -18 -19 19 -21 -22 28 -24 24 -26 -27 -28 -29 -30 -31
leaf_value=-0.024038752294769941 0.049269315516054929 0.044233761228373213 0.060999171021057612 0.045209234382781141 0.035049072498835064 0.014936736285753658 -0.016807843603894458 -0.029637154240635573 -0.0046974258562590505 0.043421786848246609 0.004580487375237717 -0.023775519754219005 0.029818822394527808 -0.029452311934539649 0.034837738600447983 0.0022702490765418278 0.014951173499466128 -0.0072140531927853266 -0.010784427966014028 -0.014781634632953431 0.060629222932394623 0.054041523885702561 -0.017082339566558646 0.041198031267563995 0.020490994052451958 -0.0079729312899482051 -0.037708910804756385 -0.016846711271833733 -0.013510601336847533 0.013454078536209349
leaf_weight=1347.3932732455432 52.06030373647809 22.840151328593493 110.40794337540865 317.73417449370027 58.691497787833214 203.16073110699654 616.70348133891821 135.36137506365776 240.30972895771265 108.6257658675313 338.49909110367298 116.98198571056128 343.25698740780354 196.63101965561509 197.11594532802701 273.45637596398592 65.707029532641172 449.21671722829342 90.14185594394803 70.855914711952209 82.626701287925243 85.213742084801197 109.39002852514386 37.753404889255762 329.37602073326707 280.63024025410414 166.75649493187666 192.04927181825042 36.803420290350914 82.870380818843842
leaf_count=15594 384 217 614 1996 532 1625 6004 1223 1961 895 2675 1120 2202 2416 1624 2345 803 4914 773 490 477 565 963 309 2627 2656 1749 1815 285 577
internal_value=-0.000308026 0.0109467 0.00171889 0.0213328 -0.00998702 -0.0149691 -0.00516081 0.00892129 0.0172902 0.0115913 -0.00519401 0.000791056 0.0147501 0.000436605 0.0080614 -0.0109989 -0.0222258 -0.00233032 0.0102843 0.0183114 0.0245203 0.0144076 0.00835815 0.0123348 0.00936638 -0.00214232 -0.0223068 -0.0103546 0.025491 0.0340307
internal_weight=6758.62 3124.94 1654.74 1470.2 3633.68 2458.57 1045.47 1273.09 799.23 428.768 473.86 320.143 1152.47 1175.11 705.024 470.087 1413.1 507.908 688.822 448.512 377.656 295.029 809.21 699.82 647.76 318.384 381.646 214.889 204.888 168.084
internal_count=62430 24558 13421 11137 37872 26041 9644 9640 5742 3640 3898 2745 9141 11831 7070 4761 16397 5446 5128 3167 2677 2200 6939 5976 5592 2965 3781 2032 1427 1142
is_linear=0
shrinkage=0.05


Tree=23
num_leaves=31
num_cat=0
split_feature=61 70 1 1 70 61 5 20 64 19 61 0 14 62 58 68 77 0 62 71 19 58 70 58 70 62 58 61 18 83
split_gain=415.694 143.81 137.852 105.83 107.549 76.9883 98.5426 74.4753 78.1073 55.5822 52.6663 51.925 54.8687 51.4759 50.4964 47.5787 45.4611 42.2963 39.9381 38.7594 37.8113 33.5721 32.2942 30.1661 33.681 30.5078 29.364 29.1963 28.8407 28.229
threshold=0.00025095428822044416 0.013029133027546358 -0.0012826552052544564 -0.0031039387099280244 -0.0059111941175709311 0.0058450917623463616 0.0039448811042264425 0.0099985255994041872 1.0006616050672987 0.0051898247123706052 0.012503657559641094 0.0014641076687730147 0.51746218897381513 0.0061864137857987498 -0.0011528139828902823 0.049097119402347338 -0.62462576517006407 -0.00028866971841318438 0.0240611835234768 0.0010482490424979631 -0.019805733959532064 0.00052769659898792439 -0.033180193146615973 0.0052960927927665153 0.041268823092001646 0.021791414399317369 -0.00038590968965469715 0.0080868465602775656 0.014305517853631744 -0.0043299863807491927
decision_type=2 2 2 2 2 2 2 2 2 2 2 2 2 2 2 2 2 2 2 2 2 2 2 2 2 2 2 2 2 2
left_child=3 2 11 4 20 17 9 8 18 13 -9 12 27 -7 -6 29 -15 -4 -3 -5 22 -21 -1 25 -25 -12 -14 -2 -26 -10
right_child=1 7 5 19 14 6 -8 10 15 -11 23 -13 26 16 -16 -17 -18 -19 -20 21 -22 -23 -24 24 28 -27 -28 -29 -30 -31
leaf_value=-0.0055862551622910305 0.012456277477204104 0.035602043099487446 0.0011831850117351196 -0.035746529137807181 0.021337992964233218 0.013200586186740687 -0.010358203500895665 -0.010448970918987109 0.010815562037821172 -0.011538780665336873 0.0069392782466400349 -0.0016201627714346148 0.070201011161238946 0.016634100420276337 -0.0053676858670002135 0.034823516962617491 0.069318771177125357 -0.019392388853156414 0.076913106072198312 -0.007066385160881242 -0.024175268032030916 -0.030211404249444313 0.090183991448990725 -0.018933797852774117 0.058293404972246679 0.05377090013593059 0.026562104547204386 0.053335772202501124 -0.011030722107487619 -0.029426183134516032
leaf_weight=26.545151561498642 285.78233201801777 609.03376151621342 372.58731294795871 599.88792960345745 330.0172464363277 178.49023757874966 415.28791945427656 238.6676003113389 94.337215185165405 90.79180296510458 54.576738297939301 171.36895930022001 103.23704316467047 62.674616180360317 381.77937846630812 104.6916126832366 118.10561502724886 757.71265824511647 64.722612492740154 332.26495227962732 611.43407170847058 296.47740740329027 13.169482454657553 72.649195656180382 38.170525997877121 95.84834124147892 61.519874103367329 51.557178720831871 24.718661740422249 80.99559023976326
leaf_count=266 1927 3241 3413 8827 2820 1269 3312 1863 629 719 295 1231 588 376 3735 598 641 8138 292 3783 8040 3933 114 441 192 460 375 231 127 554
internal_value=-0.000303073 0.00951312 0.00258392 -0.0160128 -0.0064196 -0.00401705 0.00720678 0.0220231 0.0303461 0.0234146 0.00689178 0.0221443 0.0302553 0.0322477 0.00701413 0.00815161 0.0510535 -0.0126099 0.0395705 -0.0266547 -0.0211045 -0.0179802 0.0261714 0.0213645 0.00425636 0.0367796 0.0539063 0.0187041 0.0310455 -0.00777425
internal_weight=6739.1 4147.53 2669.12 2591.58 1362.95 1995.65 865.35 1478.41 953.781 450.062 524.631 673.465 502.096 359.27 711.797 280.024 180.78 1130.3 673.756 1228.63 651.149 628.742 39.7146 285.963 135.538 150.425 164.757 337.34 62.8892 175.333
internal_count=62430 30912 22220 31518 14975 17868 6317 8692 5314 3005 3378 4352 3121 2286 6555 1781 1017 11551 3533 16543 8420 7716 380 1515 760 755 963 2158 319 1183
is_linear=0
shrinkage=0.05


Tree=24
num_leaves=31
num_cat=0
split_feature=61 68 39 1 19 72 70 62 58 62 77 0 58 62 70 70 58 1 20 70 18 68 63 61 70 58 70 83 19 61
split_gain=381.145 144.4 127.9 94.6607 93.6628 92.642 89.9034 70.4221 68.8893 59.9352 59.5907 50.8219 46.8246 43.2559 40.6212 35.1016 41.8104 35.0432 33.2941 39.4159 32.7859 32.449 32.1835 31.1655 30.52 30.2423 30.0718 30.6809 30.0934 29.7915
threshold=-0.00023186403891842664 0.71520491053612156 1.0000000180025095e-35 -0.0033304289298059027 0.00028333575282837772 0.99858290410136197 -0.0059111941175709311 0.00053201559579256702 0.0028914160907130499 0.013185482042132868 -0.39552720711545869 -0.00064241525753820237 -0.0010960555522250347 0.019761321899260567 0.013432441335722863 0.0010364033694615527 0.00015840150057333548 -0.015853143699238667 0.018064348802792663 0.041268823092001646 0.00794545593098594 -0.37580496206897701 0.97848391653045474 0.010218744794558332 0.019355214000252998 0.0031721814326140323 0.0061406513727442153 -0.032736723783773729 -0.0033159905361048827 0.006701606596478696
decision_type=2 2 2 2 2 2 2 2 2 2 2 2 2 2 2 2 2 2 2 2 2 2 2 2 2 2 2 2 2 2
left_child=3 2 4 6 7 10 17 -2 9 26 29 -4 -8 -10 -13 -5 -17 -1 22 -20 -16 -9 -15 -7 -14 -25 28 -28 -3 -6
right_child=1 8 11 15 5 23 12 21 13 -11 -12 14 24 18 20 16 -18 -19 19 -21 -22 -23 -24 25 -26 -27 27 -29 -30 -31
leaf_value=0.0039412619226243091 0.01269453789742043 0.037205414907600459 0.0060170228670849485 -0.034857917762502195 -0.0072273976846694834 -0.018790716930682027 0.019283637906040204 0.034279222330085291 -0.018539805824139936 0.060519482637681025 0.028079069281252023 -0.022982745680409866 -0.014002158636645182 0.085236447960589531 0.01538929076864814 0.0013937107054215756 -0.028228200709353769 -0.026493540750891831 -0.02108457323122304 0.034520591106187014 -0.017632593761174559 0.070701341099405762 0.023337001460980965 0.034214065401475528 0.026928078051085526 -0.032507041091826019 0.078097664330881056 0.030230428814103996 0.00056001430460958892 0.019463145200587176
leaf_weight=116.76757496595383 389.65634808316827 88.063981145620346 406.62000408023596 616.62277779728174 311.31896359845996 417.30296554788947 327.52833126485348 204.16416118294001 108.37414893880486 172.89534187316895 396.07791354507208 587.18225594982505 279.30843002349138 29.270122073590755 157.22167979180813 190.71563257649541 317.3362759873271 497.76975783705711 74.096817649900913 55.923107586801052 144.02190168946981 87.300603210926056 74.312554337084293 58.519685380160809 54.418002799153328 23.927932269871235 41.776651546359062 168.478067047894 153.98439599201083 157.41090300679207
leaf_count=1187 3158 578 2878 9838 2765 4232 2777 1279 815 874 2709 5392 2888 148 978 1844 4054 6891 529 310 933 480 467 357 397 178 239 971 1349 935
internal_value=-0.000299036 0.00859752 0.003672 -0.0162649 0.0114561 0.00389733 -0.00694242 0.0265993 0.0256108 0.03548 0.013801 -0.00862392 0.0058531 0.00756799 -0.0153249 -0.02684 -0.0171085 -0.0207107 0.0196801 0.00283187 -0.000398181 0.0451885 0.0408284 -0.0132407 -0.007328 0.0148503 0.0259085 0.0397414 0.0138926 0.00173594
internal_weight=6708.37 4307.9 3340.73 2400.47 2045.68 1364.56 1275.79 681.121 967.175 625.198 864.808 1295.05 661.255 341.977 888.426 1124.67 508.052 614.537 233.603 130.02 301.244 291.465 103.583 499.751 333.726 82.4476 452.303 210.255 242.048 468.73
internal_count=62430 32554 26274 29876 16093 11176 14140 4917 6280 4011 6409 10181 6062 2269 7303 15736 5898 8078 1454 839 1911 1759 615 4767 3285 535 3137 1210 1927 3700
is_linear=0
shrinkage=0.05


Tree=25
num_leaves=31
num_cat=0
split_feature=70 61 19 19 61 1 19 61 61 71 70 17 20 70 63 39 68 62 70 0 70 19 58 62 70 71 71 72 61 58
split_gain=352.011 146.596 121.938 101.938 92.7305 66.6411 64.0223 60.9445 47.9364 45.7567 42.4041 39.1873 38.792 59.4636 35.4227 33.9497 33.7151 33.5015 33.0718 32.6087 32.048 32.0452 30.2786 43.4685 32.3525 29.5471 29.2627 27.8258 27.8231 33.5659
threshold=0.00044010460232666681 0.0078108557752432119 0.00074594286933463659 0.0049022942361872006 0.0021699724089936146 0.0013005460092362013 -0.0068630260798991771 0.00025095428822044416 0.0035939100688337326 0.0064041514567668495 0.012786198062938707 1.2014378109613417 0.010209564321164303 0.012786198062938707 1.0031678121950554 1.0000000180025095e-35 -1.0527566588945045 0.013412481078515157 -0.017844558090037908 0.0014641076687730147 -0.0088728383574159624 -0.00029752064488934989 0.0059144418098725548 0.0240611835234768 0.041268823092001646 -0.007064538047224401 -0.012838318366055892 0.94890928282428322 -0.0017862947276716494 -0.0016882609138254973
decision_type=2 2 2 2 2 2 2 2 2 2 2 2 2 2 2 2 2 2 2 2 2 2 2 2 2 2 2 2 2 2
left_child=4 2 8 14 6 19 18 -4 11 -9 -5 15 13 -11 16 -2 -3 -7 -1 -6 -8 -22 23 -12 -24 -10 -17 -14 29 -13
right_child=1 3 7 10 5 17 20 9 25 12 22 28 27 -15 -16 26 -18 -19 -20 -21 21 -23 24 -25 -26 -27 -28 -29 -30 -31
leaf_value=-0.016607566943459461 0.012089840882900325 -0.025771297480112816 -0.026724073717868082 -0.015130153419219106 0.022539170984594809 -0.019915773840011444 -0.034812492812617078 -0.015581696592855965 0.0045725177090270219 -0.0025328224935070509 0.011060133156313186 0.042181460896195185 0.046948262732516115 0.030379727933778577 0.0029940255559402899 -0.037657726272171205 0.04492699918218751 0.017343796300270539 0.012339779842311611 -0.0070902383460607413 -0.011782007527419917 -0.033773554595786563 -0.029756636400531888 0.046804117363891784 0.01968842889752621 0.041839840561094369 -0.0012377004150667733 -0.022213228310054168 0.04648917953185789 -0.0063433371465629971
leaf_weight=219.20800633728504 482.39662790298462 17.440115563571453 319.34563561528921 136.67818418890238 287.4697143882513 401.80602215975523 614.3117375895381 398.63730271160603 72.087658822536469 314.18618423491716 244.1369012594223 58.153402119874954 16.085883073508739 243.67155796289444 63.258948430418968 68.536086019128561 510.02946431189775 70.987888395786285 179.43613603711128 137.1688127592206 482.19905722141266 252.33447923511267 64.25639520585537 130.53480434417725 68.191672652959824 202.84536308795214 282.45801525190473 151.63937965035439 99.946857698261738 92.045398965477943
leaf_count=2615 4050 100 4328 1030 1767 4130 9594 3734 466 2675 1424 403 134 1454 401 623 2411 596 1752 1051 6239 3968 428 669 357 1040 2217 1332 672 770
internal_value=-0.000295092 0.00899483 0.00267014 0.0233501 -0.014473 -0.00140881 -0.0211821 -0.00744819 0.0134223 -0.00197269 0.00958736 0.00869113 0.00550413 0.0118433 0.0383493 0.00348166 0.0425894 -0.0143214 -0.0035779 0.0129681 -0.026385 -0.0193368 0.0162492 0.0235133 -0.00429955 0.0320683 -0.00834918 -0.0155802 0.0260471 0.0124443
internal_weight=6681.48 4036.56 2802.04 1234.53 2644.92 897.432 1747.49 1443.57 1358.47 1124.22 643.798 1083.54 725.583 557.858 590.729 833.391 527.47 472.794 398.644 424.639 1348.85 734.534 507.12 374.672 132.448 274.933 350.994 167.725 250.146 150.199
internal_count=62430 30718 23898 6820 31712 7544 24168 13657 10241 9329 3908 8735 5595 4129 2912 6890 2511 4726 4367 2818 19801 10207 2878 2093 785 1506 2840 1466 1845 1173
is_linear=0
shrinkage=0.05


Tree=26
num_leaves=31
num_cat=0
split_feature=61 61 0 1 70 5 4 61 58 4 0 19 71 52 19 0 63 20 19 1 70 1 70 70 19 61 37 102 70 61
split_gain=321.512 122.184 129.317 88.0133 90.4247 87.7569 56.0724 53.3344 50.8779 50.452 49.5912 48.556 48.4479 53.8567 45.6163 41.0686 40.7004 39.4563 37.6059 35.127 37.6661 35.0368 33.9146 32.5705 28.0475 26.5276 26.3063 26.1375 25.4209 27.2165
threshold=-0.00023186403891842664 0.0087788545928573092 1.0000000180025095e-35 -0.0013907836096681502 -0.0051824963276599963 0.0037997174040177574 0.89714285714285846 0.01609542442985528 -0.0011528139828902823 2.2817857142857152 -0.0075989666846083244 0.002004640878024867 0.001990742883044975 0.00014045807866186789 0.0044485083226110953 0.0019752109240861789 0.9902810952312352 0.011498751699537879 -0.0060446666202350263 0.013001023699617909 0.041268823092001646 -0.0022964283509644195 0.004714075571998458 0.01362878504688131 0.0078478868074398009 -0.0035318626153206974 0.5013091248055187 0.0078291658768249554 0.019355214000252998 -0.0061725563454838785
decision_type=2 2 2 2 2 2 2 2 2 2 2 2 2 2 2 2 2 2 2 2 2 2 2 2 2 2 2 2 2 2
left_child=3 2 6 4 18 14 21 11 27 19 -8 15 13 -4 -3 -7 24 22 25 -9 -21 -2 -14 -23 -16 -1 -12 -6 29 -10
right_child=1 5 12 -5 8 7 10 9 28 -11 26 -13 17 -15 16 -17 -18 -19 -20 20 -22 23 -24 -25 -26 -27 -28 -29 -30 -31
