tree
version=v4
num_class=1
num_tree_per_iteration=1
label_index=0
max_feature_idx=125
objective=binary sigmoid:1
feature_names=log_return_1 log_return_3 log_return_6 range_1 atr_proxy volatility_lookback hour_of_day day_of_week session_asia session_london session_newyork volume_zscore relative_volume volume_percentile body_ratio upper_wick_ratio lower_wick_ratio atr_normalized_range stop_distance dist_ema_fast dist_ema_slow trend_strength trend_direction ema_slow_slope sweep_high_detected sweep_low_detected sweep_depth_atr sweep_rejection_ratio sweep_volume_zscore bullish_fvg_present bearish_fvg_present fvg_size_atr fvg_age_candles price_inside_fvg breakout_volume_confirmation rejection_volume_confirmation volume_block_strength atr_percentile range_compression high_volatility_flag market_regime funding_rate funding_rate_abs funding_rate_mean_4 funding_rate_std_4 mark_basis mark_premium mark_premium_mean_4 futures_pressure m1_bull_ratio m1_vol_tail_pct m1_max_body_ratio m1_trend m1_atr_ratio m1_volume_zscore m5_bull_ratio m5_vol_tail_pct m5_max_body_ratio m5_trend m5_atr_ratio m5_volume_zscore btc_1h_log_return_1 btc_1h_log_return_3 btc_1h_ema_fast btc_1h_ema_slow btc_1h_trend_strength btc_1h_trend_dir btc_1h_atr_pct btc_1h_volume_zscore btc_1h_regime btc_4h_log_return_1 btc_4h_log_return_3 btc_4h_ema_fast btc_4h_ema_slow btc_4h_trend_strength btc_4h_trend_dir btc_4h_atr_pct btc_4h_volume_zscore btc_4h_regime btc_1d_log_return_1 btc_1d_log_return_3 btc_1d_ema_fast btc_1d_ema_slow btc_1d_trend_strength btc_1d_trend_dir btc_1d_atr_pct btc_1d_volume_zscore btc_1d_regime eth_return_1 eth_return_3 eth_trend eth_volume_block sol_return_1 sol_return_3 sol_trend sol_volume_block gold_return_1d gold_return_5d gold_ema_fast gold_ema_slow gold_trend gold_trend_dir oil_return_1d oil_return_5d oil_ema_fast oil_ema_slow oil_trend oil_trend_dir dxy_return_1d dxy_return_5d dxy_ema_fast dxy_ema_slow dxy_trend dxy_trend_dir spx_return_1d spx_return_5d spx_ema_fast spx_ema_slow spx_trend spx_trend_dir vix_return_1d vix_return_5d vix_ema_fast vix_ema_slow vix_trend vix_trend_dir
feature_infos=[-0.099446723516727592:0.092430499214559078] [-0.13813637119276417:0.10939641052517758] [-0.15789699685678987:0.12153149633032942] [0.00025603082784753821:0.19320996207069746] [0:139.78142857142865] [0:0.025521346345938733] [0:23] [0:6] [0:1] [0:1] [0:1] [-2.801882138255845:4.2392375660298516] [0.062862886964128478:1225.7098100000001] [0:1] [0:1] [0:0.98913043478270002] [0:0.99425287356309378] [0:8.0082347656835005] [0:0.044820607118946303] [-0.11649444429181677:0.081625581451390303] [-0.15099425874721537:0.095073223174396843] [-0.059277062181200442:0.03604832788331977] [-1:1] [-0.013118593563756182:0.010506178578106064] [0:1] [0:1] [0:3.410649161196222] [0:0.98396436525612241] [-2.0469733816200124:8.2189202161260404] [0:1] [0:1] [0:5.7644182367323529] [0:999] [-1:1] [0:4.2369732221092695] [0:3.9680109083034045] [0:4.6393174925371055] [0:1] [0:0.50452571428571535] [0:1] [-1:1] none none none none none none none none [0.066666666666666666:1] [0.0057294589926627339:0.87667273123081657] [0.45961002785515992:1] [-0.03906974835452634:0.016495289934388278] [0.112500000000144:77.790714285714301] [-2.8679209517647397:4.2412297395852852] [0:1] [0.016367168440979005:0.97459880486059614] [0.030716723549486111:1] [-0.048436978193859288:0.028094253652430099] [0.75000000000003253:153.02214285714291] [-2.9925750565734357:4.2425781008269352] [-0.12577701876275746:0.09177018253087503] [-0.16075079623071314:0.14732719463994892] [0.91208511105300472:1.1381157933979273] [0.88081483556408879:1.1862698419063269] [-0.074112629481800876:0.046963631274257747] [-1:1] [0:0.057606653637095863] [-3.1285518691798044:4.1918539012122178] [-1:1] [-0.15067206679800346:0.10911904198704081] [-0.20078742925087878:0.17004824415537484] [0.89093757473935808:1.1851572930552872] [0.83709009927061939:1.2547053081129369] [-0.092433809181345708:0.063596616229405309] [-1:1] [0:0.07276900773195874] [-2.3508906062682984:4.1922109411904085] [-1:1] [-0.15897872484390732:0.19765445065161183] [-0.2112878409117272:0.35461200337141291] [0.81342823481623572:1.212352821044727] [0.74760700745730113:1.2897471699446788] [-0.10914815279715942:0.096549918956094632] [-1:1] [0:0.12099608417491908] [-2.3902963030259303:4.1412545248801154] [-1:1] [-0.04832452516267341:0.031568184591943091] [-0.076640046063691042:0.063346432335985012] [-0.027387549847263003:0.024405539106781556] [0:4.3608682025128944] [-0.09041019507896858:0.10768446076881111] [-0.17335116589108704:0.13438175691511467] [-0.049784264422340456:0.051430409392998533] [0:4.5483266953207009] [-0.03729596062718759:0.032973254571937123] [-0.060968475254185237:0.084680320243828572] [0:1.0318324864480544] [0:1.0387109496239975] [-0.013552050412290875:0.030825046746169066] [-1:1] [-0.089574597252929655:0.070089696022911305] [-0.17817279753831927:0.14127287057139246] [0:1.0969112310548137] [0:1.1255793479486649] [-0.040803565775165758:0.049074156231914079] [-1:1] [-0.019925071373086668:0.016018741767101052] [-0.035686415870970691:0.027696452929837568] [0:1.0242388360487171] [0:1.0351943449985415] [-0.015750939562693685:0.008761870926379851] [-1:1] [-0.061609061898230934:0.090894879833036457] [-0.12266859018076186:0.07978869774574511] [0:1.0842435716467713] [0:1.1082896208395034] [-0.038414436962718956:0.022760384685888101] [-1:1] [-0.44244875916441467:0.55410965103896503] [-0.62865397896855968:0.87703695910092472] [0:1.2922893212610334] [0:1.3733007100084338] [-0.17593381470394809:0.18846479647704209] [-1:1]
tree_sizes=3428 3504 3493 3539 3498 3533 3540 3532 3528 3520 3533 3554 3516 3555 3545 3537 3534 3536 3546 3532 3535 3557 3548 3548 3551 3529 3544 3547 3539 3554 3535 3551 3550 3556 3524 3558 3549 3550 3574 3555 3549 3554 3537 3535 3547 3532 3535 3544 3540 3551 3558 3534 3544 3566 3557 3544 3551 3551 3541 3550 3555 3527 3532 3540 3508 3533 3554 3537 3538 3532 3536 3528 3533 3527 3522 3530 3505 3507 3540 3527 3545 3547 3503 3516 3524 3541 3543 3551 3561 3533 3515 3540 3535 3536 3519 3551 3500 3527 3532 3531 3529 3552 3494 3514 3529 3519 3516 3549 3512 3519 3523 3535 3524 3505 3513 3525 3545 3536 3525 3527 3498 3524 3541 3495 3492 3504 3519 3517 3518 3539 3521 3509 3531 3515 3505 3509 3518 3493 3504 3488 3522 3491 3523 3500 3499 3535 3567 3497 3512 3517 3503 3525 3530 3497 3473 3502 3526 3487 3484 3473 3527 3507 3505 3525 3517 3497 3518 3474 3513 3493 3534 3489 3537 3534 3503 3526 3498 3500 3532 3500 3538 3498 3520 3494 3517 3498 3509 3524 3515 3506

Tree=0
num_leaves=31
num_cat=0
split_feature=61 70 1 61 61 61 1 1 61 18 18 20 19 70 70 0 1 63 63 61 2 70 18 70 19 5 71 71 1 61
split_gain=5658.7 1226.11 987.105 621.153 448.952 433.667 348.904 265.751 252.308 239.205 217.566 206.259 196.795 152.533 149.233 125.595 114.991 100.456 99.9741 96.5825 95.3751 93.8144 96.979 91.0569 101.6 90.1473 87.8159 85.1268 83.8811 93.2954
threshold=-0.0056743633066079283 -0.00671687141677691 -0.0035824009959302462 -0.01262179647123501 -0.0082723371114101166 -0.0024033488010970694 -0.010557803636919405 -0.00033908547749939954 -0.002471519429803194 0.0049106809364052127 0.0065638946364724605 -0.0021026799682207823 -0.0019030923689015557 -0.013947904574249265 -0.021873265374103976 0.0025197898798718973 -0.0073732428157593467 1.002861351090701 0.9993603264909231 -0.014239761163356039 -0.0097625081670582869 -0.018868839112355373 0.0081576519818667044 -0.0014157100932637168 0.001367363337714374 0.004721832383910436 -0.0083760596787551007 -0.014171656128027276 -0.0066911741503370877 -0.0082723371114101166
decision_type=2 2 2 2 2 2 2 2 2 2 2 2 2 2 2 2 2 2 2 2 2 2 2 2 2 2 2 2 2 2
left_child=2 8 3 6 10 7 14 -3 12 17 20 -10 21 16 -1 18 -5 -6 -9 -12 -4 22 -2 24 -7 -8 -14 -13 -15 -30
right_child=1 5 4 13 9 23 25 15 11 -11 19 27 26 28 -16 -17 -18 -19 -20 -21 -22 -23 -24 -25 -26 -27 -28 -29 29 -31
leaf_value=-1.8142342363876494 -1.8209931809222923 -1.9857819205629466 -1.8666382752837114 -1.9292013547452924 -1.8525878304885388 -2.0038016667156824 -1.6982371141626107 -1.973018992279675 -1.9835365757483614 -1.9038797606357232 -1.6974153357726232 -1.8922543270454348 -1.8231745367140295 -1.9780426316921333 -1.9256453067815096 -1.8044011184453845 -1.8281223706703713 -1.7386211266477216 -1.8980977527804943 -1.843068567486472 -1.65667732932453 -1.9583054884643802 -1.9982369028421882 -2.0128548437862257 -1.9622730044256778 -1.8280381522200506 -1.9021936783599205 -1.9472851001662934 -1.8665607288481394 -1.9539902070082464
leaf_weight=58.148613855242729 27.628623157739639 525.05092768371105 5.7827350795269004 59.969104528427124 30.841253757476807 645.31039980053902 52.151703402400017 81.172466486692429 396.75987906754017 76.353520587086678 16.491503745317459 103.12544225156307 71.962925434112549 138.99981728196144 62.217945948243141 21.631712704896927 53.008404895663261 51.8304403424263 98.627759411931038 36.731076523661613 83.635483279824257 147.35265684127808 10.708768665790556 3199.458814278245 190.83025762438774 17.990731358528137 68.750294834375381 220.60063451528549 47.761108249425888 84.492184773087502
leaf_count=543 258 4903 54 560 288 6026 487 758 3705 713 154 963 672 1298 581 202 495 484 921 343 781 1376 100 29877 1782 168 642 2060 446 789
internal_value=-1.97398 -1.99184 -1.85554 -1.89399 -1.7823 -2.00261 -1.82017 -1.96705 -1.94285 -1.84007 -1.7179 -1.95937 -1.90638 -1.93059 -1.87182 -1.91823 -1.88178 -1.78114 -1.93192 -1.79794 -1.67026 -1.94018 -1.8705 -2.00902 -1.99432 -1.73153 -1.86178 -1.92975 -1.95092 -1.92242
internal_weight=6685.38 5808.97 876.406 574.74 301.666 4762.08 190.509 726.483 1046.89 159.025 142.641 720.486 326.403 384.231 120.367 201.432 112.978 82.6717 179.8 53.2226 89.4182 185.69 38.3374 4035.6 836.141 70.1424 140.713 323.726 271.253 132.253
internal_count=62429 54245 8184 5367 2817 44469 1779 6784 9776 1485 1332 6728 3048 3588 1124 1881 1055 772 1679 497 835 1734 358 37685 7808 655 1314 3023 2533 1235
is_linear=0
shrinkage=1


Tree=1
num_leaves=31
num_cat=0
split_feature=61 70 61 1 1 61 61 1 19 70 18 61 0 70 19 64 4 70 19 70 1 70 18 18 1 0 19 19 2 61
split_gain=4767.35 920.36 608.871 618.946 444.312 386.271 262.192 225.559 218.063 161.121 160.042 153.453 140.401 133.128 123.126 122.729 118.651 106.799 100.354 98.3165 84.076 83.9484 79.1537 77.8009 72.9318 71.4496 70.5005 67.7371 63.2711 62.414
threshold=-0.0045611770826948332 -0.00671687141677691 -0.01262179647123501 -0.0041851972131301063 -0.0087709821144107188 -0.0070529075790246362 -0.0019171685083945503 -0.00074813747314241051 -0.0025483802330450362 -0.013947904574249265 0.0068799375781039241 0.0003543151468547017 0.0017866996040740589 0.00016364096766132406 -0.0015675676998729521 0.99501496018397828 33.970357142857019 -0.021873265374103976 0.00071196091187595895 -0.025187643265638233 0.0077949079236427138 -0.0014157100932637168 0.0050094609987617073 0.0046950524573202259 -0.0073732428157593467 -0.0036944283956542481 -0.00073370093874868707 0.00082029694354893287 -0.010038391684891753 0.0020134454158856328
decision_type=2 2 2 2 2 2 2 2 2 2 2 2 2 2 2 2 2 2 2 2 2 2 2 2 2 2 2 2 2 2
left_child=2 8 4 9 17 10 7 -3 -2 24 25 19 -9 14 -7 -16 -6 -1 -13 -10 21 27 -17 -14 -4 -5 -21 -8 -27 -22
right_child=1 6 3 5 16 13 20 12 11 -11 -12 18 23 -15 15 22 -18 -19 -20 26 29 -23 -24 -25 -26 28 -28 -29 -30 -31
leaf_value=0.14101778407269111 -0.012105144774320061 -0.023567445910841908 0.039611425008812484 0.10770735134467793 0.24088524957027169 0.05547130097863872 -0.032594933372891557 0.017290588161934468 0.15356628819786891 0.0093470126682870351 0.085161631164141494 -0.01065267960821162 0.18503146893305211 0.021526598808192021 0.038542248814888297 0.19150670383878862 0.057003196182042887 0.057270565051347901 0.045580390669304138 0.031170394327575762 0.061025751264159225 -0.041453193603322031 0.08409491191183692 0.055161249729055131 0.11476211453450305 0.054655792208840454 0.077468148601119308 0.00014242710111908962 0.21301041903680182 -0.017507976440749588
leaf_weight=74.032234393060207 290.70839000493288 469.02360478788614 68.114936374127865 22.543925493955612 111.1705312281847 104.49959869682789 507.32712821662426 227.31560205668211 27.227656841278076 327.50943749397993 48.97460613399744 176.80839137732983 20.621337473392487 88.184062637388706 27.112637683749199 60.131004378199577 9.5242391750216466 78.364558547735214 143.92278170585632 161.78571203351021 27.599315375089645 2682.7094227597117 23.996399834752083 26.163251891732216 61.373231939971447 6.6668227761983863 167.21015401929617 229.48030365258455 117.16286861896515 303.59020521491766
leaf_count=611 2703 4437 614 181 855 931 4846 2101 238 3023 421 1637 184 797 243 511 77 689 1302 1471 264 25803 210 230 519 57 1493 2144 925 2912
internal_value=-9.3312e-05 -0.0201174 0.0888644 0.0700601 0.15471 0.108545 -0.029642 -0.00250897 0.0241149 0.0280148 0.163402 0.0396691 0.033525 0.0732864 0.0944434 0.131054 0.226375 0.0979538 0.014581 0.0622576 -0.0350178 -0.0373475 0.160869 0.112404 0.0752304 0.18958 0.0547009 -0.0223988 0.204485 -0.0109635
internal_weight=6690.85 5461.49 1229.36 956.27 273.092 499.272 4493.83 743.124 967.663 456.998 195.348 676.955 274.1 303.924 215.74 111.24 120.695 152.397 320.731 356.224 3750.71 3419.52 84.1274 46.7846 129.488 146.374 328.996 736.807 123.83 331.19
internal_count=62429 51765 10664 8432 2232 4276 42921 6952 8844 4156 1584 6141 2515 2692 1895 964 932 1300 2939 3202 35969 32793 721 414 1133 1163 2964 6990 982 3176
is_linear=0
shrinkage=0.05


Tree=2
num_leaves=31
num_cat=0
split_feature=61 61 1 1 72 61 65 63 72 5 2 18 61 61 1 61 1 77 19 20 19 63 63 20 1 68 34 114 1 61
split_gain=4094.39 709.282 543.046 400.248 339.13 241.802 222.329 178.456 138.368 134.339 133.789 129.164 123.539 116.531 102.199 99.3373 89.4499 88.8047 88.6828 87.7692 81.4109 94.1896 62.721 62.7986 62.3683 54.8286 54.0825 52.729 52.5384 53.028
threshold=-0.0035987863417258248 -0.0080069052296141262 -0.0058438116981718415 -0.0018276752032402377 1.0057242635805359 -0.015244258260411248 -0.0011406120333805174 0.99941551079224944 0.99921190178756569 0.0034306062220884883 -0.013655768557354899 0.010524745865810115 -0.0019171685083945503 0.0013129866730322269 0.00037204069586020618 -0.011975283026809939 0.0083409203053219881 0.073363556594906496 -0.00097916711577001377 -0.0071264919919717005 -0.0038507291511173415 1.0019784841055419 1.0045046284872576 0.0024666676982262998 -0.0087709821144107188 1.0000000180025095e-35 0.70298537711219899 -0.0011846855241943071 -0.0040871539737688213 -0.0044765223029797829
decision_type=2 2 2 2 2 2 2 2 2 2 2 2 2 2 2 2 2 2 2 2 2 2 2 2 2 2 2 2 2 2
left_child=1 2 5 8 12 10 13 -5 -3 18 -1 15 14 17 -2 -4 -14 -6 27 -19 -17 -22 23 -20 -7 -12 -21 -9 -10 -30
right_child=4 3 11 7 6 24 -8 9 28 -11 25 -13 16 -15 -16 20 -18 19 22 26 21 -23 -24 -25 -26 -27 -28 -29 29 -31
leaf_value=0.085685101858291146 -0.01968871160167605 -0.013135034370122985 0.20908092779917822 0.026385069555978125 -0.0085443907015855438 0.013486477580966747 0.054481447354629689 0.15038682726352848 0.019671321714601404 0.048750737454222232 0.054932136126932686 0.0417526600918946 -0.036100970543616898 -0.023661807029111161 0.03323363517536157 0.081005705964184715 -0.0042110706149351704 -0.012799036920469528 0.09850507997730594 0.044782415899420114 0.095092431414135259 0.18841478761687466 0.20295501120072434 0.19912274182854262 0.065309982914822567 0.21068210402318119 0.1579603231970898 0.053040020614014839 0.0796467690147762 0.015882207337549425
leaf_weight=95.432426974177361 384.58150956779718 242.81349319964647 96.288856782019138 102.43512032181025 333.43482790887356 127.84010121226311 160.43296796828508 19.63446231931448 208.96026911586523 77.211775049567223 6.5721486434340468 21.801232412457466 2984.9695436805487 599.36773537099361 119.590685300529 37.8967360034585 237.38123624026775 74.884575940668583 55.504670299589634 145.6550437361002 36.783546909689903 102.04954078048468 41.353130280971527 21.519978404045105 106.35631938278675 40.295723170042038 11.380062103271483 47.717424862086773 98.967068679630756 48.624934338033199
leaf_count=749 3630 2218 639 903 3169 1116 1436 162 1877 648 51 168 29285 5768 1062 300 2291 707 463 1338 272 724 314 171 890 299 103 406 822 448
internal_value=-0.000161246 0.0685841 0.10805 0.0411217 -0.0224254 0.0682555 -0.000700724 0.0823699 0.0159766 0.10418 0.119661 0.158869 -0.0301507 -0.00830171 -0.00713542 0.168221 -0.0337517 0.00798249 0.127223 0.0317435 0.145959 0.163689 0.153284 0.126617 0.0370212 0.188842 0.0529842 0.0814186 0.0358018 0.0586392
internal_weight=6687.74 1636.06 671.317 964.742 5051.68 376.497 1325.16 365.377 599.366 262.941 142.3 294.82 3726.52 1164.72 504.172 273.019 3222.35 565.355 185.73 231.92 176.73 138.833 118.378 77.0246 234.196 46.8679 157.035 67.3519 356.552 147.592
internal_count=62429 13640 5208 8432 48789 3105 12521 3067 5365 2164 1099 2103 36268 11085 4692 1935 31576 5317 1516 2148 1296 996 948 634 2006 350 1441 568 3147 1270
is_linear=0
shrinkage=0.05


Tree=3
num_leaves=31
num_cat=0
split_feature=61 70 61 1 1 61 19 0 62 19 70 18 61 1 61 1 19 1 63 70 20 70 63 70 70 19 70 19 63 19
split_gain=3573.53 695.847 572.653 425.102 276.767 238.248 204.006 165.914 145.755 161.063 133.584 101.986 101.531 94.4468 86.2794 83.6401 81.6918 72.9031 72.1541 71.5178 69.0198 68.8012 68.2423 67.9769 63.4237 60.5678 60.3663 71.7212 55.0861 53.9494
threshold=-0.0035987863417258248 -0.0043462121239428945 -0.0068397157536450827 -0.0058438116981718415 -0.0018276752032402377 -0.013279272899130978 -0.00070496671515734145 -0.00036217725057365518 -0.003035859441783203 -0.0038507291511173415 -0.0050046855910529844 0.0065189089096327505 0.00062916880342049738 -0.011146160163267357 -0.0019171685083945503 0.00011454804212149825 0.0014347128834339814 0.0077949079236427138 0.99862559869566747 -0.010795064769079526 -0.007752333387376101 -0.021873265374103976 1.0039885867987017 -0.010166128149178787 -0.018868839112355373 -0.0020784408808061532 0.0041583549864582696 0.00196169330594853 1.0012218016764451 -0.0014545727228610923
decision_type=2 2 2 2 2 2 2 2 2 2 2 2 2 2 2 2 2 2 2 2 2 2 2 2 2 2 2 2 2 2
left_child=2 6 3 5 10 13 19 18 9 -5 24 28 23 21 15 -3 -14 26 -6 20 -2 -1 -22 -8 -4 -26 27 -16 -9 -30
right_child=1 14 4 8 7 -7 12 11 -10 -11 -12 -13 16 -15 17 -17 -18 -19 -20 -21 22 -23 -24 -25 25 -27 -28 -29 29 -31
leaf_value=0.10459639254394265 -0.018586141465564025 -0.025576591474802769 0.090200076715400923 0.088186744454786428 -0.021393119390042847 0.022386519191256386 0.087472834063159019 0.080345288067709408 0.072404323806123841 0.16394291829936436 -0.015597843508019685 0.02358543891771632 -0.0091718251930881078 0.14422011655098349 -0.035696322916541415 0.021461671448116365 0.04143349784929428 -0.012134282300192284 0.052588208654337047 -0.024658714790769289 0.0037584911709972364 0.031920169993903118 0.069527865561741536 0.035242677227287474 0.0078351899802952298 0.071911491017460499 -0.044659051683050233 -0.0080813392715025894 0.059797101829824256 0.16622149612876991
leaf_weight=71.560003265738487 122.98808422684669 323.69343637675047 44.046856410801411 100.13560308516026 44.339974753558636 241.70006573200226 103.62512969970703 47.253776498138905 99.756254069507122 234.39463879913092 262.46171949803829 31.745802320539951 173.89605162292719 67.717628419399261 1243.9684085473418 133.47260448336601 147.30241746455431 315.12233383208513 128.3873537555337 323.8520260155201 94.995789743959904 59.760326080024242 67.441554941236973 156.19461044669151 147.74879305809736 49.147384241223335 1468.7701917290688 289.92362442612648 14.385382100939749 69.151346832513809
leaf_count=506 1169 3137 357 715 393 2081 858 394 720 1494 2418 261 1638 447 12562 1175 1323 3075 1026 3093 860 485 614 1421 1313 408 14967 2897 118 504
internal_value=-0.000210184 -0.0216965 0.0620441 0.0903407 0.0325208 0.0557464 0.0116373 0.0677171 0.125449 0.141267 0.00908036 0.103977 0.0328344 0.0962566 -0.0322071 -0.0118435 0.0140359 -0.035013 0.0335968 -0.00857662 0.0096706 0.0715234 0.031065 0.0560739 0.0359626 0.0238293 -0.0374141 -0.0304768 0.12349 0.147895
internal_weight=6678.94 4965.25 1713.69 875.025 838.668 440.738 1190.3 335.264 434.286 334.53 503.405 162.536 581.018 199.038 3774.95 457.166 321.198 3317.78 172.727 609.277 285.425 131.32 162.437 259.82 240.943 196.896 3002.66 1533.89 130.791 83.5367
internal_count=62429 48789 13640 6448 7192 3519 10976 2696 2929 2209 4496 1277 5240 1438 37813 4312 2961 33501 1419 5736 2643 991 1474 2279 2078 1721 30426 15459 1016 622
is_linear=0
shrinkage=0.05


Tree=4
num_leaves=31
num_cat=0
split_feature=70 63 21 70 21 63 58 63 21 20 70 20 63 68 58 63 21 20 19 63 68 70 20 62 70 63 20 2 2 63
split_gain=2467.06 421.908 475.346 312.763 209.535 232.145 196.269 158.497 199.596 138.886 131.444 143.901 215.513 121.491 91.3885 91.2562 187.733 104.146 89.3704 102.634 85.2899 79.5609 74.6842 71.5859 70.4614 68.8693 68.5215 66.031 64.7422 63.0713
threshold=-0.00671687141677691 1.0024700084846201 -0.00073919895542368921 -0.013947904574249265 -0.0040401402144381532 1.0113617975653237 -0.0011335497782426153 1.003094820754058 -0.0018172967538397946 -0.0012485810013102305 0.00081199538498189113 0.0010302299564367197 0.9993603264909231 1.4457306426748235 0.0023521514350123228 1.0078586757224008 -0.0033370626436925181 -0.0014997219893400687 -0.004172030461210877 1.0033254438268158 -0.36051194238590972 0.012054843527908256 -0.0067340647516260605 -0.0042744185635594069 -0.034677112170114634 1.0048119757890188 -0.00095680105203734878 -0.036687688191008337 0.0071319622752150612 1.0113617975653237
decision_type=2 2 2 2 2 2 2 2 2 2 2 2 2 2 2 2 2 2 2 2 2 2 2 2 2 2 2 2 2 2
left_child=3 10 15 4 13 18 -5 26 -9 25 11 -2 28 29 -12 17 -17 -3 -6 -20 -11 -16 -18 -24 27 -4 -8 -15 -13 -1
right_child=1 2 9 6 5 -7 7 8 -10 20 14 12 -14 24 21 16 22 -19 19 -21 -22 -23 23 -25 -26 -27 -28 -29 -30 -31
leaf_value=-0.026803647552661642 -0.02903555213303995 -0.03060719743985299 0.0059936091585031251 0.0011165940117116851 0.03014775650163273 0.15674660452514058 -0.014422251431573142 0.031434936176569971 0.12157133385692226 0.063860399565207102 -0.038020556797168752 -0.016243048357425596 0.074462410477817195 0.040251656324027302 0.018349408373170107 -0.011167440813566961 0.013121978191749518 0.021931093070934635 0.062867178697228673 0.120854825852488 0.15077316608425184 -0.027278871311937333 0.15220570522461846 0.028491578349532073 0.050630551526029015 0.093005815061528885 0.038098160027807373 0.16305038987626216 0.035248862661800003 0.034354794668717097
leaf_weight=57.19233114272356 703.46684169769287 453.34016101062298 73.385203197598457 370.58720845729113 89.831660836935043 107.66085623204708 81.641636796295643 118.426572881639 127.58336629718542 50.619035042822361 2036.6455716565251 416.10748391598463 92.745109692215919 15.88231188803911 139.09998271614313 199.72060537338257 28.614979028701782 119.10891544818878 185.82411900907755 129.47237854450941 63.81139151006937 305.05664300173521 36.920245252549648 17.112965680658817 85.16263834387064 32.952062539756298 259.49133837223053 35.229834236204624 71.540206983685493 160.34475965797901
leaf_count=516 7046 4453 668 3237 721 675 741 998 884 401 20905 4078 811 114 1358 1839 239 1142 1502 926 434 3046 258 139 651 251 2172 245 673 1306
internal_value=-0.00025106 -0.0189274 0.0086902 0.0493003 0.0710642 0.0914865 0.0296072 0.0475896 0.0781806 0.0740968 -0.0268179 -0.0138307 0.00459841 0.0414656 -0.033539 -0.00820189 0.0150589 -0.0196756 0.074144 0.086679 0.112327 -0.0129891 0.0784353 0.113024 0.0784838 0.0329572 0.0255287 0.124893 -0.00868894 0.0182757
internal_weight=6664.58 4840.25 1075.59 1824.33 866.601 512.789 957.73 587.143 246.01 220.768 3764.66 1283.86 580.393 353.812 2480.8 854.818 282.369 572.449 405.128 315.296 114.43 444.157 82.6482 54.0332 136.275 106.337 341.133 51.1121 487.648 217.537
internal_count=62429 47741 9824 14688 6656 3824 8032 4795 1882 1754 37917 12608 5562 2832 25309 8070 2475 5595 3149 2428 835 4404 636 397 1010 919 2913 359 4751 1822
is_linear=0
shrinkage=0.05


Tree=5
num_leaves=31
num_cat=0
split_feature=61 70 61 1 1 19 61 70 62 70 70 19 61 1 1 34 1 19 63 61 70 61 19 68 70 70 1 91 61 1
split_gain=2918.52 551.17 475.545 298.663 253.826 185.165 166.851 116.775 97.5014 90.6363 90.2504 87.3479 79.9012 74.0236 73.7498 69.9103 67.0549 64.0106 84.2117 61.1107 56.5569 55.497 55.3278 54.8911 50.4931 50.088 46.6687 46.1213 45.9526 63.4428
threshold=-0.0030541946678448056 -0.0028542952840439795 -0.0068397157536450827 -0.0058438116981718415 -0.002621245339939389 0.00037017206377106492 -0.013279272899130978 -0.00015343827631649601 0.0033228758849800917 -0.010166128149178787 -0.013251592247323028 -0.0037545287281881617 0.0013129866730322269 0.0077949079236427138 -0.0020636959574089312 1.0000000180025095e-35 -0.011146160163267357 -0.00094756733633068679 0.99869493583392543 0.0020134454158856328 -0.0080761726037196224 0.00095707919901464429 0.00045005618797923304 -0.21983562266914988 -0.011633719517860287 -0.0063246940667742602 -0.0087709821144107188 0.93886331078521934 -0.023130479128188771 -0.017096390578111523
decision_type=2 2 2 2 2 2 2 2 2 2 2 2 2 2 2 2 2 2 2 2 2 2 2 2 2 2 2 2 2 2
left_child=2 5 3 6 10 9 16 17 11 12 -4 24 14 21 -2 -9 28 25 -19 27 -7 22 -3 -13 -5 -6 -8 -15 29 -1
right_child=1 13 4 8 7 20 26 15 -10 -11 -12 23 -14 19 -16 -17 -18 18 -20 -21 -22 -23 -24 -25 -26 -27 -28 -29 -30 -31
leaf_value=0.067861914602810741 -0.0041538955002085962 -0.037083769036743833 0.044024654275092584 0.099050203597451814 0.065243267159860938 0.048974618025790784 -0.0039835857662946297 0.0055868190283717076 0.035023182377714332 -0.02157318031025765 -0.00976124522127912 0.091303871356943955 -0.019396135002912474 0.013045050416316928 0.053191081863733815 0.093687264888321631 0.11657153868225566 0.022700350088374045 0.10051681999359599 -0.017669880446363775 0.014138003430407714 -0.041798349896445944 -0.015854888692506154 0.13702825135587596 0.031154659273895064 0.0086917879365346947 0.039323038373047445 0.14049752654183728 0.036979865315977363 0.20307007515861689
leaf_weight=42.414351567625999 98.233753576874733 708.74844497442245 97.001301139593124 72.426950201392174 97.546257242560387 209.83381824195385 116.05765200406313 162.39964585751295 47.461150988936424 557.42717818915844 397.99080603569746 91.991445876657963 139.83590610325336 21.396336629986763 130.61857789009809 26.14258786290884 76.891401618719101 43.933680795133114 166.63357421755791 274.29797642678022 261.95428383350372 1682.9504380822182 541.356320746243 229.10487016290426 44.031036458909512 65.410452023148537 134.0786934569478 10.621924355626104 90.293050192296505 10.906980350613592
leaf_count=278 868 7443 758 453 754 1707 999 1418 333 5487 3690 557 1311 198 1095 205 447 371 1158 2757 2440 18036 5614 1275 311 574 1082 97 645 68
internal_value=-0.000282093 -0.0221044 0.0499962 0.0755569 0.0268875 0.00413618 0.0471816 0.0498804 0.103091 -0.0088521 0.000778927 0.110475 0.0103812 -0.0334281 0.028576 0.0178025 0.0788894 0.0660722 0.0842808 -0.0100398 0.029632 -0.0358707 -0.0278906 0.123929 0.0733799 0.0425436 0.0192297 0.0553269 0.0587144 0.095519
internal_weight=6649.99 4637.27 2012.72 955.658 1057.06 1397.9 470.642 562.066 485.015 926.115 494.992 437.554 368.688 3239.37 228.852 188.542 220.506 373.524 210.567 306.316 471.788 2933.06 1250.1 321.096 116.458 162.957 250.136 32.0183 143.614 53.3213
internal_count=62429 47053 15376 6448 8928 12908 3519 4480 2929 8761 4448 2596 3274 34145 1963 1623 1438 2857 1529 3052 4147 31093 13057 1832 764 1328 2081 295 991 346
is_linear=0
shrinkage=0.05


Tree=6
num_leaves=31
num_cat=0
split_feature=61 70 61 1 0 19 70 1 70 18 70 61 19 70 18 70 61 20 63 1 63 19 61 0 21 63 4 61 17 61
split_gain=2593.06 518.216 395.308 240.62 224.971 167.272 142.699 106.854 96.2382 86.6229 77.1809 74.1852 71.7306 69.1558 65.4537 62.2834 60.643 58.7584 64.6567 56.0971 54.6027 51.7155 50.6871 80.7353 44.9231 51.2228 44.8085 44.5921 52.4495 43.7908
threshold=-0.0030541946678448056 -0.0028542952840439795 -0.0068397157536450827 -0.0058438116981718415 -0.00038462866878009161 -0.00053548247658165066 -0.013947904574249265 -0.0028454848703585063 -0.0051028565702844293 0.0068799375781039241 -0.0086747695408294443 -0.0094637553508456502 0.0050543931136561053 -0.010166128149178787 0.0065638946364724605 0.013155640521084247 -0.013279272899130978 -0.013641585647298437 1.0117910069864418 -0.0039045281060281511 1.0012218016764451 -0.003159270344864734 0.00095707919901464429 0.0018196305136233329 -0.0039315738421906192 0.99749729004724541 10.53857142857151 0.0022316824663079307 1.7171816571241436 -0.0016665875341184276
decision_type=2 2 2 2 2 2 2 2 2 2 2 2 2 2 2 2 2 2 2 2 2 2 2 2 2 2 2 2 2 2
left_child=2 5 3 6 8 13 17 -6 19 11 24 -5 22 21 20 27 -11 -1 -19 -4 -9 -2 23 -3 -7 -26 -10 28 -14 -12
right_child=1 12 4 9 7 10 -8 14 26 16 29 -13 15 -15 -16 -17 -18 18 -20 -21 -22 -23 -24 -25 25 -27 -28 -29 -30 -31
leaf_value=0.046650532239626646 -0.01853235820851731 -0.032689475145226569 0.0027460508725236335 0.12779848199033397 0.015273338426401046 -0.0069075262232779809 0.014986314882513072 0.049810742774227583 0.011820435376913203 0.10801378378065614 0.050066811055965138 0.083713144348331991 0.030631402268180299 -0.027639702651934491 0.016291568089639802 -0.029589335054722929 0.034089351972818198 0.054647703252213325 0.12844319873224178 0.047202409280957369 0.098757899089476561 0.02298766898631233 -0.041602886745367183 0.0071622278609504708 0.021319562512184042 0.067707334156194024 -0.024035043016667691 -0.0029699692927247882 0.18851797605107298 0.0012268402878115522
leaf_weight=134.39289478212595 136.63622404634953 1053.6703988537192 123.25170254707336 181.52654492855072 126.03986308723688 42.134400755167007 230.12092234939337 90.196440331637859 142.07572073489428 40.393708199262619 52.395650342106819 201.18946402519941 27.436942614614964 387.11860398948193 46.964375995099545 246.26827831566334 88.577822670340538 54.521968327462673 65.150051489472389 167.25230770558119 154.70224011689425 166.24788731336594 1536.241686180234 144.52103379368782 99.912755638360977 147.16864505410194 225.32459200918674 140.18123436719179 6.5076734349131575 369.95974894613028
leaf_count=891 1282 11292 1047 935 1116 361 1850 731 1289 214 459 1197 264 3912 362 2591 583 387 391 1260 1058 1430 16988 1502 795 1155 2065 1448 60 3514
internal_value=-0.000307695 -0.0213955 0.0460724 0.0687732 0.0250583 0.00390292 0.0435076 0.0537469 0.00683515 0.0926809 0.0209123 0.104623 -0.0326347 -0.0136382 0.0703616 -0.0134065 0.0572424 0.0693409 0.0948223 0.028341 0.0807306 0.00425727 -0.0355909 -0.0278827 0.0408119 0.0489494 -0.0101695 0.00948114 0.0609005 0.00728572
internal_weight=6628.08 4556.4 2071.68 995.873 1075.81 1401.57 484.186 417.903 657.904 511.688 711.571 382.716 3154.83 690.003 291.863 420.394 128.972 254.065 119.672 290.504 244.899 302.884 2734.43 1198.19 289.216 247.081 367.4 174.126 33.9446 422.355
internal_count=62429 47053 15376 6448 8928 12908 3519 3267 5661 2929 6284 2132 34145 6624 2151 4363 797 1669 778 2307 1789 2712 29782 12794 2311 1950 3354 1772 324 3973
is_linear=0
shrinkage=0.05


Tree=7
num_leaves=31
num_cat=0
split_feature=61 70 61 0 1 19 1 61 70 61 1 18 17 70 2 1 17 61 61 0 61 0 4 61 70 70 19 5 70 68
split_gain=2317.22 457.427 361.135 230.21 205.867 149.246 108.752 105.242 102.644 76.4932 71.2649 68.7591 66.2394 64.0318 61.5127 59.0266 50.3898 49.8241 49.5841 81.1459 49.0722 48.2867 47.7939 63.3605 44.3267 43.6228 43.4705 43.2046 53.0427 41.815
threshold=-0.0028646722784546851 -0.0028542952840439795 -0.0082723371114101166 -0.00029252621477739312 -0.0066911741503370877 0.00037017206377106492 -0.0028454848703585063 -0.017890825670671014 -0.0034579399503969952 -0.00015948517752447915 0.0077949079236427138 0.010180858470425371 0.7004973822829994 -0.013015131375483187 -0.0060198153176212925 -0.015133496362043225 1.1788419941139487 0.0020134454158856328 0.00095707919901464429 0.0018196305136233329 -0.01140219555322442 -0.0036944283956542481 12.515714285714159 -0.0061141151788768784 -0.0182310777453412 -0.018868839112355373 -0.0013093313785590168 0.0040197076556392859 -0.012196369743867759 1.1607928830013445
decision_type=2 2 2 2 2 2 2 2 2 2 2 2 2 2 2 2 2 2 2 2 2 2 2 2 2 2 2 2 2 2
left_child=2 5 4 8 7 9 24 15 14 13 18 20 27 -2 -4 -1 -7 -12 19 -3 -6 -22 23 -10 -5 -16 -15 28 -8 -27
right_child=1 10 3 6 11 16 12 -9 22 -11 17 -13 -14 26 25 -17 -18 -19 -20 -21 21 -23 -24 -25 -26 29 -28 -29 -30 -31
leaf_value=0.05304229735971136 0.03898695374120717 -0.031933144581672387 0.0013352047160984674 0.084382155043345411 0.11829585028571943 0.0159791317493298 0.14319346065825422 0.024346997080282273 0.074170391807791697 -0.023398040055107455 0.048634627017055385 0.021133125597658627 0.082650205709103433 -0.023759175479667501 0.090917685819602134 0.12447883499504797 0.053668208970948018 -0.016168729124185165 -0.040408982014990331 0.0072372526573325144 0.035199128310761302 0.094093775512078245 -0.025377381314658155 -0.0031418737689913588 0.0074253101821195825 0.025629681551658453 0.013735111411815319 -0.013329208847453462 0.037767759211277202 0.088370078409873043
leaf_weight=75.854531705379486 109.17807577550411 1006.0916875898838 164.41088384389877 21.678445167839527 169.23567859828472 362.76826544851065 14.288628675043581 268.03810396790504 31.554903566837311 464.96212803572416 33.388279743492603 31.393026173114777 241.97379536181688 159.17185097932816 35.964306108653545 46.730916261672974 117.3811584636569 265.68841534852982 1577.4604716971517 152.22277898341417 43.356264606118202 176.41424839198589 201.85155396908522 165.46191193163395 136.72295328974724 246.83141073584557 150.30027178674936 31.362610898911953 72.304929733276367 29.758717067539692
leaf_count=474 896 11092 1330 151 821 3109 89 1984 238 4563 293 195 1647 1593 238 256 977 2757 18036 1579 265 965 1834 1535 1192 1905 1414 241 543 217
internal_value=-0.000327705 -0.0212988 0.0415027 0.02607 0.0680318 0.00275435 0.0524808 0.0418982 0.0104397 -0.00943862 -0.0321075 0.0923144 0.0676742 0.00606501 0.0260927 0.0802747 0.0251929 -0.00893422 -0.0346408 -0.0267855 0.0980588 0.0824751 -0.00827813 0.00924073 0.0179574 0.0391157 -0.00554945 0.0369527 0.0551638 0.03238
internal_weight=6603.8 4398.61 2205.19 1394.17 811.023 1363.76 518.331 390.624 875.834 883.612 3034.85 420.399 359.93 418.65 476.965 122.585 480.149 299.077 2735.77 1158.31 389.006 219.771 398.868 197.017 158.401 312.554 309.472 117.956 86.5936 276.59
internal_count=62429 46309 16120 11160 4960 12552 3863 2714 7297 8466 33757 2246 2520 3903 3690 730 4086 3050 30707 12671 2051 1230 3607 1773 1343 2360 3007 873 632 2122
is_linear=0
shrinkage=0.05


Tree=8
num_leaves=31
num_cat=0
split_feature=61 61 72 0 1 69 61 71 1 1 2 61 0 61 62 72 77 21 5 18 89 61 19 77 77 4 1 19 72 1
split_gain=2076.45 341.729 219.685 190.856 179.575 126.641 110.926 96.282 80.0269 78.4792 71.038 63.1762 92.3283 59.588 56.3596 54.2268 53.0468 59.1505 51.682 51.5297 48.9806 48.1076 47.7029 45.9842 42.3191 41.8795 40.6759 39.471 41.7655 39.3207
threshold=-0.0026483419098779228 -0.0068397157536450827 1.0060761155609406 -0.00029252621477739312 -0.0048961052665660379 -1.0000000180025095e-35 -0.015244258260411248 -0.0063879199587843763 -0.0016036707584893178 0.0083409203053219881 -0.014292000402841346 0.00090597727777294611 0.00079791751235839951 0.002562387755268208 0.006586840881029234 1.0056053700029222 0.073363556594906496 -0.0037302582590324957 0.0033339186574057422 0.0057746907833099619 0.0061080691585238206 0.0022316824663079307 -0.0023418158292930345 2.3361845026250707 -0.21854572268677072 11.250714285714272 -0.0039045281060281511 -0.0040694909651181627 1.0200463161356987 -0.002463554027454054
decision_type=2 2 2 2 2 2 2 2 2 2 2 2 2 2 2 2 2 2 2 2 2 2 2 2 2 2 2 2 2 2
left_child=1 4 9 7 6 13 10 23 15 11 -1 12 -2 16 22 -5 -4 -18 -10 24 -7 -11 -6 26 -8 -9 -3 28 -26 -19
right_child=2 3 5 8 14 20 19 25 18 21 -12 -13 -14 -15 -16 -17 17 29 -20 -21 -22 -23 -24 -25 27 -27 -28 -29 -30 -31
leaf_value=0.045697580383944815 -0.030845856555843827 -0.0022301002617537611 -0.013049109079127874 -0.00023852461331849538 0.064558727510411931 0.027993325984944247 0.011102932527220964 0.0062023836463802433 0.075843044792337069 0.060109545835959226 0.10654774714755338 -0.037265389664873326 -0.00092070146416655622 -0.024897640031933198 0.016421467473357761 0.050684615808079328 -0.012256416420360319 -0.011849936762957777 0.031015322628705294 0.0041803736163019247 0.14185732325132924 -0.0089546118146398707 0.098230170869619993 0.10446045916454914 0.024278785017726002 -0.023721650720253958 0.035464481842663147 0.10740215966790459 0.10080627723711551 0.052737421103678919
leaf_weight=121.6179583221674 897.77696643769741 115.12085755169392 310.97808437049389 126.09423182159662 169.14397450536489 188.0056489482522 74.83935359120369 219.20501784980297 195.18256847560406 28.761250436306 79.196075826883316 1580.7400838658214 361.55423317104578 400.91581240296364 31.615683600306511 89.304007686674595 94.014334589242935 29.944063365459442 95.881090007722378 178.43811786919832 9.9443380460143072 204.45941635966301 278.18187376111746 17.540838323533535 73.93198012560606 250.58399561792612 189.1721433699131 31.136442139744759 23.494592107832432 110.61496517807245
leaf_count=732 9868 1009 3213 1123 918 1575 556 1974 1305 243 415 18133 3759 4188 203 693 899 288 684 1329 77 2109 1377 123 555 2297 1444 209 154 977
internal_value=-0.000343039 0.0372161 -0.0213562 0.0200088 0.0582566 -0.00265623 0.0396121 0.00467371 0.0439782 -0.0283196 0.0696954 -0.0306093 -0.0222543 -0.0102628 0.0809384 0.0208742 0.000492065 0.0184438 0.0610761 0.023791 0.0337135 -0.000437478 0.0854982 0.0257415 0.0409948 -0.009759 0.0212038 0.0583955 0.0427335 0.038978
internal_weight=6577.39 2359.68 4217.71 1298.08 1061.6 1144.42 582.655 791.623 506.462 3073.29 200.814 2840.07 1259.33 946.467 478.942 215.398 545.551 234.573 291.064 381.84 197.95 233.221 447.326 321.834 203.402 469.789 304.293 128.563 97.4266 140.559
internal_count=62429 17100 45329 10652 6448 11217 3950 6847 3805 34112 1147 31760 13627 9565 2498 1816 5377 2164 1989 2803 1652 2352 2295 2576 1474 4271 2453 918 709 1265
is_linear=0
shrinkage=0.05


Tree=9
num_leaves=31
num_cat=0
split_feature=61 70 70 1 61 1 63 20 70 21 58 58 70 63 18 1 61 61 63 20 61 20 63 0 0 0 17 0 76 62
split_gain=1864.25 366.586 342.55 216.166 131.82 127.835 109.695 104.901 94.1217 91.4694 88.7635 75.3104 74.0684 68.9478 67.5372 67.1055 63.0916 61.0791 60.6464 79.802 52.1051 60.3613 57.319 51.4175 51.0808 50.7763 49.9693 42.1144 41.4111 41.1737
threshold=-0.002471519429803194 -0.0028542952840439795 -0.012196369743867759 -0.0012546523510282512 -0.0056743633066079283 -0.0020130312365401132 1.0012218016764451 -0.0027170882643980216 -0.010795064769079526 -0.0037302582590324957 -0.0022449494700013659 0.00062557794905310205 -0.0035651902784488427 1.0039885867987017 0.0042066023328718033 0.0046945948087348593 0.0020134454158856328 -0.0097723039623283225 1.0131495869808631 -0.013641585647298437 -0.0082723371114101166 -0.0082182540885628822 1.0113617975653237 -0.0031032831960423339 0.0015367368175699355 0.00010305017427232514 1.3761845587225692 0.00027936668246084003 0.018016156935398878 -0.0076207599713625429
decision_type=2 2 2 2 2 2 2 2 2 2 2 2 2 2 2 2 2 2 2 2 2 2 2 2 2 2 2 2 2 2
left_child=2 5 10 6 23 -2 -4 20 9 -7 18 -10 -9 -11 27 -3 26 -12 -1 -20 21 -8 -23 -5 -16 -19 -17 -6 -15 -14
right_child=1 15 3 4 14 8 7 12 11 13 17 -13 29 28 24 16 -18 25 19 -21 -22 22 -24 -25 -26 -27 -28 -29 -30 -31
leaf_value=0.011963152024596593 -0.028985508939159545 -0.035304609374167621 -0.015226564849876147 0.021313864727546636 0.028826062698836676 -0.0071630624048146969 -0.0015596340604289143 0.080428112736235458 -0.010979963965086622 0.035806038617939927 0.10230763181695331 0.029148043839858341 0.11375506438616667 0.19700213193005922 -0.012495223144027658 4.4053228484687299e-05 -0.023337440801040655 0.047616841969950328 0.039029680817045193 0.10022449232215098 -0.005510692457064449 0.031116576203112974 0.11649058886624218 0.08749294592520776 0.046080961216287679 0.093235056994830659 0.084490395257648163 0.073607766395004548 0.079303124226241473 0.0085707960975284891
leaf_weight=110.94709596037865 275.60295405238867 2204.4929239079356 357.04149989038706 35.186065867543221 135.15414147824049 107.69534896314144 92.079100787639618 98.281656965613365 499.7472934871912 189.32451811432838 147.76872222870588 152.63381401449442 10.37245053052902 9.7510121315717679 125.5571423470974 68.26954610645771 505.56089752912521 186.83554576337337 192.50221475958824 73.660867244005203 321.39582315087318 70.828666627407074 27.214050330221653 176.95572386682034 52.898716986179352 90.568566009402275 23.564517810940742 85.850058183073997 31.993120320141315 90.299512691795826
leaf_count=775 2747 26150 3236 206 1093 985 668 634 4953 1468 713 1343 62 75 1040 703 5717 1215 1194 415 2807 485 140 922 361 532 215 575 241 759
internal_value=-0.000353426 -0.0211851 0.0338033 0.020962 0.0446635 0.00113593 0.00738291 0.0187451 0.00951165 0.0308937 0.060679 -0.00159145 0.0495516 0.0486309 0.0277473 -0.0312765 -0.0164121 0.076342 0.0430198 0.0559654 0.00676302 0.0275114 0.0548141 0.0765164 0.0048682 0.0625106 0.0217129 0.0462217 0.106796 0.0194082
internal_weight=6550.03 4068.64 2481.4 1679.11 611.602 1266.75 1067.51 710.471 991.145 338.764 802.283 652.381 198.954 231.069 399.46 2801.89 597.395 425.173 377.11 266.163 511.518 190.122 98.0427 212.142 178.456 277.404 91.8341 221.004 41.7441 100.672
internal_count=62429 44597 17832 12988 4197 11812 8791 5555 9065 2769 4844 6296 1455 1784 3069 32785 6635 2460 2384 1609 4100 1293 625 1128 1401 1747 918 1668 316 821
is_linear=0
shrinkage=0.05


Tree=10
num_leaves=31
num_cat=0
split_feature=61 70 70 1 19 61 61 18 4 19 19 63 18 70 1 61 70 58 63 62 23 70 58 0 77 0 63 23 61 62
split_gain=1676.97 344.985 292.242 191.812 129.446 119.304 103.599 83.7251 77.6377 73.4245 61.3117 69.9161 60.8271 59.306 59.091 64.0788 58.8451 58.7972 69.2627 54.184 52.2473 46.2347 72.2983 45.9519 42.5765 40.8296 40.8205 51.7668 39.1633 38.939
threshold=-0.002471519429803194 -0.002541973624331111 -0.012674126340114842 -0.0012995103832340921 0.00071196091187595895 -0.0056743633066079283 -0.0045611770826948332 0.0046538615150913797 27.57857142857149 0.0059087656098976002 -0.0021740442584752711 1.0000405935085273 0.0042822920152610685 -0.010166128149178787 -0.0020636959574089312 0.0022863924861972139 0.013155640521084247 -0.0022449494700013659 1.0201532566494951 -0.0023567044478348368 -0.0016966148261702641 0.0041583549864582696 0.001311751817159872 -0.0031032831960423339 1.0795878211661092 0.0015367368175699355 1.0008118008589013 -9.9960825235396536e-05 -0.015244258260411248 -0.012641012590151277
decision_type=2 2 2 2 2 2 2 2 2 2 2 2 2 2 2 2 2 2 2 2 2 2 2 2 2 2 2 2 2 2
left_child=2 4 8 6 13 23 7 10 17 21 29 -12 26 14 -2 -16 -11 18 -1 -19 -20 22 -3 -5 -21 -14 -7 -28 -9 -4
right_child=1 9 3 5 -6 12 -8 28 -10 16 11 -13 25 -15 15 -17 -18 19 20 24 -22 -23 -24 -25 -26 -27 27 -29 -30 -31
leaf_value=0.029867764722599329 -0.023373238185943557 -0.030596769045628872 0.06735104798321799 0.019398180718853034 0.023281648068873881 0.016893161023509032 -0.013714540544877958 0.044064482091073227 0.019905200154027768 0.021247279487838857 -0.0013597887561583742 0.08932745317611486 -0.012512493534829125 -0.020776004427172444 0.038688393095990904 -0.016331914788162843 -0.024391953935734866 0.086066723637464093 0.05490921011666923 0.017349641455862517 0.13222694321248818 -0.040477550537121043 0.012092915680040022 0.080773177534367691 0.097151156825906207 0.040044779137024693 0.022528420313088077 0.08363588400541265 -0.0037070345145442276 0.010751943266214987
leaf_weight=202.35712533444166 117.56256324052811 1042.0609741583467 37.164468295872211 36.360762231051922 422.65137173980474 96.528895318508148 385.59599787741899 49.429450541734695 122.85340465605259 111.6015815064311 28.254229426383972 85.772331602871418 122.59234687685966 537.62967619299889 155.91699778288603 80.10708612203598 192.36844939738512 297.87124606221914 64.287218287587166 58.507359229028225 33.099429927766323 1228.7827454656363 109.61199820786715 189.12003850191832 23.398784033954144 52.898103483021259 58.192756377160549 85.695974767208099 324.90162330120802 166.66540285199881
leaf_count=1294 1114 12539 242 210 3555 774 3688 294 747 1160 248 518 1024 5688 1234 761 2155 1596 380 363 172 15135 1256 950 136 353 434 558 2523 1328
internal_value=-0.00036376 -0.0205015 0.0315677 0.0199388 0.000491893 0.0415886 0.00705507 0.0186252 0.0564837 -0.0307765 0.0374963 0.0668564 0.0257107 -0.0103159 0.00558861 0.0200144 -0.00763566 0.0630969 0.0465416 0.0761633 0.0811877 -0.0337315 -0.0265337 0.0708759 0.0401472 0.00332985 0.0420474 0.0589223 0.00260107 0.0210717
internal_weight=6519.84 3998.29 2521.55 1719.17 1313.87 641.389 1077.78 692.188 802.375 2684.43 317.856 114.027 415.908 891.216 353.587 236.024 303.97 679.521 299.744 379.777 97.3866 2380.46 1151.67 225.481 81.9061 175.49 240.418 143.889 374.331 203.83
internal_count=62429 44597 17832 13144 12352 4303 8841 5153 4688 32245 2336 766 3143 8797 3109 1995 3315 3941 1846 2095 552 28930 13795 1160 499 1377 1766 992 2817 1570
is_linear=0
shrinkage=0.05


Tree=11
num_leaves=31
num_cat=0
split_feature=61 70 70 1 19 61 19 19 71 19 68 70 34 62 19 70 70 5 70 19 70 61 1 17 76 61 85 5 20 81
split_gain=1510.65 322.237 263.501 140.332 120.198 102.63 129.487 107.975 75.9819 69.4053 66.3785 65.4385 64.8219 74.6787 56.1011 53.3794 53.3115 60.9482 49.2128 66.5268 49.2105 45.2687 48.995 42.2459 40.1696 39.7976 37.2173 40.4092 36.8904 36.3124
threshold=-0.0024033488010970694 -0.0028542952840439795 -0.0038338359386693847 -0.0015177690140675498 0.00013361684606751548 -0.0097723039623283225 -0.0049685294435491923 -0.0042873859379823154 -0.0074842674471984555 0.0059087656098976002 1.1949986794292624 -0.013947904574249265 0.0083734448108125688 -0.00015663618865164661 0.00013361684606751548 0.013155640521084247 -0.0182310777453412 0.0039930922485581265 0.0041583549864582696 0.00196169330594853 -0.0090554157667299667 0.0022863924861972139 -0.0020130312365401132 1.1843774635335431 0.019508690570416237 -0.0062891731215402253 0.067085077300390247 0.0019425051815493801 -0.0034470209161540266 1.0254835289156417
decision_type=2 2 2 2 2 2 2 2 2 2 2 2 2 2 2 2 2 2 2 2 2 2 2 2 2 2 2 2 2 2
left_child=2 4 5 10 20 6 11 29 16 18 -4 -1 13 14 -5 -11 -9 28 19 -3 21 22 -2 -6 -12 -10 -27 -28 -18 -7
right_child=1 9 3 12 23 7 -8 8 25 15 24 -13 -14 -15 -16 -17 17 -19 -20 -21 -22 -23 -24 -25 -26 26 27 -29 -30 -31
leaf_value=0.052399829355360673 -0.016277844472872068 -0.031450210276811483 -0.015110922398374478 0.01875865854498765 0.011231576488282382 -0.012253390608976553 0.089519490613745756 0.088995409325665159 0.052783902570097699 0.019775881826701144 0.0013245027372343629 0.0011074274628466621 0.073962457371171825 -0.0027173290592212409 0.072565089811570713 -0.023617750310643851 0.035794180419619903 -0.0033759664820609617 -0.039944353034045692 -0.0016066405148718408 -0.024929501298214512 -0.026274263452589777 0.029623887579933048 0.044583286652931375 0.072388478946806584 0.0083569032962598662 0.17268281938488816 0.036888596223786256 0.072156825639186739 0.026564433580953884
leaf_weight=255.36549703776836 92.116721786558628 932.29738898575306 467.80494109541178 109.29025729000568 400.44963233172894 145.51418486237526 215.50741241872311 94.814868867397308 95.442784704267979 113.56247393041849 43.017372168600559 82.197868525981903 70.592018887400627 169.19691141694784 87.014850109815598 188.51420195400715 127.60159329324961 51.736420728266239 1184.1426627486944 233.51131076365709 373.05187056958675 106.26155781000853 157.58672730624676 124.458246268332 36.980528213083744 240.24503675848246 6.8536005169153205 27.304040275514126 153.84381786733866 102.81442398577929
leaf_count=1404 872 11544 4221 795 3422 1123 994 518 546 1161 356 566 425 1366 538 2154 878 335 15089 2705 4073 1068 1275 990 267 1863 51 207 888 735
internal_value=-0.000371072 -0.0199898 0.0292943 0.00893463 0.000895881 0.0418201 0.0592406 0.0326105 0.0415721 -0.0298648 -0.00791347 0.0399099 0.0300985 0.0216267 0.0426091 -0.00730438 0.0559156 0.046502 -0.0327649 -0.0254725 -0.0122399 0.00105888 0.0126905 0.0191394 0.0341752 0.0249733 0.0153002 0.0641352 0.0556707 0.00381819
internal_weight=6489.09 3905.95 2583.14 983.897 1253.92 1599.24 553.071 1046.17 797.842 2652.03 547.803 337.563 436.094 365.502 196.305 302.077 427.997 333.182 2349.95 1165.81 729.017 355.965 249.703 524.908 79.9979 369.845 274.403 34.1576 281.445 248.329
internal_count=62429 44353 18076 7968 11700 10108 2964 7144 5286 32653 4844 1970 3124 2699 1333 3315 2619 2101 29338 14249 7288 3215 2147 4412 623 2667 2121 258 1766 1858
is_linear=0
shrinkage=0.05


Tree=12
num_leaves=31
num_cat=0
split_feature=61 70 63 20 70 20 1 71 0 62 19 70 20 63 61 18 20 63 1 61 70 79 71 21 63 58 85 70 36 63
split_gain=1365.94 349.461 208.527 243.356 132.661 113.341 96.9048 72.472 68.7457 65.7198 64.2494 79.4847 62.0587 104.02 56.6751 56.1 52.8862 61.3074 52.5756 55.0413 51.482 45.449 40.1262 38.0832 76.8478 42.6763 38.8604 37.2585 36.6985 35.3451
threshold=-0.0028646722784546851 -0.0028542952840439795 1.0031755008050054 -0.0024634433257938785 -0.013947904574249265 -0.0021026799682207823 -0.0021161362512930266 -0.013792406567646565 0.00087182554255715416 0.00119502969886043 0.0031943260206041698 0.0040522268966522558 -0.0082182540885628822 1.0084321403280854 0.0025049511804791555 0.0053816998684029123 -0.013641585647298437 1.0131495869808631 0.0026221481399702623 0.0017154677758061485 -0.010166128149178787 -0.013075291500287774 -0.036258626140609963 -0.0037302582590324957 1.0039045010249243 -0.0017864031581785 0.065869689900589265 -0.0075997613968108221 2.261249759383162 1.0150712947046687
decision_type=2 2 2 2 2 2 2 2 2 2 2 2 2 2 2 2 2 2 2 2 2 2 2 2 2 2 2 2 2 2
left_child=2 5 6 4 16 20 27 -7 -8 -5 21 14 29 -14 -12 -15 22 -18 -9 -20 23 -3 -4 -2 -25 -26 -27 -1 -13 -6
right_child=1 10 3 9 12 7 8 18 -10 -11 11 28 13 15 -16 -17 17 -19 19 -21 -22 -23 -24 24 25 26 -28 -29 -30 -31
leaf_value=0.016779080367298121 -0.015454191550438902 -0.018455199663062513 0.044533282633422155 0.084532864050548884 -0.029601044764308301 0.041544783522754453 0.014581618469041591 -0.0028717025963933482 0.059423198093108767 0.015355845320346038 0.067052681308083603 -0.028653334750753254 0.0057092362751186157 0.082590462159511255 -0.0025929407555973275 0.022621234060739039 0.040760904602875361 0.083512949888233531 0.070888609866543342 0.0095982241990685453 -0.029551046530048242 -0.036936567844888156 -0.00023307040769921308 -0.021818827685677479 0.002438174806966887 0.062774083623997404 0.18159281967103524 -0.015686410479058298 0.010029770753543291 0.014664014505415627
leaf_weight=122.7766734957695 164.34801759570837 421.51445994526148 136.27898967266083 315.22534656524658 104.68973893672228 192.84210271388292 313.71919356286526 431.480075083673 117.47871953994036 38.529526419937611 41.931741461157799 489.34519688040018 279.14603801071644 89.366682060062885 96.287614822387695 69.193215236067772 188.67372816056013 150.94537868350744 55.511114843189716 107.69865244626999 281.86811554431915 1578.024214245379 79.117927640676498 57.332936927676201 23.981194153428078 36.984470471739769 8.4544696584343892 315.38092197477818 70.094519346952438 79.224293597042561
leaf_count=852 1550 5279 776 1554 842 1443 2286 4063 714 240 414 5948 2179 516 1079 441 1090 737 452 911 3071 20243 475 517 210 274 61 2868 794 550
internal_value=-0.00037622 -0.0180609 0.0295266 0.0406354 0.0297029 0.00259936 0.00997104 0.014909 0.0267986 0.0769984 -0.0284823 -0.0154178 0.013839 0.0240796 0.0185355 0.0564208 0.0474706 0.0597623 0.00627174 0.0304444 -0.01432 -0.0330406 0.0280901 0.000428045 0.021021 0.0564016 0.0848818 -0.00658922 -0.0238066 -0.0105331
internal_weight=6457.45 4057.7 2399.75 1530.39 1176.64 1360.5 869.356 787.532 431.198 353.755 2697.2 697.659 621.62 437.706 138.219 158.56 555.016 339.619 594.69 163.21 572.969 1999.54 215.397 291.101 126.753 69.4201 45.4389 438.158 559.44 183.914
internal_count=62429 46309 16120 9400 7606 12552 6720 6869 3000 1794 33757 8235 4528 3136 1493 957 3078 1827 5426 1363 5683 25522 1251 2612 1062 545 335 3720 6742 1392
is_linear=0
shrinkage=0.05


Tree=13
num_leaves=31
num_cat=0
split_feature=70 63 20 70 58 63 21 18 20 70 62 62 20 70 63 20 63 70 63 63 20 63 19 68 21 62 58 63 68 19
split_gain=1053.19 184.417 210.241 162.096 125.069 120.929 128.693 98.6488 87.3379 113.065 73.5343 72.5096 68.7637 66.9162 65.1847 82.8737 57.4085 57.3773 55.0053 50.8084 49.7654 49.0685 48.0981 47.5723 46.2721 45.7596 45.9228 56.5937 45.5575 43.088
threshold=-0.0043462121239428945 1.0011664543459828 -0.00035355439607648661 -0.018868839112355373 -0.00096783031949734756 1.0032644351248641 -0.0026828412343887884 0.0074027547197287437 0.0045334749860745848 0.0040522268966522558 -0.0047049490089816704 0.0014199056028152298 -0.00095680105203734878 -0.046330546840267349 1.0039885867987017 -0.0065561155127653826 0.99532641829290969 0.0019320152610663884 1.0105652949059019 0.99734403582532505 -0.0022171991320104438 1.0084321403280854 0.0026252983152430525 -0.45200051049869605 -0.0040401402144381532 -0.0015541260777803573 -0.0029208618838490867 1.0201532566494951 -0.58774451022437435 0.0071608887539278245
decision_type=2 2 2 2 2 2 2 2 2 2 2 2 2 2 2 2 2 2 2 2 2 2 2 2 2 2 2 2 2 2
left_child=3 8 10 7 14 12 -7 25 17 16 20 -4 -6 -9 -5 18 -10 -2 -16 22 23 -17 -14 -3 -20 26 27 -1 -8 -11
right_child=1 2 11 4 5 6 28 13 9 29 -12 -13 19 -15 15 21 -18 -19 24 -21 -22 -23 -24 -25 -26 -27 -28 -29 -30 -31
leaf_value=0.0201853204413492 -0.020913495800682684 -0.036599491344318634 0.059026711218221839 -0.021637343386869894 -0.015852665432369337 0.0057032148236250664 0.029930184249496485 0.063896368665455547 0.0027847528457374021 -0.030041763704273996 -0.025041295422219279 0.00084786087448524223 -0.010973056258395132 0.0046147739316737789 -0.026211557898541345 0.020276749141929524 0.058209445121564354 -0.039333894724165319 -0.0037366609729679295 0.035803915254853838 0.042825147314123867 0.072571545660031808 0.036174987384943812 0.0066898789251984662 0.045680677565224072 0.024194415197110075 0.082978391550486377 0.094306719926226121 0.074497045271942411 -0.0026475630548413662
leaf_weight=80.102480329573154 761.04851227998734 84.11524973064661 168.20650564879179 214.51291859149933 147.45665521919727 131.12233690917492 74.237191490828991 65.267757341265678 180.178376711905 510.56746315956116 476.33759876340628 78.572599470615387 157.32732050120831 175.87931045144796 161.55506905913353 175.66607576608658 63.076707497239113 951.02435136586428 145.26771987229586 313.99954926222563 68.221918947994709 60.238603174686432 82.43671914935112 258.50674533843994 70.290449596941471 69.045381560921669 210.39344720542431 37.954884625971317 251.96709223091602 199.68087442219257
leaf_count=509 8975 899 1261 1968 1386 1010 490 392 1891 6307 5301 770 1327 1168 1421 1372 533 12296 1100 2348 580 339 608 2437 418 439 1135 197 1381 2171
internal_value=-0.000380437 -0.0172067 -0.000317822 0.0239773 0.0169312 0.0275355 0.0475384 0.0458894 -0.0243915 -0.0122638 -0.0116726 0.040503 0.0144899 0.0206597 0.00208517 0.0103864 0.0171565 -0.0311457 -0.00415395 0.0225696 0.00382729 0.0336303 0.00523759 -0.00393786 0.0123776 0.0611953 0.0689735 0.044015 0.0643546 -0.0223401
internal_weight=6424.26 3799.54 1133.96 2624.72 1986.08 1158.55 457.327 638.643 2665.58 953.503 887.182 246.779 701.22 241.147 827.531 613.018 243.255 1712.07 377.113 553.764 410.844 235.905 239.764 342.622 215.558 397.496 328.451 118.057 326.204 710.248
internal_count=62429 43421 11248 19008 15168 8550 2881 3840 32173 10902 9217 2031 5669 1560 6618 4650 2424 21271 2939 4283 3916 1711 1935 3336 1518 2280 1841 706 1871 8478
is_linear=0
shrinkage=0.05


Tree=14
num_leaves=31
num_cat=0
split_feature=61 70 61 0 19 19 62 61 19 71 72 70 70 58 70 19 70 63 77 12 68 37 70 19 21 63 110 37 77 19
split_gain=1164.03 264.211 198.575 137.046 104.995 95.88 93.2545 78.9916 65.7509 64.4655 58.8766 48.0152 44.1412 60.6643 43.9192 42.8332 42.1381 38.9685 35.3625 34.9984 31.6766 29.9901 29.7568 29.2215 29.0842 31.953 29.8511 28.684 41.1399 28.3386
threshold=-0.0024033488010970694 -0.002541973624331111 -0.0068397157536450827 -0.00050222627564404149 -0.0034800286494933975 -0.00053548247658165066 0.0035199918208942971 -0.013279272899130978 0.0059087656098976002 -0.0046737321814788665 0.99731474166344036 0.013155640521084247 0.0051642977945970956 0.001311751817159872 -0.0086747695408294443 -0.0095476143424880183 -0.010795064769079526 1.0039045010249243 -0.42251255547095162 0.57104236076743875 -0.27694707927032497 0.20595494002137846 -0.025187643265638233 0.0020020520347557467 -0.0039315738421906192 0.99749729004724541 1.0089115639744108 0.51772704330740871 -0.27593804518652409 -5.5015716702098942e-05
decision_type=2 2 2 2 2 2 2 2 2 2 2 2 2 2 2 2 2 2 2 2 2 2 2 2 2 2 2 2 2 2
left_child=2 5 4 9 7 16 20 15 12 -4 29 -10 13 18 24 22 -2 -17 -3 -12 21 -6 -1 -16 -7 26 -26 28 -9 -5
right_child=1 8 3 10 6 14 -8 27 11 -11 19 -13 -14 -15 23 17 -18 -19 -20 -21 -22 -23 -24 -25 25 -27 -28 -29 -30 -31
leaf_value=0.049052385241711828 -7.542053785718596e-05 -0.03540208278302448 0.014319934318571238 -0.010936110682708408 0.070595901661501231 -0.012192975043067067 0.0056308990487756762 -0.0048494810272269005 0.019525470251955935 -0.013794139378153387 0.01394103446341431 -0.021942306253623971 -0.039189954119633337 0.0069536487196360909 -0.0067197741644946882 -0.019264217051592643 -0.02738427630577905 0.074776299966912443 -0.016258723723260513 0.048172043544431609 0.074159952318734929 0.018992874088024005 0.0061674545062604053 0.021567650029361164 0.0039573552606458028 0.047586819644814912 0.10800923945686042 -0.004030653727981586 0.042421928291204967 0.024609021620222091
leaf_weight=85.123056188225746 250.28419001400471 692.48544004559517 377.99335394054651 98.972664855420589 53.429808564484119 41.400962360203266 74.389246039092541 74.560910411179066 113.80539015680552 442.71583122760057 95.940936736762524 180.55934297293425 945.09163236618042 134.11379263550043 306.17932100594044 12.070683248341082 324.26738610118628 126.07704590260983 370.20497064292431 336.80336882174015 323.36524460464716 59.52202782779932 77.075785659253597 130.08570160716772 95.375235058367252 151.61755938082933 7.4298380091786376 164.35281833261251 120.26673820614815 129.36699476838112
leaf_count=422 2259 9261 2850 853 257 353 472 515 1159 4120 649 2154 13120 1581 3033 73 3713 591 4838 2206 1468 311 464 1077 702 1049 54 1097 778 950
internal_value=-0.000382354 -0.0183388 0.0249602 0.0128015 0.0403559 -0.000199287 0.0573755 0.0271768 -0.0280675 -0.000845664 0.0297439 -0.0059103 -0.0311126 -0.0247341 0.0117995 0.0460997 -0.0154881 0.0665595 -0.0287332 0.0405829 0.0661977 0.0434027 0.0286738 0.00171498 0.0266717 0.032996 0.0114773 0.0113534 0.0243311 0.00920216
internal_weight=6394.93 3742.9 2652.03 1481.79 1170.23 1306.64 510.706 659.527 2436.26 820.709 661.084 294.365 2141.9 1196.8 732.089 300.347 574.552 138.148 1062.69 432.744 436.317 112.952 162.199 436.265 295.824 254.423 102.805 359.18 194.828 228.34
internal_count=62429 44353 18076 11628 6448 12240 2508 3940 32113 6970 4658 3313 28800 15680 6268 1550 5972 664 14099 2855 2036 568 886 4110 2158 1805 756 2390 1293 1803
is_linear=0
shrinkage=0.05


Tree=15
num_leaves=31
num_cat=0
split_feature=61 61 72 0 1 65 19 61 17 72 61 0 61 17 61 5 67 89 4 5 77 20 19 68 58 19 63 17 85 77
split_gain=1052.55 177.513 141.163 123.29 102.827 75.8506 69.7363 62.1117 69.0583 60.2273 56.8594 59.5788 53.3702 53.1929 47.4785 46.6972 43.4736 42.4952 40.9491 40.8847 40.8775 45.1898 39.3048 52.7394 38.4638 35.9188 34.0705 31.9281 30.8677 30.6333
threshold=-0.0024033488010970694 -0.0082723371114101166 1.0060761155609406 -0.00029252621477739312 -0.0066911741503370877 -0.0021333985299708575 0.0028839719604322185 0.0020134454158856328 1.3651924415417971 0.99902945351691297 0.00090597727777294611 0.00079791751235839951 -0.017890825670671014 0.71682458043863473 0.004562685434383108 0.0046831863851926215 0.0047682060533365102 0.001354581395582816 32.896071428571396 0.0039930922485581265 0.073363556594906496 -0.0040474291290028943 -0.0042873859379823154 -0.1848292095103507 -0.0057043999586239144 -0.00097916711577001377 0.99976659593533579 0.73252267662244164 0.054826500073674976 0.61984923142881443
decision_type=2 2 2 2 2 2 2 2 2 2 2 2 2 2 2 2 2 2 2 2 2 2 2 2 2 2 2 2 2 2
left_child=1 4 6 9 12 14 10 8 -8 -3 11 -2 24 19 20 16 -11 -7 -6 -5 -4 -22 -18 28 -1 29 -27 -23 -24 -15
right_child=2 3 5 13 18 17 7 -9 -10 15 -12 -13 -14 25 -16 -17 22 -19 -20 -21 21 27 23 -25 -26 26 -28 -29 -30 -31
leaf_value=0.019636246517276565 -0.027747709973915288 -0.011958846471874051 -0.013182474913365456 0.023370907710912145 0.060526768530916486 0.007981208433844816 -0.0010419516346146494 -0.018504504755400719 0.076909635373779581 -0.043425681329740083 -0.037265374826590869 0.00032137702949047823 0.011735394982692073 0.0096968666103743849 -0.027759722823456318 -0.024704171122372533 -0.0039610900336931954 0.055184473021353521 -0.0025236739710044033 -0.024008216601374879 -0.0075711393423757286 0.001248353958999976 -0.003730337089504464 0.048234291783082868 0.07131120209129517 0.02620258739134403 0.063216573309407539 0.051192598521950156 0.033314853718708029 0.054081928055890009
leaf_weight=64.328705117106438 696.23409095406532 404.05056946724653 339.83081030100584 170.17709504067898 459.08063162118196 134.86638859659433 121.32941202819347 525.33968153595924 37.100209511816502 27.731984280049801 980.16114827990532 259.51589719951153 301.00607223808765 130.82006129622459 241.08594392985106 73.711314216256142 123.529082685709 73.754919394850731 27.282204940915108 62.166482135653496 137.28973155468702 50.421923153102398 130.54558238387108 182.7134874612093 81.803937405347824 92.19123625010252 190.92442663013935 87.581577256321907 98.781035028398037 55.309631064534187
leaf_count=330 8944 3698 3897 1206 2098 1122 1401 6504 351 228 13239 3001 1984 956 2720 554 972 538 148 459 1396 469 1020 1229 400 659 1031 771 736 368
internal_value=-0.000381632 0.0234841 -0.0177159 0.0140591 0.0410786 -0.00236538 -0.0239555 -0.0102289 0.0172123 0.00314141 -0.0288038 -0.0201261 0.0237715 0.0302595 -0.00895254 0.0127194 0.0176164 0.0246692 0.05699 0.010694 -0.00158143 0.0127393 0.0207772 0.0281937 0.0485635 0.0399472 0.0511637 0.0329446 0.0122267 0.0228862
internal_weight=6360.67 2676.15 3684.51 1742.65 933.502 1064.83 2619.68 683.769 158.43 1041.06 1935.91 955.75 447.139 701.589 856.21 637.012 563.301 208.621 486.363 232.344 615.124 275.293 535.569 412.04 146.133 469.245 283.116 138.004 229.327 186.13
internal_count=62429 18076 44353 13116 4960 10913 33440 8256 1752 8437 25184 11945 2714 4679 9253 4739 4185 1660 2246 1665 6533 2636 3957 2985 730 3014 1690 1240 1756 1324
is_linear=0
shrinkage=0.05


Tree=16
num_leaves=31
num_cat=0
split_feature=61 70 70 1 19 70 19 61 4 1 68 19 68 61 63 61 36 0 61 70 61 12 3 18 68 14 58 1 70 18
split_gain=955.337 219.344 189.12 102.591 93.5709 116.666 92.4042 78.2173 69.4684 60.867 57.5181 57.2864 52.2958 51.3776 47.6694 41.5237 40.8032 39.2786 34.65 42.2586 32.9781 32.9605 33.0613 32.137 30.9093 30.3074 29.9803 29.9662 29.2085 29.3815
threshold=-0.0019171685083945503 -0.0028542952840439795 -0.002541973624331111 -0.0006703431686554505 -0.0012723724641578219 -0.018868839112355373 0.00013361684606751548 -0.0045611770826948332 26.411785714285759 0.0038672993082086151 1.1949986794292624 -0.0044098861198876753 -0.010164988840564613 0.0020134454158856328 1.0000405935085273 -0.006677086308881767 1.7927586697815185 0.00087182554255715416 0.002562387755268208 -0.010543640022984255 0.00095707919901464429 0.92692308710843296 0.0029943209012021619 0.0045305286921784914 1.4457306426748235 0.46006569466356612 -0.0032990805308259542 -0.0020130312365401132 -0.011945629973895699 0.0043384241103368347
decision_type=2 2 2 2 2 2 2 2 2 2 2 2 2 2 2 2 2 2 2 2 2 2 2 2 2 2 2 2 2 2
left_child=2 6 4 10 5 8 18 11 26 20 -4 -7 -13 16 -6 -5 -11 -17 19 27 -3 28 -23 -19 -10 -18 -1 -2 29 -8
right_child=1 9 3 15 14 7 21 -9 24 13 -12 12 -14 -15 -16 17 25 23 -20 -21 -22 22 -24 -25 -26 -27 -28 -29 -30 -31
leaf_value=0.037793764906596847 -0.015282729871696208 -0.024368070085167757 -0.015941217646903438 0.056183829364863651 0.022914130736819725 0.0056283531392790735 0.079169331796778014 -0.010897379153523162 -0.019378873596406658 0.0042422947519741797 0.030129082447786493 0.013257386808060401 0.052740464308027271 -0.020777810551058803 0.054856991580432946 0.0015157525508299487 0.0019483847407608191 0.069905912366402714 -0.033724442217336587 -0.018689414124451496 -0.038788590027644128 -0.011028389414478592 0.040094824802685926 0.014284548581265977 0.035328900898317521 0.14538417210574553 0.068453166426978684 0.026230392082909022 -0.0044601864697852685 0.012387349171610947
leaf_weight=139.90338473021984 67.081540897488594 702.18933922797441 523.52423766255379 76.65093906223774 159.51348545402288 298.60995791852474 22.268577054142952 259.99003142863512 51.217185936868191 95.824165590107441 77.819432266056538 148.12215450406075 193.32567150890827 544.63333474844694 436.14820601791143 192.68825057893991 5.9144436940550795 47.592979021370411 157.0119596645236 289.99879375100136 910.59956254065037 38.927382841706276 168.57082145661116 57.158214025199413 52.063941322267056 9.7601065263152105 185.39940734952688 123.50930938124657 229.39857833087444 63.251669578254223
leaf_count=750 640 9637 4982 366 1105 2023 144 2273 301 1104 592 983 1061 7034 2269 1668 59 313 1752 3295 13367 333 1287 391 272 80 923 937 2025 463
internal_value=-0.000379868 -0.0182444 0.020745 0.00281017 0.0298362 0.0224537 -0.000558336 0.0122297 0.0439248 -0.0272866 -0.00997929 0.0216238 0.0356125 -0.0144472 0.0463029 0.023369 0.0164756 0.0149125 -0.0133321 -0.00666972 -0.0325101 0.0150318 0.0305039 0.0395557 0.00819928 0.0912619 0.0552674 0.0116192 0.00483727 0.0297767
internal_weight=6328.67 3428.94 2899.73 975.434 1924.29 1328.63 1160.02 900.048 428.584 2268.92 601.344 640.058 341.448 656.132 595.662 374.09 111.499 297.439 637.602 480.59 1612.79 522.417 207.498 104.751 103.281 15.6746 325.303 190.591 314.919 85.5202
internal_count=62429 42157 20272 8312 11960 8586 10876 6340 2246 31281 5574 4067 2044 8277 3374 2738 1243 2372 6624 4872 23004 4252 1620 704 573 139 1673 1577 2632 607
is_linear=0
shrinkage=0.05


Tree=17
num_leaves=31
num_cat=0
split_feature=61 70 61 0 19 19 62 70 19 70 70 71 12 21 70 79 61 4 1 63 13 61 68 61 58 18 77 82 70 1
split_gain=865.838 206.239 174.872 127.055 96.4655 85.63 115.911 78.0072 58.3815 49.5744 49.4994 43.0039 51.201 39.6163 37.8948 37.7733 36.3805 35.2896 35.2366 34.4793 34.3073 32.0855 30.1745 28.7399 41.3731 39.7203 43.8579 37.8876 28.3723 26.619
threshold=-0.0019171685083945503 -0.0014157100932637168 -0.0056743633066079283 -0.00050222627564404149 0.00082029694354893287 -0.0034800286494933975 0.001603403208285084 -0.013947904574249265 0.0059087656098976002 -0.010166128149178787 -0.0034579399503969952 -0.0078406216891093224 0.52792818675950126 -0.0037302582590324957 0.012213743668415366 -0.013854545382309224 -0.010450370436937443 30.348214285714224 -0.0016479336762131138 1.0039045010249243 0.1854167386962646 0.001898163479103596 0.30905678929079627 -0.017890825670671014 -0.0057043999586239144 0.0060767549795347755 0.64757788724395249 1.1420340250355594 0.0053700553650858013 0.0026221481399702623
decision_type=2 2 2 2 2 2 2 2 2 2 2 2 2 2 2 2 2 2 2 2 2 2 2 2 2 2 2 2 2 2
left_child=2 4 5 10 9 7 16 23 15 13 20 12 -5 -2 -10 28 -7 -18 -13 -15 -4 29 -8 24 -1 26 -25 -27 -3 -6
right_child=1 8 3 11 21 6 22 -9 14 -11 -12 18 -14 19 -16 -17 17 -19 -20 -21 -22 -23 -24 25 -26 27 -28 -29 -30 -31
leaf_value=0.02367605957900723 -0.019170301193358639 -0.0035612242260707467 0.016841484748048446 -0.0053215079695706734 0.015891354014456422 0.074093740047557893 -0.013904438530269878 0.00152156338308398 0.019160308358276704 -0.021476923106658167 -0.019900095329320713 -0.0065497639697431852 0.049898265125374111 0.0034502958521674277 -0.019858040870930183 -0.034781240392817936 0.048727471767525871 -0.043041937585402472 0.023489879734548108 0.04876727870347991 -0.013527307606475353 0.0045648968784104066 0.035189198401653014 0.01909858752906738 0.079165534703832821 -0.0026683891209976821 0.07356778739015922 0.06868631256055216 -0.032416387209983244 0.053138164346623086
leaf_weight=63.288398027420044 124.13124646991491 192.69466450810432 249.6298979818821 52.514862589538097 119.18624993413687 166.38861186802387 89.44002203643322 322.59610999375582 95.258420459926128 552.78553981333971 368.81425350159407 148.93770640343428 209.23314741998911 143.69393974542618 179.45889595150948 1399.398876234889 385.28925850242376 10.768673203885553 283.32975124567747 59.293508343398571 148.21336367726326 276.18474671244621 48.147994458675385 81.754082873463631 71.591164216399193 131.1474851667881 67.442950814962387 21.678465351462364 152.69652173668146 80.276843316853046
leaf_count=308 1241 2627 1896 369 1023 700 605 2280 985 6605 3886 1405 1315 1174 2231 20628 1967 63 2043 439 1174 2356 308 436 315 742 343 117 2234 614
internal_value=-0.000378401 -0.0176267 0.0195565 0.00732577 -0.00254055 0.0317969 0.0444117 0.0201698 -0.027753 -0.0123472 -0.00670473 0.0228248 0.0388194 0.00308064 -0.0063284 -0.0311263 0.0544745 0.0462323 0.0131397 0.0166876 0.00552783 0.0156009 0.00327555 0.033939 0.0531287 0.0253692 0.0437208 0.00745332 -0.016318 0.0308819
internal_weight=6295.27 3375.06 2920.21 1460.67 1355.55 1459.53 700.035 759.499 2019.51 879.904 766.658 694.015 261.748 327.119 274.717 1744.79 562.447 396.058 432.267 202.987 397.843 475.648 137.588 436.903 134.88 302.023 149.197 152.826 345.391 199.463
internal_count=62429 42157 20272 12088 13452 8184 3643 4541 28705 9459 6956 5132 1684 2854 3216 25489 2730 2030 3448 1613 3070 3993 913 2261 623 1638 779 859 4861 1637
is_linear=0
shrinkage=0.05


Tree=18
num_leaves=31
num_cat=0
split_feature=61 72 61 1 58 61 12 61 1 18 62 1 62 63 77 21 77 19 20 61 1 71 74 62 72 77 100 63 20 63
split_gain=786.318 152.676 110.979 106.621 77.4929 72.391 66.3598 62.9429 58.8971 58.3958 50.4908 50.388 47.6457 44.9018 44.6904 44.277 42.1263 40.2682 39.0266 42.8698 38.4789 37.8264 36.6654 34.5383 34.5057 34.2633 30.9934 30.8604 30.5582 36.5524
threshold=-0.0030541946678448056 1.0056053700029222 -0.0097723039623283225 -0.0032380443376458378 -0.0023186151745524281 0.0023864838065902083 1.7926180623375669 0.00090597727777294611 -0.0021671428471128546 0.0077340403593192135 0.0035199918208942971 -0.0010957888908660466 -0.022267007925141885 0.99869493583392543 0.063569942746814004 -0.0033370626436925181 -0.46949096349824299 -0.00094756733633068679 0.0017676623197776331 0.001671857395460459 0.0027787366753079423 -0.0073207236946939329 0.0017634342521357295 -0.00015663618865164661 1.0065018748716397 0.54776527140741549 -0.0048568909524306248 1.0059341228391321 -0.01868730325432974 1.0201532566494951
decision_type=2 2 2 2 2 2 2 2 2 2 2 2 2 2 2 2 2 2 2 2 2 2 2 2 2 2 2 2 2 2
left_child=2 6 4 21 12 8 7 11 -3 13 -6 -2 28 25 22 -16 -13 24 -8 -20 -9 -4 -10 -19 -15 -5 -7 -17 -1 -30
right_child=1 5 3 9 10 26 18 20 14 -11 -12 16 -14 17 15 27 -18 23 19 -21 -22 -23 -24 -25 -26 -27 -28 -29 29 -31
leaf_value=0.019417954651649735 -0.029104362362019139 -0.015290930305864758 0.011578681310736643 -0.0081986726877212781 0.060215957814620816 0.054761993489101601 -0.032327555605672041 -0.039121862191889088 -0.0024156321850105204 -0.01238200171460648 -0.003361476538883509 -0.018286703557591089 0.0015817062853676293 0.0076725780088113694 0.0033239348898403604 0.038768824499528676 0.0058924925521999204 0.054647252690529717 0.058688841958876442 0.00168232656926567 -0.021441529578865446 -0.011809101921825852 0.042432006889719431 0.020833007733855297 0.039252951653491158 0.040562176838836173 -0.018003676173241074 0.096970511199583762 0.029303772293168936 0.091392629417919119
leaf_weight=104.48836540430784 415.70114349573851 177.37309423089027 342.92130883783102 121.60161354392767 335.22183264046907 15.146109804511068 57.797251623123884 709.275753993541 264.81631262600422 93.172917075455189 34.436102740466595 395.59753473103046 161.9096998795867 187.61291513592005 81.937812451273203 141.91551236063242 330.75156973302364 284.36213959753513 42.70637196674943 144.7957658059895 543.58934427797794 348.66561184823513 55.047589600086212 102.82244849205017 160.48511745780706 51.194163076579571 432.62073239684105 27.12958437949419 50.259247958660126 44.864360466599464
leaf_count=543 5375 1875 2384 972 1543 156 783 10525 2803 592 204 4951 966 1336 739 1080 3767 1424 416 1769 7270 3024 488 637 908 379 4872 184 260 204
internal_value=-0.000375163 -0.0144613 0.0219173 0.0148861 0.0381959 0.000359178 -0.0211748 -0.0237117 0.00987531 0.0253149 0.0542933 -0.0152217 0.0217362 0.0291828 0.0176949 0.0334884 -0.00727642 0.0345727 0.00359372 0.0146664 -0.0314508 -0.000212339 0.00530251 0.0456674 0.0222322 0.00624769 -0.0155423 0.0481095 0.0380839 0.0585875
internal_weight=6260.22 3836.2 2424.02 1692.84 731.18 1195.99 2640.21 2394.92 748.22 1001.25 369.658 1142.05 361.522 908.078 570.847 250.983 726.349 735.283 245.299 187.502 1252.87 691.587 319.864 387.185 348.098 172.796 447.767 169.045 199.612 95.1236
internal_count=62429 47053 15376 11656 3720 12197 34856 31888 7169 6248 1747 14093 1973 5656 5294 2003 8718 4305 2968 2185 17795 5408 3291 2061 2244 1351 5028 1264 1007 464
is_linear=0
shrinkage=0.05


Tree=19
num_leaves=31
num_cat=0
split_feature=61 70 70 19 1 19 70 61 4 58 68 19 70 68 70 67 62 70 58 20 61 67 5 59 61 37 5 63 4 34
split_gain=719.307 190.528 144.89 87.3036 83.0905 73.4821 90.6084 62.423 56.2338 56.0749 49.7717 45.7471 44.5371 42.2826 42.0384 56.7902 36.6296 35.6866 45.942 34.6064 31.8525 30.4474 30.2803 53.374 34.3362 28.1345 27.9828 27.278 36.2657 27.141
threshold=-0.0019171685083945503 -0.0014157100932637168 -0.002541973624331111 0.00082029694354893287 -0.0006703431686554505 -0.0012723724641578219 -0.018868839112355373 -0.0045611770826948332 26.411785714285759 0.0025673842949033294 0.134966279165389 -0.0044098861198876753 -0.010543640022984255 -0.010164988840564613 0.012213743668415366 0.0067194532949980618 -0.0021175179422514788 0.0041583549864582696 0.00094677529854136412 -0.0059500606688111376 -0.006677086308881767 0.014889669528521261 0.0044742878209815861 10.071071428571358 0.001898163479103596 0.48480608017815002 0.0010812093374228473 1.0039885867987017 9.113571428571392 0.012848769301959348
decision_type=2 2 2 2 2 2 2 2 2 2 2 2 2 2 2 2 2 2 2 2 2 2 2 2 2 2 2 2 2 2
left_child=2 3 5 12 10 6 8 11 -1 17 -4 -8 19 -13 15 -11 26 18 -3 -2 -6 29 23 24 -5 -15 -7 -21 -29 -22
right_child=1 9 4 22 20 16 7 -9 -10 14 -12 13 -14 25 -16 -17 -18 -19 -20 27 21 -23 -24 -25 -26 -27 -28 28 -30 -31
leaf_value=0.047423119120835446 -0.017129890657526327 -0.028016709282085536 -0.020629826170117379 0.029703167586253177 0.048344859795157201 -0.030096410621437454 0.0038816484056751173 -0.010879159345008717 0.0055346422417855033 0.16633529951559345 0.0095191053807206528 0.010464766129664169 -0.020127234879304953 0.062470768094896816 -0.019837341925629248 0.010685700082173781 0.024946030927383581 -0.036661542672503683 0.0033023931804470729 0.0045579412585626845 0.010683637970270774 -0.029240438407109617 -0.011906512392637 0.060747464182873481 -0.0029523309248921546 0.024760385987522993 0.052221647939626907 0.13869296905709519 0.028619562759354025 0.050724946410311736
leaf_weight=336.77278389781713 124.32642941176891 600.36687645688653 382.7763187289238 152.53050950914621 78.790848329663277 10.634041354060171 303.33137489110231 259.34151908755302 105.13369260728359 6.2646197825670233 213.10492556542158 151.47376304864883 546.1354423686862 109.84907053411007 186.65093240141869 90.791710142046213 249.16110125929117 910.0359497629106 145.46368713676929 135.93410788476467 212.70486184209585 37.928985506296158 84.88838142156601 69.583107061684132 170.45202368497849 89.969938956201077 353.90797037631273 8.8713199347257596 47.813350103795528 52.832017727196217
leaf_count=1673 1270 9012 3786 1262 366 61 2023 2273 573 66 1788 983 6691 572 2461 1011 1550 14256 1899 1095 1742 313 696 537 1498 489 1763 55 348 317
internal_value=-0.000370608 -0.0164792 0.0175544 -0.00198417 0.00182428 0.0253664 0.018869 0.00988132 0.0374575 -0.0264974 -0.00984767 0.018106 -0.0114746 0.0303883 -0.00595846 0.0207323 0.0397215 -0.0300165 -0.0219084 0.00343488 0.0200191 0.0126647 0.0151715 0.0210268 0.0124694 0.0454914 0.0498204 0.0167085 0.0458464 0.0186504
internal_weight=6227.82 3280.11 2947.71 1340.53 978.138 1969.58 1355.87 913.966 441.906 1939.57 595.881 654.624 863.081 351.293 283.707 97.0563 613.703 1655.87 745.831 316.945 382.257 303.466 477.454 392.566 322.983 199.819 364.542 192.619 56.6847 265.537
internal_count=62429 42157 20272 13452 8312 11960 8586 6340 2246 28705 5574 4067 9459 2044 3538 1077 3374 25167 10911 2768 2738 2372 3993 3297 2760 1061 1824 1498 403 2059
is_linear=0
shrinkage=0.05


Tree=20
num_leaves=31
num_cat=0
split_feature=61 70 61 0 20 1 1 61 17 61 36 61 70 62 18 19 0 63 20 63 63 17 18 5 70 1 63 0 18 12
split_gain=652.585 179.959 132.649 104.057 71.7312 71.1164 67.4435 66.6451 63.1715 60.0952 48.5422 42.5648 41.4748 41.0314 37.8074 36.7147 35.155 34.1679 38.8179 34.0006 33.9164 32.9703 30.3113 29.0575 34.553 28.898 29.6316 28.8435 28.5964 27.7736
threshold=-0.0019171685083945503 -0.0054606995643708177 -0.0056743633066079283 -0.00050222627564404149 -0.0045428729920340841 -0.0051497638279162468 0.002019038166849636 0.0017154677758061485 0.75068108077261064 -0.010884154744953417 3.3700295809074743 0.00095707919901464429 -0.0061591061545460783 0.0040385441018470436 0.010180858470425371 -0.0022898323489498242 0.0019556410292584652 1.0234949753820621 -0.012997233496927248 1.0131495869808631 1.0150712947046687 1.8281556930211584 0.0045886400072598912 0.0039659577851555291 -0.0068189492817462187 0.0026221481399702623 1.0046045160934385 0.0027256377905835742 0.0060399300606797848 0.89784430799521731
decision_type=2 2 2 2 2 2 2 2 2 2 2 2 2 2 2 2 2 2 2 2 2 2 2 2 2 2 2 2 2 2
left_child=2 4 5 12 -2 9 11 10 23 14 27 16 -4 15 17 19 -3 18 -1 22 -20 -9 -7 24 -5 26 -6 -8 -21 -27
right_child=1 6 3 8 25 13 7 21 -10 -11 -12 -13 -14 -15 -16 -17 -18 -19 20 28 -22 -23 -24 -25 -26 29 -28 -29 -30 -31
leaf_value=9.6493791631085512e-05 -0.019746615857391528 -0.025560333329239533 0.0076208641965735575 0.037991429066954033 0.00067492985999256295 0.032208905784899572 -0.0028574208783351753 -0.024226849430607596 0.031833329428486642 -0.00048168323950093103 0.17777191357581101 -0.039790949549733869 -0.016216300251767762 0.0028906186124761975 -0.0053008097670311557 0.051024720161872567 0.012164689497843202 0.067117983468749351 0.028621349447986222 0.082396617477824938 0.079191804441489447 0.0062988215143538612 -0.011089269627579766 -0.028915364831464341 -0.004084343053063713 0.011215933294508765 0.045073377965941609 0.038461009322957353 0.029403261040278218 0.048160270998094799
leaf_weight=87.754576899111271 227.03101174533367 632.01897806674242 300.82354886829853 73.002659402787685 354.90558867901564 91.059344738721848 197.82379281520844 718.2306284122169 428.48912318050861 315.70680107176304 4.1795843280851832 629.31503731384873 463.85606954991817 75.884828329086304 68.610538229346275 413.79219634830952 68.441937208175659 67.902461394667625 141.2828199788928 40.405109696090221 43.322213470935822 100.88155546411872 72.685659527778625 61.865181438624859 147.13650690764189 108.61352259665728 42.03072889149189 53.704108141362667 68.811387769877911 95.690743654966354
leaf_count=489 2395 9222 2151 439 3150 483 2543 10228 2929 2267 33 10082 4805 469 365 1894 859 322 786 177 194 1252 403 490 1274 852 330 546 335 665
internal_value=-0.000367344 -0.0159014 0.0165851 0.00596161 0.00419863 0.0271225 -0.022825 -0.0135109 0.0197383 0.0159053 0.00877276 -0.0303533 -0.0068388 0.0377799 0.0285583 0.0416351 -0.0218742 0.0353857 0.0274745 0.027401 0.040489 -0.0204673 0.012989 0.00136049 0.00986885 0.0132405 0.00537619 0.00596454 0.0490084 0.0285197
internal_weight=6195.26 3232.87 2962.39 1475.17 828.272 1487.22 2404.6 1074.82 710.493 724.579 255.707 1329.78 764.68 762.639 408.873 686.754 700.461 340.262 272.36 272.962 184.605 819.112 163.745 282.004 220.139 601.241 396.936 251.528 109.216 204.304
internal_count=62429 42157 20272 12088 7392 8184 34765 14602 5132 4423 3122 20163 6956 3761 2156 3292 10081 1791 1469 1398 980 11480 886 2203 1713 4997 3480 3089 512 1517
is_linear=0
shrinkage=0.05


Tree=21
num_leaves=31
num_cat=0
split_feature=70 70 63 20 20 63 20 20 70 18 63 62 21 70 19 67 58 21 2 21 18 70 20 62 70 77 76 77 77 58
split_gain=554.679 110.27 98.4438 115.475 83.9358 116.711 82.331 82.1624 74.4655 69.7628 68.8246 58.7632 58.1589 52.7597 48.3052 47.7989 46.3101 43.1987 40.7947 40.4931 38.1336 36.3823 35.5028 34.529 34.5596 34.0405 32.9553 35.3946 32.1486 31.3199
threshold=-0.002541973624331111 -0.012674126340114842 1.0011101981194346 -0.00068179774359208389 -0.0058069754845796852 1.0052865126243506 -0.0011458602471414107 0.0022031619951179602 0.0040522268966522558 0.0060767549795347755 0.99869493583392543 -0.0052865182454368337 -0.0024463115932103268 -0.046330546840267349 0.0071608887539278245 0.0047682060533365102 0.001311751817159872 -0.00093336221542804332 0.0047982896127734638 1.0000000180025095e-35 0.010889042457397592 0.014159789893682597 -0.0024015680909124574 -0.0023567044478348368 -0.020770772293928975 -0.74700316456566163 0.027014954281438176 0.24332432300164536 -0.5698955246673979 -0.00098945879767525584
decision_type=2 2 2 2 2 2 2 2 2 2 2 2 2 2 2 2 2 2 2 2 2 2 2 2 2 2 2 2 2 2
left_child=1 9 7 11 -3 6 -6 -2 16 23 18 22 -7 -11 -10 -12 -9 -5 -8 -17 26 -16 28 24 -1 -19 -15 -28 -4 -26
right_child=2 4 3 17 5 12 10 8 14 13 15 -13 -14 20 21 19 -18 25 -20 -21 -22 -23 -24 -25 29 -27 27 -29 -30 -31
leaf_value=0.059121554749205288 -0.033953762165262344 -0.017514335026429972 -0.038453545931911109 -0.0039720709168809369 -0.012697811790406724 0.0067282915659734772 -0.011688243672411724 -0.010230567082878185 -0.02799092577999503 0.050478585504886021 -0.027561883412079564 -0.026572452369199286 0.052286643362378128 0.00048424306015774519 0.035158567641672113 0.014811676633134159 0.023921848811552595 0.0063718889571093579 0.026681694548703911 0.047084101693625958 -0.02364545957993823 -0.013409119693713382 0.046288286541746888 0.016231061331904679 0.021896660051078085 0.056096411786631141 0.01109264096369242 0.055505398521072037 0.0064491939230881343 0.053927090999641429
leaf_weight=194.14892987161875 825.46381036192179 305.39525264129043 51.032148607075214 74.653708666563034 457.3133297637105 102.45934598892927 273.84611965343356 240.56159938499331 697.20871126279235 80.064972251653671 36.069464143365622 350.3422472961247 221.4768451154232 234.95005487650633 54.115231312811375 176.5285677537322 168.98631295189261 48.373451862484217 92.729569226503372 216.28810303658247 85.49176599085331 134.14474103599787 42.544951751828194 166.87661693990231 226.26323249936104 119.31075458601117 113.97344946116209 73.978157289326191 182.10992874205112 115.16490058600903
leaf_count=973 12504 2675 596 865 4532 805 2572 3119 10247 442 346 4401 1186 1513 524 1404 1715 446 699 1429 587 1652 390 1005 1407 858 722 435 1784 596
internal_value=-0.000362464 0.0141972 -0.0158192 -0.00163919 0.00647767 0.0111247 0.0042073 -0.0216262 -0.0137684 0.0254519 0.0139261 -0.0129835 0.0378768 0.0127525 -0.0219225 0.0275231 0.00386129 0.0276664 -0.00198212 0.0325811 0.00681113 0.000551637 0.0042854 0.0360905 0.0422783 0.0417519 0.0129681 0.0285736 -0.00337951 0.0327006
internal_weight=6161.87 3173.02 2988.85 868.367 1882.11 1576.71 1252.78 2120.48 1295.02 1290.91 795.462 626.029 323.936 588.458 885.469 428.886 409.548 242.338 366.576 392.817 508.393 188.26 275.687 702.454 535.577 167.684 422.902 187.952 233.142 341.428
internal_count=62429 23328 39101 9340 15648 12973 10982 29761 17257 7680 6450 7171 1991 3699 12423 3179 4834 2169 3271 2833 3257 2176 2770 3981 2976 1304 2670 1157 2380 2003
is_linear=0
shrinkage=0.05


Tree=22
num_leaves=31
num_cat=0
split_feature=62 68 20 79 64 37 77 19 72 71 65 20 71 20 62 58 19 62 58 18 62 20 20 62 21 37 86 65 5 71
split_gain=357.2 110.871 118.364 91.3462 61.2896 60.908 83.801 53.2387 51.295 49.2652 48.1638 42.9161 38.9288 38.2994 47.7109 38.9608 35.6818 34.6897 40.7168 34.5123 32.7043 32.0742 28.2013 36.1302 27.3774 28.5935 27.2389 26.4182 26.0633 25.9651
threshold=-0.003035859441783203 1.1949986794292624 -0.0011985950596198312 -0.011961192007175709 1.005353426782694 0.76184957209886628 -0.15667497424288998 0.002527204484565997 1.0004879344897841 0.01575168979534847 0.0030906352954468935 -0.0021603618896966089 -0.0076871152822164043 -0.0079704120792195212 -0.022267007925141885 -0.0052423303635951582 -0.0040694909651181627 0.0036064929241440683 1.3271352249930586e-05 0.0022104171577190268 -0.013833910046668502 0.010791605264398992 0.013170480841170671 0.018823914020609376 0.00055140301283010103 0.070069071513111064 -0.11015038754285834 -0.0078656983485895244 0.0030664274574413995 0.00099058140675436189
decision_type=2 2 2 2 2 2 2 2 2 2 2 2 2 2 2 2 2 2 2 2 2 2 2 2 2 2 2 2 2 2
left_child=1 2 5 11 -4 6 8 17 -1 10 -9 -2 24 14 15 26 -8 18 -5 -20 -15 -14 -11 -24 25 -13 -3 -6 -23 -21
right_child=3 13 4 7 27 -7 16 9 -10 22 -12 12 21 20 -16 -17 -18 -19 19 29 -22 28 23 -25 -26 -27 -28 -29 -30 -31
leaf_value=-0.02675381090014798 -0.017905202759462627 -0.030244344876337894 0.018056395164246456 -0.02575339111451895 0.021373352995912049 -0.021627392154829134 0.0020715780480038584 -0.0043746305323906472 0.0030171639248500522 -0.028744318954119264 0.033158600835853883 0.058885325326012851 -0.0077104751368613266 0.068157330483873277 -0.0011153288883811354 0.06161703065358292 0.027597559857786065 -0.031265818457849932 -0.033171608203590101 0.012918238316066234 0.033073653055601442 0.13847419776252123 0.033364653560959225 -0.018775291828260418 0.041935545516791357 0.005321207596825429 0.02910050664772721 0.071946632151176138 0.023070607584492211 -0.010874046399940935
leaf_weight=227.92688138782978 210.76675822213292 24.133070141077042 376.80792653560638 550.33105877041817 35.683171153068542 262.26189916208386 214.2023032233119 293.75251497328281 396.1796706058085 241.69726211205125 120.54900111630559 27.890892188996077 361.13057018071413 93.069486457854509 158.41330492123961 83.868261229246855 379.3894772939384 559.81525813788176 101.54341542348266 195.39224214106798 232.02991881594062 5.8089227080345145 50.368042696267366 97.621694833040237 98.777321014553308 233.50256294757128 97.27192772552371 93.447478126734495 31.011729586869478 277.57796306908131
leaf_count=2389 2198 136 3290 6948 230 2293 1577 3541 3362 3220 1228 256 4379 431 1095 438 3054 7889 1443 2016 1472 54 497 1191 751 2157 536 529 313 3516
internal_value=-0.000358635 0.0133617 0.00736646 -0.0109724 0.0282439 0.000229294 0.00493668 -0.0160433 -0.00785535 -0.0054573 0.00654639 0.00205255 0.00760104 0.030647 0.0194998 0.0354088 0.0183863 -0.0210954 -0.0160338 -0.00672331 0.0431174 -0.00317788 -0.0182192 -0.00102955 0.0195106 0.0110365 0.0173038 0.0579715 0.041277 -0.00104504
internal_weight=6132.22 2674.68 1985.9 3457.54 505.939 1479.96 1217.7 2488.65 624.107 803.989 414.302 968.889 758.122 688.786 363.687 205.273 593.592 1684.66 1124.84 574.514 325.099 397.951 389.687 147.99 360.171 261.393 121.405 129.131 36.8207 472.97
internal_count=62429 20832 16724 41597 4049 12675 10382 31489 5751 9677 4769 10108 7910 4108 2205 1110 4631 21812 13923 6975 1903 4746 4908 1688 3164 2413 672 759 367 5532
is_linear=0
shrinkage=0.05


Tree=23
num_leaves=31
num_cat=0
split_feature=61 70 61 0 19 1 17 17 61 61 18 71 79 61 77 64 1 5 70 68 1 19 77 19 85 18 70 59 61 62
split_gain=537.089 154.43 103.034 85.2892 69.982 64.681 51.4841 46.4383 45.6187 44.3464 52.0641 39.1517 38.9066 36.8684 38.9034 43.6895 41.3652 34.1378 33.7647 29.6958 29.5687 29.2 30.948 27.9165 27.1832 26.6551 26.0379 25.8316 30.237 24.637
threshold=-0.0019171685083945503 -0.0014157100932637168 -0.0068397157536450827 -0.00065105186463330033 0.00082029694354893287 -0.0084377050260237892 1.8635801529911766 0.75068108077261064 -0.013279272899130978 -0.014239761163356039 0.0068799375781039241 -0.0046737321814788665 -0.013854545382309224 0.0019462230945438302 -0.53042158263896333 1.0151204101360076 -0.0019691329042129469 0.0039930922485581265 -0.0068189492817462187 0.050948131142186021 0.0022104041899858253 -0.00094756733633068679 0.61984923142881443 -0.0032408479002185744 0.08553709508337777 0.0082616569770050923 0.0048685756094189571 10.071071428571358 0.0011679474606584412 -0.0087183976562719753
decision_type=2 2 2 2 2 2 2 2 2 2 2 2 2 2 2 2 2 2 2 2 2 2 2 2 2 2 2 2 2 2
left_child=2 4 5 11 13 8 12 17 19 -7 23 -4 -3 14 15 -2 -16 18 -5 -1 -14 22 -9 29 -8 27 -22 28 -6 -11
right_child=1 6 3 7 25 9 24 21 -10 10 -12 -13 20 -15 16 -17 -18 -19 -20 -21 26 -23 -24 -25 -26 -27 -28 -29 -30 -31
leaf_value=-0.028036624687319506 -0.024526085998359547 -0.011460589085303176 0.0070687947984715734 0.036923965791989088 0.029405007401576345 0.05813109077098412 0.0015447540002436564 5.8513126515036457e-05 -0.01229832728958739 0.032403983808653364 0.0029554846846496226 -0.014160337104347899 -0.036756118163907676 -0.027023286925620945 -0.01992504429502337 0.11379891093566306 0.01617150650215466 -0.026303750751433271 -0.00061504208789004084 0.028689882005881292 -0.0069973211922983005 0.036620572750961956 0.044085937559163839 0.045202182929123522 0.10123514916496845 -0.0242403224902503 -0.029377610890881551 0.039908090620836389 -0.00097103510847090671 -0.005671822373704255
leaf_weight=25.810152024030685 211.94522314146161 342.88274320214987 416.18962182104588 90.541908614337444 132.20064531266689 153.18711578845978 110.16785107553005 143.25691828131676 151.30219197273254 151.61092368513346 155.67877403646708 454.20424423739314 768.52781957387924 242.08153663948178 112.02127251401544 5.8664212003350249 272.27794289216399 73.89212391898036 177.00756946578622 217.37662610411644 196.41637033224106 327.85631680488586 55.330096386373043 318.09744714945555 7.2905961982905856 43.172964185476303 384.11626103520393 95.770764157176018 215.42231560125947 59.024262771010399
leaf_count=143 2640 5163 3136 524 1054 647 1445 1107 1110 799 853 4572 13249 2910 1266 63 2580 585 1524 1081 2827 2019 357 1443 85 355 5936 711 1873 372
internal_value=-0.00035139 -0.0147686 0.01489 0.00705001 -0.00183928 0.025951 -0.0242778 0.0181414 0.00925784 0.0338131 0.0283701 -0.00400936 -0.0265 -0.0105442 -0.00391868 -0.0208005 0.00564954 0.00378003 0.0120886 0.0226693 -0.0303225 0.0274558 0.0123254 0.0358531 0.00773249 0.0132637 -0.0218055 0.0169155 0.0105809 0.0217344
internal_weight=6110.53 3140.16 2970.37 1738.28 1330.76 1232.09 1809.4 867.885 394.489 837.599 684.411 870.394 1691.94 844.192 602.111 217.812 384.299 341.442 267.549 243.187 1349.06 526.443 198.587 528.733 117.458 486.567 580.533 443.394 347.623 210.635
internal_count=62429 42157 20272 13824 13452 6448 28705 6116 2334 4114 3467 7708 27175 9459 6549 2703 3846 2633 2048 1224 22012 3483 1464 2614 1530 3993 8763 3638 2927 1171
is_linear=0
shrinkage=0.05


Tree=24
num_leaves=31
num_cat=0
split_feature=61 70 70 20 68 19 61 58 72 1 79 18 5 70 67 18 61 19 19 63 19 63 61 20 20 72 70 67 62 70
split_gain=487.656 144.396 94.6144 64.4391 61.9423 59.6404 78.2667 50.6661 40.718 39.5293 38.8789 38.301 38.18 35.1078 38.3729 34.7638 33.8046 42.7225 36.6738 33.7169 39.5651 33.7022 33.3368 33.1787 32.4601 31.9929 30.3515 29.8712 31.3787 29.734
threshold=-0.0019171685083945503 -0.0014157100932637168 -0.0012482004459961704 -0.0011458602471414107 0.134966279165389 -0.00085668664279888276 -0.0046672100248177769 0.0025673842949033294 1.0125439835890433 -0.0015614876756935151 -0.013854545382309224 0.0019574760210269312 0.0046024060264474725 0.013155640521084247 0.0067194532949980618 0.006710415773266404 -0.011975283026809939 -0.0042873859379823154 -0.0079855558717050554 0.99734403582532505 0.0025743613521767195 1.0021534577582378 -0.019783484047086932 0.0020515053972377296 -0.0045428729920340841 1.0232221984941898 0.0053700553650858013 0.0045458520979158442 -0.00024614739731743774 -0.0086747695408294443
decision_type=2 2 2 2 2 2 2 2 2 2 2 2 2 2 2 2 2 2 2 2 2 2 2 2 2 2 2 2 2 2
left_child=2 3 5 21 9 6 12 10 -8 -4 26 -5 16 14 -9 -10 18 -18 25 20 -13 -2 -14 29 -23 -1 -3 -7 -29 -21
right_child=1 7 4 11 -6 27 8 13 15 -11 -12 19 22 -15 -16 -17 17 -19 -20 23 -22 24 -24 -25 -26 -27 -28 28 -30 -31
leaf_value=-0.0042005847408868825 -0.034135845266624297 0.0019630231343491645 -0.025165011940587147 -0.040153099997064005 0.017932856745144811 -0.036326329152821482 -0.013687752058329767 0.12463940836529022 0.036731856481176203 0.0023088881756187824 -0.031298546517208023 -0.015280451601890857 0.031201827977884174 -0.018085659662299382 0.010214312760316223 -0.022018394918949455 0.0038236115008428231 0.030582548537985491 0.059855707301571151 0.0363478851158021 0.021011629335390483 -0.019314324484421361 -0.0069708860899326836 0.050700798993968524 0.0076182102129283991 0.048836995315433222 -0.029556790299658037 0.043218709518711297 0.018225776737995702 0.0025438964543006096
leaf_weight=59.315257102251053 152.67764818668365 179.17638267949224 247.73810071870685 38.626303166151047 296.66135070845485 15.044471584260462 301.78515584394336 7.918138936161994 89.838120222091675 277.660434756428 1187.7350717708468 191.06684224307537 82.763201579451561 165.66140680015087 98.13006716966629 34.985057465732098 243.23907129466534 385.66532900184393 133.32204691320658 96.856632247567177 123.72922299057245 243.76853285357356 185.13716118782759 75.960507981479168 206.77217243239284 54.611760951578617 133.11811495572329 384.26394806057215 186.55626368895173 198.10167185589671
leaf_count=316 1923 2633 2611 485 2256 101 2681 77 600 2253 20346 1978 378 2351 1110 266 1612 2155 595 638 948 2720 1104 566 2044 253 2188 1918 1173 2150
internal_value=-0.000345977 -0.0142303 0.014101 -0.0017625 -0.000332409 0.019603 0.0145247 -0.0235723 -0.00375322 -0.0106457 -0.0271709 0.00829021 0.0213403 -0.00370562 0.0187579 0.0202655 0.0263911 0.0202331 0.0420548 0.011019 -0.00101601 -0.0138337 0.00482192 0.0212331 -0.00695385 0.0212234 -0.0114726 0.0332176 0.0350505 0.0136442
internal_weight=6077.89 3099.3 2978.59 1327.56 822.06 2156.53 1570.66 1771.74 426.608 525.399 1500.03 724.341 1144.05 271.71 106.048 124.823 876.153 628.904 247.249 685.715 314.796 603.218 267.9 370.919 450.541 113.927 312.294 585.865 570.82 294.958
internal_count=62429 42157 20272 13452 7120 13152 9960 28705 3547 4864 25167 6765 6413 3538 1187 866 4931 3767 1164 6280 2926 6687 1482 3354 4764 569 4821 3192 3091 2788
is_linear=0
shrinkage=0.05


Tree=25
num_leaves=31
num_cat=0
split_feature=61 70 63 20 63 20 1 1 0 70 20 70 62 68 36 58 61 77 86 79 37 91 61 20 124 4 77 83 77 18
split_gain=442.712 134.896 88.6275 133.182 65.3088 67.0632 59.4603 59.0385 57.2777 57.0383 55.619 49.688 45.9101 42.2683 39.8421 38.3461 44.4023 33.7279 32.7609 30.992 30.7928 29.8638 32.9567 29.0287 27.4815 27.2759 26.4835 26.8905 26.4492 26.0273
threshold=-0.0019171685083945503 -0.0053437053090973977 1.0031755008050054 -0.0024634433257938785 1.0084321403280854 -0.0082182540885628822 0.00033558394423174978 -0.0016909793330844504 0.00092322916719886404 0.0040522268966522558 -0.0020422595380378997 -0.013947904574249265 0.0026315924591682987 -0.1848292095103507 2.2886186371328798 0.001311751817159872 0.0011679474606584412 0.39274466211592479 0.013532516128423966 -0.037303316756938869 0.49341083623112364 1.3638799878512053 0.004562685434383108 -0.0065561155127653826 -0.099550266206109891 12.57964285714281 -0.5698955246673979 0.038252619352491836 -0.46949096349824299 0.0037613438520088423
decision_type=2 2 2 2 2 2 2 2 2 2 2 2 2 2 2 2 2 2 2 2 2 2 2 2 2 2 2 2 2 2
left_child=2 10 7 4 23 11 -3 17 25 15 19 -6 -5 20 24 16 28 -1 -19 -2 -7 -17 -23 -4 -11 -9 -25 -28 -8 -30
right_child=1 6 3 12 5 13 9 8 -10 14 -12 -13 -14 -15 -16 21 -18 18 -20 -21 -22 22 -24 26 -26 -27 27 -29 29 -31
leaf_value=-0.016498341369314631 0.012621844710877423 -0.031683075045652015 -0.025174700164936815 0.04999350505502901 0.020288133772471229 0.031370854366316869 -0.006964562156730374 0.014649980064511355 0.037175606782692341 0.034327295570937888 0.014789651371507838 -0.011502894971319129 -0.0090115892205649348 0.0495437237778956 0.012341364421488124 0.0070985365578656789 -0.022117531448257496 0.040836741302703934 -0.0061001086703420491 -0.019755454415867998 -0.034226954562993239 0.11842322170463658 0.013027282633681353 -0.01588380083361584 -0.028981058021150825 -0.010859434719851823 0.0046738502325793171 0.043119991611824358 0.055877691410498601 0.00059673162195703761
leaf_weight=409.1432763710618 101.15414480119944 746.13891107216477 105.48318620026112 384.91562632471323 409.01506611704826 47.922974191606045 131.45285699516535 241.10453943163157 180.33960373699665 17.585583686828613 468.61329562962055 175.70909695327282 36.054132059216499 241.20268420130014 69.402440290898085 131.4293834194541 325.22429318726063 57.311199586838484 105.81877810135484 274.43113611638546 28.546707309782505 13.992472413927318 15.783850327134131 112.34229777008295 679.42467184364796 185.34512903913856 208.59337650984526 58.163265489041805 43.468587353825569 41.7349065952003
leaf_count=3879 1011 12602 830 1849 2111 296 1882 1892 1066 279 3619 1274 228 1171 886 1412 4899 470 879 2902 183 126 159 921 11344 1402 1450 371 539 497
internal_value=-0.000340748 -0.0137078 0.0133522 0.0203074 0.012831 0.0207818 -0.0201881 0.0026872 0.0135528 -0.0143515 0.00330001 0.010735 0.04494 0.0392744 -0.0237865 -0.00406668 -0.0104356 -0.0088337 0.0103899 -0.0110355 0.0068827 0.0173419 0.0625549 -0.00197489 -0.0273838 0.00356298 0.00448039 0.0130566 0.00710026 0.0287996
internal_weight=6046.85 3059.84 2987.01 1807.95 1386.98 902.397 2215.64 1179.06 606.789 1469.5 844.199 584.724 420.97 317.672 766.413 703.086 541.881 572.273 163.13 375.585 76.4697 161.206 29.7763 484.582 697.01 426.45 379.099 266.757 216.656 85.2035
internal_count=62429 42157 20272 10684 8607 5035 34625 9588 4360 22023 7532 3385 2077 1650 12509 9514 7817 5228 1349 3913 479 1697 285 3572 11623 3294 2742 1821 2918 1036
is_linear=0
shrinkage=0.05


Tree=26
num_leaves=31
num_cat=0
split_feature=61 70 19 61 19 5 61 19 63 19 70 61 12 91 61 72 18 63 118 70 58 20 81 18 63 20 62 63 19 62
split_gain=406.098 176.567 58.9063 61.0838 58.3747 55.3026 68.0458 62.4243 52.701 50.5339 46.5324 45.3094 39.0737 36.3299 35.8564 35.542 35.9943 33.6078 35.7032 30.4954 29.1296 26.5715 25.6988 25.4237 25.2826 29.8951 30.3523 24.5377 26.4576 24.4275
threshold=-0.0036540178386497727 -0.002541973624331111 0.00034487768612885761 0.00090597727777294611 -0.00088542126339502167 0.0046024060264474725 -0.01140219555322442 -0.001603981325292897 0.99946588829212424 -0.0064041834528236101 -0.018868839112355373 -0.017890825670671014 1.7926180623375669 2.2596296079396114 1.0000000180025095e-35 1.0145895831826302 0.0065638946364724605 0.99972139736180055 0.013375780701982183 0.0051642977945970956 0.0013906085952482582 1.0000000180025095e-35 1.0249955845279792 0.0018781369536212615 1.0052865126243506 -0.0048824484894737551 -0.008133835437223175 0.99851624683394979 0.0023359367522692129 -0.00075540947294131368
decision_type=2 2 2 2 2 2 2 2 2 2 2 2 2 2 2 2 2 2 2 2 2 2 2 2 2 2 2 2 2 2
left_child=5 4 29 13 15 6 9 10 -9 -1 -8 -7 19 17 23 -2 24 18 -4 20 -5 -16 -14 -6 -17 26 -26 28 -23 -3
right_child=1 2 3 12 14 11 7 8 -10 -11 -12 -13 22 -15 21 16 -18 -19 -20 -21 -22 27 -24 -25 25 -27 -28 -29 -30 -31
